digraph Tree {
node [shape=box, style="filled, rounded", color="black", fontname="helvetica"] ;
edge [fontname="helvetica"] ;
0 [label=<Age &le; 22.5<br/>gini = 0.47<br/>samples = 97<br/>value = [96, 58]<br/>class = 0>, fillcolor="#f5cdb1"] ;
1 [label=<Age &le; 21.5<br/>gini = 0.17<br/>samples = 18<br/>value = [29, 3]<br/>class = 0>, fillcolor="#e88e4d"] ;
0 -> 1 [labeldistance=2.5, labelangle=45, headlabel="True"] ;
2 [label=<gini = 0.0<br/>samples = 9<br/>value = [18, 0]<br/>class = 0>, fillcolor="#e58139"] ;
1 -> 2 ;
3 [label=<Glucose &le; 118.5<br/>gini = 0.337<br/>samples = 9<br/>value = [11, 3]<br/>class = 0>, fillcolor="#eca36f"] ;
1 -> 3 ;
4 [label=<gini = 0.0<br/>samples = 6<br/>value = [9, 0]<br/>class = 0>, fillcolor="#e58139"] ;
3 -> 4 ;
5 [label=<Insulin &le; 109.75<br/>gini = 0.48<br/>samples = 3<br/>value = [2, 3]<br/>class = 1>, fillcolor="#bddef6"] ;
3 -> 5 ;
6 [label=<gini = 0.0<br/>samples = 1<br/>value = [0, 2]<br/>class = 1>, fillcolor="#399de5"] ;
5 -> 6 ;
7 [label=<BMI &le; 33.05<br/>gini = 0.444<br/>samples = 2<br/>value = [2, 1]<br/>class = 0>, fillcolor="#f2c09c"] ;
5 -> 7 ;
8 [label=<gini = 0.0<br/>samples = 1<br/>value = [2, 0]<br/>class = 0>, fillcolor="#e58139"] ;
7 -> 8 ;
9 [label=<gini = 0.0<br/>samples = 1<br/>value = [0, 1]<br/>class = 1>, fillcolor="#399de5"] ;
7 -> 9 ;
10 [label=<Insulin &le; 117.5<br/>gini = 0.495<br/>samples = 79<br/>value = [67, 55]<br/>class = 0>, fillcolor="#fae8dc"] ;
0 -> 10 [labeldistance=2.5, labelangle=-45, headlabel="False"] ;
11 [label=<Glucose &le; 160.0<br/>gini = 0.326<br/>samples = 27<br/>value = [31.0, 8.0]<br/>class = 0>, fillcolor="#eca26c"] ;
10 -> 11 ;
12 [label=<DiabetesPedigreeFunction &le; 0.264<br/>gini = 0.208<br/>samples = 24<br/>value = [30, 4]<br/>class = 0>, fillcolor="#e89253"] ;
11 -> 12 ;
13 [label=<Pregnancies &le; 1.0<br/>gini = 0.444<br/>samples = 10<br/>value = [8, 4]<br/>class = 0>, fillcolor="#f2c09c"] ;
12 -> 13 ;
14 [label=<gini = 0.0<br/>samples = 1<br/>value = [0, 1]<br/>class = 1>, fillcolor="#399de5"] ;
13 -> 14 ;
15 [label=<DiabetesPedigreeFunction &le; 0.217<br/>gini = 0.397<br/>samples = 9<br/>value = [8, 3]<br/>class = 0>, fillcolor="#efb083"] ;
13 -> 15 ;
16 [label=<gini = 0.0<br/>samples = 4<br/>value = [5, 0]<br/>class = 0>, fillcolor="#e58139"] ;
15 -> 16 ;
17 [label=<Age &le; 30.5<br/>gini = 0.5<br/>samples = 5<br/>value = [3, 3]<br/>class = 0>, fillcolor="#ffffff"] ;
15 -> 17 ;
18 [label=<Age &le; 28.0<br/>gini = 0.375<br/>samples = 3<br/>value = [3, 1]<br/>class = 0>, fillcolor="#eeab7b"] ;
17 -> 18 ;
19 [label=<DiabetesPedigreeFunction &le; 0.259<br/>gini = 0.5<br/>samples = 2<br/>value = [1, 1]<br/>class = 0>, fillcolor="#ffffff"] ;
18 -> 19 ;
20 [label=<gini = 0.0<br/>samples = 1<br/>value = [1, 0]<br/>class = 0>, fillcolor="#e58139"] ;
19 -> 20 ;
21 [label=<gini = 0.0<br/>samples = 1<br/>value = [0, 1]<br/>class = 1>, fillcolor="#399de5"] ;
19 -> 21 ;
22 [label=<gini = 0.0<br/>samples = 1<br/>value = [2, 0]<br/>class = 0>, fillcolor="#e58139"] ;
18 -> 22 ;
23 [label=<gini = 0.0<br/>samples = 2<br/>value = [0, 2]<br/>class = 1>, fillcolor="#399de5"] ;
17 -> 23 ;
24 [label=<gini = 0.0<br/>samples = 14<br/>value = [22, 0]<br/>class = 0>, fillcolor="#e58139"] ;
12 -> 24 ;
25 [label=<Glucose &le; 163.0<br/>gini = 0.32<br/>samples = 3<br/>value = [1, 4]<br/>class = 1>, fillcolor="#6ab6ec"] ;
11 -> 25 ;
26 [label=<gini = 0.0<br/>samples = 1<br/>value = [0, 2]<br/>class = 1>, fillcolor="#399de5"] ;
25 -> 26 ;
27 [label=<Insulin &le; 77.5<br/>gini = 0.444<br/>samples = 2<br/>value = [1, 2]<br/>class = 1>, fillcolor="#9ccef2"] ;
25 -> 27 ;
28 [label=<gini = 0.0<br/>samples = 1<br/>value = [1, 0]<br/>class = 0>, fillcolor="#e58139"] ;
27 -> 28 ;
29 [label=<gini = 0.0<br/>samples = 1<br/>value = [0, 2]<br/>class = 1>, fillcolor="#399de5"] ;
27 -> 29 ;
30 [label=<Pregnancies &le; 7.5<br/>gini = 0.491<br/>samples = 52<br/>value = [36.0, 47.0]<br/>class = 1>, fillcolor="#d1e8f9"] ;
10 -> 30 ;
31 [label=<Pregnancies &le; 4.5<br/>gini = 0.498<br/>samples = 36<br/>value = [31.0, 27.0]<br/>class = 0>, fillcolor="#fcefe5"] ;
30 -> 31 ;
32 [label=<Glucose &le; 123.5<br/>gini = 0.485<br/>samples = 26<br/>value = [17, 24]<br/>class = 1>, fillcolor="#c5e2f7"] ;
31 -> 32 ;
33 [label=<BMI &le; 32.2<br/>gini = 0.245<br/>samples = 11<br/>value = [12, 2]<br/>class = 0>, fillcolor="#e9965a"] ;
32 -> 33 ;
34 [label=<gini = 0.0<br/>samples = 5<br/>value = [6, 0]<br/>class = 0>, fillcolor="#e58139"] ;
33 -> 34 ;
35 [label=<BMI &le; 33.45<br/>gini = 0.375<br/>samples = 6<br/>value = [6, 2]<br/>class = 0>, fillcolor="#eeab7b"] ;
33 -> 35 ;
36 [label=<gini = 0.0<br/>samples = 1<br/>value = [0, 2]<br/>class = 1>, fillcolor="#399de5"] ;
35 -> 36 ;
37 [label=<gini = 0.0<br/>samples = 5<br/>value = [6, 0]<br/>class = 0>, fillcolor="#e58139"] ;
35 -> 37 ;
38 [label=<BMI &le; 39.55<br/>gini = 0.302<br/>samples = 15<br/>value = [5, 22]<br/>class = 1>, fillcolor="#66b3eb"] ;
32 -> 38 ;
39 [label=<gini = 0.0<br/>samples = 9<br/>value = [0, 14]<br/>class = 1>, fillcolor="#399de5"] ;
38 -> 39 ;
40 [label=<DiabetesPedigreeFunction &le; 0.277<br/>gini = 0.473<br/>samples = 6<br/>value = [5, 8]<br/>class = 1>, fillcolor="#b5daf5"] ;
38 -> 40 ;
41 [label=<gini = 0.0<br/>samples = 1<br/>value = [0, 4]<br/>class = 1>, fillcolor="#399de5"] ;
40 -> 41 ;
42 [label=<DiabetesPedigreeFunction &le; 0.358<br/>gini = 0.494<br/>samples = 5<br/>value = [5, 4]<br/>class = 0>, fillcolor="#fae6d7"] ;
40 -> 42 ;
43 [label=<gini = 0.0<br/>samples = 1<br/>value = [3, 0]<br/>class = 0>, fillcolor="#e58139"] ;
42 -> 43 ;
44 [label=<Age &le; 43.0<br/>gini = 0.444<br/>samples = 4<br/>value = [2, 4]<br/>class = 1>, fillcolor="#9ccef2"] ;
42 -> 44 ;
45 [label=<BMI &le; 41.85<br/>gini = 0.32<br/>samples = 3<br/>value = [1, 4]<br/>class = 1>, fillcolor="#6ab6ec"] ;
44 -> 45 ;
46 [label=<gini = 0.0<br/>samples = 1<br/>value = [1, 0]<br/>class = 0>, fillcolor="#e58139"] ;
45 -> 46 ;
47 [label=<gini = 0.0<br/>samples = 2<br/>value = [0, 4]<br/>class = 1>, fillcolor="#399de5"] ;
45 -> 47 ;
48 [label=<gini = 0.0<br/>samples = 1<br/>value = [1, 0]<br/>class = 0>, fillcolor="#e58139"] ;
44 -> 48 ;
49 [label=<Glucose &le; 154.5<br/>gini = 0.291<br/>samples = 10<br/>value = [14, 3]<br/>class = 0>, fillcolor="#eb9c63"] ;
31 -> 49 ;
50 [label=<gini = 0.0<br/>samples = 8<br/>value = [14, 0]<br/>class = 0>, fillcolor="#e58139"] ;
49 -> 50 ;
51 [label=<gini = 0.0<br/>samples = 2<br/>value = [0, 3]<br/>class = 1>, fillcolor="#399de5"] ;
49 -> 51 ;
52 [label=<BMI &le; 34.75<br/>gini = 0.32<br/>samples = 16<br/>value = [5, 20]<br/>class = 1>, fillcolor="#6ab6ec"] ;
30 -> 52 ;
53 [label=<Insulin &le; 312.5<br/>gini = 0.111<br/>samples = 11<br/>value = [1, 16]<br/>class = 1>, fillcolor="#45a3e7"] ;
52 -> 53 ;
54 [label=<gini = 0.0<br/>samples = 10<br/>value = [0, 16]<br/>class = 1>, fillcolor="#399de5"] ;
53 -> 54 ;
55 [label=<gini = 0.0<br/>samples = 1<br/>value = [1, 0]<br/>class = 0>, fillcolor="#e58139"] ;
53 -> 55 ;
56 [label=<Glucose &le; 134.5<br/>gini = 0.5<br/>samples = 5<br/>value = [4, 4]<br/>class = 0>, fillcolor="#ffffff"] ;
52 -> 56 ;
57 [label=<gini = 0.0<br/>samples = 2<br/>value = [4, 0]<br/>class = 0>, fillcolor="#e58139"] ;
56 -> 57 ;
58 [label=<gini = 0.0<br/>samples = 3<br/>value = [0, 4]<br/>class = 1>, fillcolor="#399de5"] ;
56 -> 58 ;
}