digraph Tree {
node [shape=box, style="filled, rounded", color="black", fontname="helvetica"] ;
edge [fontname="helvetica"] ;
0 [label=<Pregnancies &le; 0.5<br/>gini = 0.451<br/>samples = 98<br/>value = [101.0, 53.0]<br/>class = 0>, fillcolor="#f3c3a1"] ;
1 [label=<Age &le; 41.0<br/>gini = 0.472<br/>samples = 14<br/>value = [8, 13]<br/>class = 1>, fillcolor="#b3d9f5"] ;
0 -> 1 [labeldistance=2.5, labelangle=45, headlabel="True"] ;
2 [label=<Glucose &le; 150.5<br/>gini = 0.401<br/>samples = 12<br/>value = [5, 13]<br/>class = 1>, fillcolor="#85c3ef"] ;
1 -> 2 ;
3 [label=<DiabetesPedigreeFunction &le; 0.79<br/>gini = 0.486<br/>samples = 9<br/>value = [5, 7]<br/>class = 1>, fillcolor="#c6e3f8"] ;
2 -> 3 ;
4 [label=<Insulin &le; 78.0<br/>gini = 0.5<br/>samples = 8<br/>value = [5, 5]<br/>class = 0>, fillcolor="#ffffff"] ;
3 -> 4 ;
5 [label=<gini = 0.0<br/>samples = 2<br/>value = [0, 4]<br/>class = 1>, fillcolor="#399de5"] ;
4 -> 5 ;
6 [label=<Insulin &le; 137.5<br/>gini = 0.278<br/>samples = 6<br/>value = [5, 1]<br/>class = 0>, fillcolor="#ea9a61"] ;
4 -> 6 ;
7 [label=<Glucose &le; 125.0<br/>gini = 0.5<br/>samples = 2<br/>value = [1, 1]<br/>class = 0>, fillcolor="#ffffff"] ;
6 -> 7 ;
8 [label=<gini = 0.0<br/>samples = 1<br/>value = [1, 0]<br/>class = 0>, fillcolor="#e58139"] ;
7 -> 8 ;
9 [label=<gini = 0.0<br/>samples = 1<br/>value = [0, 1]<br/>class = 1>, fillcolor="#399de5"] ;
7 -> 9 ;
10 [label=<gini = 0.0<br/>samples = 4<br/>value = [4, 0]<br/>class = 0>, fillcolor="#e58139"] ;
6 -> 10 ;
11 [label=<gini = 0.0<br/>samples = 1<br/>value = [0, 2]<br/>class = 1>, fillcolor="#399de5"] ;
3 -> 11 ;
12 [label=<gini = 0.0<br/>samples = 3<br/>value = [0, 6]<br/>class = 1>, fillcolor="#399de5"] ;
2 -> 12 ;
13 [label=<gini = 0.0<br/>samples = 2<br/>value = [3, 0]<br/>class = 0>, fillcolor="#e58139"] ;
1 -> 13 ;
14 [label=<Insulin &le; 97.375<br/>gini = 0.421<br/>samples = 84<br/>value = [93, 40]<br/>class = 0>, fillcolor="#f0b78e"] ;
0 -> 14 [labeldistance=2.5, labelangle=-45, headlabel="False"] ;
15 [label=<Age &le; 26.0<br/>gini = 0.215<br/>samples = 25<br/>value = [43, 6]<br/>class = 0>, fillcolor="#e99355"] ;
14 -> 15 ;
16 [label=<gini = 0.0<br/>samples = 10<br/>value = [23, 0]<br/>class = 0>, fillcolor="#e58139"] ;
15 -> 16 ;
17 [label=<BMI &le; 43.25<br/>gini = 0.355<br/>samples = 15<br/>value = [20, 6]<br/>class = 0>, fillcolor="#eda774"] ;
15 -> 17 ;
18 [label=<Age &le; 36.5<br/>gini = 0.278<br/>samples = 14<br/>value = [20, 4]<br/>class = 0>, fillcolor="#ea9a61"] ;
17 -> 18 ;
19 [label=<BMI &le; 35.7<br/>gini = 0.5<br/>samples = 6<br/>value = [4, 4]<br/>class = 0>, fillcolor="#ffffff"] ;
18 -> 19 ;
20 [label=<Glucose &le; 92.5<br/>gini = 0.32<br/>samples = 4<br/>value = [1, 4]<br/>class = 1>, fillcolor="#6ab6ec"] ;
19 -> 20 ;
21 [label=<gini = 0.0<br/>samples = 2<br/>value = [0, 3]<br/>class = 1>, fillcolor="#399de5"] ;
20 -> 21 ;
22 [label=<Pregnancies &le; 4.0<br/>gini = 0.5<br/>samples = 2<br/>value = [1, 1]<br/>class = 0>, fillcolor="#ffffff"] ;
20 -> 22 ;
23 [label=<gini = 0.0<br/>samples = 1<br/>value = [1, 0]<br/>class = 0>, fillcolor="#e58139"] ;
22 -> 23 ;
24 [label=<gini = 0.0<br/>samples = 1<br/>value = [0, 1]<br/>class = 1>, fillcolor="#399de5"] ;
22 -> 24 ;
25 [label=<gini = 0.0<br/>samples = 2<br/>value = [3, 0]<br/>class = 0>, fillcolor="#e58139"] ;
19 -> 25 ;
26 [label=<gini = 0.0<br/>samples = 8<br/>value = [16, 0]<br/>class = 0>, fillcolor="#e58139"] ;
18 -> 26 ;
27 [label=<gini = 0.0<br/>samples = 1<br/>value = [0, 2]<br/>class = 1>, fillcolor="#399de5"] ;
17 -> 27 ;
28 [label=<DiabetesPedigreeFunction &le; 0.539<br/>gini = 0.482<br/>samples = 59<br/>value = [50, 34]<br/>class = 0>, fillcolor="#f7d7c0"] ;
14 -> 28 ;
29 [label=<Pregnancies &le; 7.5<br/>gini = 0.433<br/>samples = 43<br/>value = [43, 20]<br/>class = 0>, fillcolor="#f1bc95"] ;
28 -> 29 ;
30 [label=<Glucose &le; 178.0<br/>gini = 0.255<br/>samples = 28<br/>value = [34, 6]<br/>class = 0>, fillcolor="#ea975c"] ;
29 -> 30 ;
31 [label=<Age &le; 22.5<br/>gini = 0.188<br/>samples = 26<br/>value = [34, 4]<br/>class = 0>, fillcolor="#e89050"] ;
30 -> 31 ;
32 [label=<gini = 0.0<br/>samples = 9<br/>value = [16, 0]<br/>class = 0>, fillcolor="#e58139"] ;
31 -> 32 ;
33 [label=<DiabetesPedigreeFunction &le; 0.171<br/>gini = 0.298<br/>samples = 17<br/>value = [18, 4]<br/>class = 0>, fillcolor="#eb9d65"] ;
31 -> 33 ;
34 [label=<Age &le; 30.5<br/>gini = 0.375<br/>samples = 3<br/>value = [1, 3]<br/>class = 1>, fillcolor="#7bbeee"] ;
33 -> 34 ;
35 [label=<gini = 0.0<br/>samples = 2<br/>value = [0, 3]<br/>class = 1>, fillcolor="#399de5"] ;
34 -> 35 ;
36 [label=<gini = 0.0<br/>samples = 1<br/>value = [1, 0]<br/>class = 0>, fillcolor="#e58139"] ;
34 -> 36 ;
37 [label=<Insulin &le; 179.0<br/>gini = 0.105<br/>samples = 14<br/>value = [17, 1]<br/>class = 0>, fillcolor="#e78845"] ;
33 -> 37 ;
38 [label=<gini = 0.0<br/>samples = 9<br/>value = [13, 0]<br/>class = 0>, fillcolor="#e58139"] ;
37 -> 38 ;
39 [label=<Insulin &le; 186.0<br/>gini = 0.32<br/>samples = 5<br/>value = [4, 1]<br/>class = 0>, fillcolor="#eca06a"] ;
37 -> 39 ;
40 [label=<gini = 0.0<br/>samples = 1<br/>value = [0, 1]<br/>class = 1>, fillcolor="#399de5"] ;
39 -> 40 ;
41 [label=<gini = 0.0<br/>samples = 4<br/>value = [4, 0]<br/>class = 0>, fillcolor="#e58139"] ;
39 -> 41 ;
42 [label=<gini = 0.0<br/>samples = 2<br/>value = [0, 2]<br/>class = 1>, fillcolor="#399de5"] ;
30 -> 42 ;
43 [label=<Pregnancies &le; 8.5<br/>gini = 0.476<br/>samples = 15<br/>value = [9, 14]<br/>class = 1>, fillcolor="#b8dcf6"] ;
29 -> 43 ;
44 [label=<gini = 0.0<br/>samples = 4<br/>value = [0, 8]<br/>class = 1>, fillcolor="#399de5"] ;
43 -> 44 ;
45 [label=<DiabetesPedigreeFunction &le; 0.367<br/>gini = 0.48<br/>samples = 11<br/>value = [9, 6]<br/>class = 0>, fillcolor="#f6d5bd"] ;
43 -> 45 ;
46 [label=<BMI &le; 36.0<br/>gini = 0.375<br/>samples = 8<br/>value = [9, 3]<br/>class = 0>, fillcolor="#eeab7b"] ;
45 -> 46 ;
47 [label=<Insulin &le; 269.5<br/>gini = 0.298<br/>samples = 7<br/>value = [9, 2]<br/>class = 0>, fillcolor="#eb9d65"] ;
46 -> 47 ;
48 [label=<DiabetesPedigreeFunction &le; 0.156<br/>gini = 0.18<br/>samples = 6<br/>value = [9, 1]<br/>class = 0>, fillcolor="#e88f4f"] ;
47 -> 48 ;
49 [label=<Insulin &le; 202.833<br/>gini = 0.444<br/>samples = 2<br/>value = [2, 1]<br/>class = 0>, fillcolor="#f2c09c"] ;
48 -> 49 ;
50 [label=<gini = 0.0<br/>samples = 1<br/>value = [0, 1]<br/>class = 1>, fillcolor="#399de5"] ;
49 -> 50 ;
51 [label=<gini = 0.0<br/>samples = 1<br/>value = [2, 0]<br/>class = 0>, fillcolor="#e58139"] ;
49 -> 51 ;
52 [label=<gini = 0.0<br/>samples = 4<br/>value = [7, 0]<br/>class = 0>, fillcolor="#e58139"] ;
48 -> 52 ;
53 [label=<gini = 0.0<br/>samples = 1<br/>value = [0, 1]<br/>class = 1>, fillcolor="#399de5"] ;
47 -> 53 ;
54 [label=<gini = 0.0<br/>samples = 1<br/>value = [0, 1]<br/>class = 1>, fillcolor="#399de5"] ;
46 -> 54 ;
55 [label=<gini = 0.0<br/>samples = 3<br/>value = [0, 3]<br/>class = 1>, fillcolor="#399de5"] ;
45 -> 55 ;
56 [label=<Glucose &le; 117.0<br/>gini = 0.444<br/>samples = 16<br/>value = [7, 14]<br/>class = 1>, fillcolor="#9ccef2"] ;
28 -> 56 ;
57 [label=<DiabetesPedigreeFunction &le; 0.894<br/>gini = 0.375<br/>samples = 5<br/>value = [6, 2]<br/>class = 0>, fillcolor="#eeab7b"] ;
56 -> 57 ;
58 [label=<gini = 0.0<br/>samples = 3<br/>value = [5, 0]<br/>class = 0>, fillcolor="#e58139"] ;
57 -> 58 ;
59 [label=<DiabetesPedigreeFunction &le; 0.94<br/>gini = 0.444<br/>samples = 2<br/>value = [1, 2]<br/>class = 1>, fillcolor="#9ccef2"] ;
57 -> 59 ;
60 [label=<gini = 0.0<br/>samples = 1<br/>value = [0, 2]<br/>class = 1>, fillcolor="#399de5"] ;
59 -> 60 ;
61 [label=<gini = 0.0<br/>samples = 1<br/>value = [1, 0]<br/>class = 0>, fillcolor="#e58139"] ;
59 -> 61 ;
62 [label=<Glucose &le; 131.5<br/>gini = 0.142<br/>samples = 11<br/>value = [1, 12]<br/>class = 1>, fillcolor="#49a5e7"] ;
56 -> 62 ;
63 [label=<Insulin &le; 246.5<br/>gini = 0.444<br/>samples = 2<br/>value = [1, 2]<br/>class = 1>, fillcolor="#9ccef2"] ;
62 -> 63 ;
64 [label=<gini = 0.0<br/>samples = 1<br/>value = [0, 2]<br/>class = 1>, fillcolor="#399de5"] ;
63 -> 64 ;
65 [label=<gini = 0.0<br/>samples = 1<br/>value = [1, 0]<br/>class = 0>, fillcolor="#e58139"] ;
63 -> 65 ;
66 [label=<gini = 0.0<br/>samples = 9<br/>value = [0, 10]<br/>class = 1>, fillcolor="#399de5"] ;
62 -> 66 ;
}