digraph Tree {
node [shape=box, style="filled, rounded", color="black", fontname="helvetica"] ;
edge [fontname="helvetica"] ;
0 [label=<BMI &le; 42.25<br/>gini = 0.455<br/>samples = 99<br/>value = [100, 54]<br/>class = 0>, fillcolor="#f3c5a4"] ;
1 [label=<DiabetesPedigreeFunction &le; 0.734<br/>gini = 0.426<br/>samples = 91<br/>value = [99, 44]<br/>class = 0>, fillcolor="#f1b991"] ;
0 -> 1 [labeldistance=2.5, labelangle=45, headlabel="True"] ;
2 [label=<Insulin &le; 196.5<br/>gini = 0.371<br/>samples = 76<br/>value = [92, 30]<br/>class = 0>, fillcolor="#edaa7a"] ;
1 -> 2 ;
3 [label=<DiabetesPedigreeFunction &le; 0.327<br/>gini = 0.315<br/>samples = 64<br/>value = [82, 20]<br/>class = 0>, fillcolor="#eba069"] ;
2 -> 3 ;
4 [label=<Glucose &le; 135.5<br/>gini = 0.155<br/>samples = 33<br/>value = [54, 5]<br/>class = 0>, fillcolor="#e78d4b"] ;
3 -> 4 ;
5 [label=<Insulin &le; 36.5<br/>gini = 0.107<br/>samples = 28<br/>value = [50, 3]<br/>class = 0>, fillcolor="#e78945"] ;
4 -> 5 ;
6 [label=<gini = 0.0<br/>samples = 1<br/>value = [0, 2]<br/>class = 1>, fillcolor="#399de5"] ;
5 -> 6 ;
7 [label=<Glucose &le; 86.0<br/>gini = 0.038<br/>samples = 27<br/>value = [50, 1]<br/>class = 0>, fillcolor="#e6843d"] ;
5 -> 7 ;
8 [label=<Pregnancies &le; 4.5<br/>gini = 0.153<br/>samples = 8<br/>value = [11, 1]<br/>class = 0>, fillcolor="#e78c4b"] ;
7 -> 8 ;
9 [label=<gini = 0.0<br/>samples = 7<br/>value = [11, 0]<br/>class = 0>, fillcolor="#e58139"] ;
8 -> 9 ;
10 [label=<gini = 0.0<br/>samples = 1<br/>value = [0, 1]<br/>class = 1>, fillcolor="#399de5"] ;
8 -> 10 ;
11 [label=<gini = 0.0<br/>samples = 19<br/>value = [39, 0]<br/>class = 0>, fillcolor="#e58139"] ;
7 -> 11 ;
12 [label=<DiabetesPedigreeFunction &le; 0.15<br/>gini = 0.444<br/>samples = 5<br/>value = [4, 2]<br/>class = 0>, fillcolor="#f2c09c"] ;
4 -> 12 ;
13 [label=<gini = 0.0<br/>samples = 1<br/>value = [0, 1]<br/>class = 1>, fillcolor="#399de5"] ;
12 -> 13 ;
14 [label=<DiabetesPedigreeFunction &le; 0.235<br/>gini = 0.32<br/>samples = 4<br/>value = [4, 1]<br/>class = 0>, fillcolor="#eca06a"] ;
12 -> 14 ;
15 [label=<gini = 0.0<br/>samples = 3<br/>value = [4, 0]<br/>class = 0>, fillcolor="#e58139"] ;
14 -> 15 ;
16 [label=<gini = 0.0<br/>samples = 1<br/>value = [0, 1]<br/>class = 1>, fillcolor="#399de5"] ;
14 -> 16 ;
17 [label=<BMI &le; 24.35<br/>gini = 0.454<br/>samples = 31<br/>value = [28.0, 15.0]<br/>class = 0>, fillcolor="#f3c4a3"] ;
3 -> 17 ;
18 [label=<Insulin &le; 184.5<br/>gini = 0.278<br/>samples = 3<br/>value = [1, 5]<br/>class = 1>, fillcolor="#61b1ea"] ;
17 -> 18 ;
19 [label=<gini = 0.0<br/>samples = 2<br/>value = [0, 5]<br/>class = 1>, fillcolor="#399de5"] ;
18 -> 19 ;
20 [label=<gini = 0.0<br/>samples = 1<br/>value = [1, 0]<br/>class = 0>, fillcolor="#e58139"] ;
18 -> 20 ;
21 [label=<Pregnancies &le; 10.0<br/>gini = 0.394<br/>samples = 28<br/>value = [27, 10]<br/>class = 0>, fillcolor="#efb082"] ;
17 -> 21 ;
22 [label=<Age &le; 21.5<br/>gini = 0.353<br/>samples = 26<br/>value = [27, 8]<br/>class = 0>, fillcolor="#eda674"] ;
21 -> 22 ;
23 [label=<gini = 0.0<br/>samples = 1<br/>value = [0, 2]<br/>class = 1>, fillcolor="#399de5"] ;
22 -> 23 ;
24 [label=<DiabetesPedigreeFunction &le; 0.359<br/>gini = 0.298<br/>samples = 25<br/>value = [27, 6]<br/>class = 0>, fillcolor="#eb9d65"] ;
22 -> 24 ;
25 [label=<Age &le; 31.5<br/>gini = 0.444<br/>samples = 3<br/>value = [1, 2]<br/>class = 1>, fillcolor="#9ccef2"] ;
24 -> 25 ;
26 [label=<gini = 0.0<br/>samples = 1<br/>value = [1, 0]<br/>class = 0>, fillcolor="#e58139"] ;
25 -> 26 ;
27 [label=<gini = 0.0<br/>samples = 2<br/>value = [0, 2]<br/>class = 1>, fillcolor="#399de5"] ;
25 -> 27 ;
28 [label=<Glucose &le; 193.0<br/>gini = 0.231<br/>samples = 22<br/>value = [26, 4]<br/>class = 0>, fillcolor="#e99457"] ;
24 -> 28 ;
29 [label=<Age &le; 44.0<br/>gini = 0.133<br/>samples = 21<br/>value = [26, 2]<br/>class = 0>, fillcolor="#e78b48"] ;
28 -> 29 ;
30 [label=<Insulin &le; 65.0<br/>gini = 0.08<br/>samples = 17<br/>value = [23, 1]<br/>class = 0>, fillcolor="#e68642"] ;
29 -> 30 ;
31 [label=<Pregnancies &le; 0.5<br/>gini = 0.375<br/>samples = 4<br/>value = [3, 1]<br/>class = 0>, fillcolor="#eeab7b"] ;
30 -> 31 ;
32 [label=<gini = 0.0<br/>samples = 1<br/>value = [0, 1]<br/>class = 1>, fillcolor="#399de5"] ;
31 -> 32 ;
33 [label=<gini = 0.0<br/>samples = 3<br/>value = [3, 0]<br/>class = 0>, fillcolor="#e58139"] ;
31 -> 33 ;
34 [label=<gini = 0.0<br/>samples = 13<br/>value = [20, 0]<br/>class = 0>, fillcolor="#e58139"] ;
30 -> 34 ;
35 [label=<Pregnancies &le; 6.5<br/>gini = 0.375<br/>samples = 4<br/>value = [3, 1]<br/>class = 0>, fillcolor="#eeab7b"] ;
29 -> 35 ;
36 [label=<gini = 0.0<br/>samples = 2<br/>value = [2, 0]<br/>class = 0>, fillcolor="#e58139"] ;
35 -> 36 ;
37 [label=<Insulin &le; 61.5<br/>gini = 0.5<br/>samples = 2<br/>value = [1, 1]<br/>class = 0>, fillcolor="#ffffff"] ;
35 -> 37 ;
38 [label=<gini = 0.0<br/>samples = 1<br/>value = [1, 0]<br/>class = 0>, fillcolor="#e58139"] ;
37 -> 38 ;
39 [label=<gini = 0.0<br/>samples = 1<br/>value = [0, 1]<br/>class = 1>, fillcolor="#399de5"] ;
37 -> 39 ;
40 [label=<gini = 0.0<br/>samples = 1<br/>value = [0, 2]<br/>class = 1>, fillcolor="#399de5"] ;
28 -> 40 ;
41 [label=<gini = 0.0<br/>samples = 2<br/>value = [0, 2]<br/>class = 1>, fillcolor="#399de5"] ;
21 -> 41 ;
42 [label=<BMI &le; 35.85<br/>gini = 0.5<br/>samples = 12<br/>value = [10, 10]<br/>class = 0>, fillcolor="#ffffff"] ;
2 -> 42 ;
43 [label=<gini = 0.0<br/>samples = 5<br/>value = [7, 0]<br/>class = 0>, fillcolor="#e58139"] ;
42 -> 43 ;
44 [label=<DiabetesPedigreeFunction &le; 0.36<br/>gini = 0.355<br/>samples = 7<br/>value = [3, 10]<br/>class = 1>, fillcolor="#74baed"] ;
42 -> 44 ;
45 [label=<gini = 0.0<br/>samples = 4<br/>value = [0, 8]<br/>class = 1>, fillcolor="#399de5"] ;
44 -> 45 ;
46 [label=<Insulin &le; 207.5<br/>gini = 0.48<br/>samples = 3<br/>value = [3, 2]<br/>class = 0>, fillcolor="#f6d5bd"] ;
44 -> 46 ;
47 [label=<gini = 0.0<br/>samples = 1<br/>value = [0, 2]<br/>class = 1>, fillcolor="#399de5"] ;
46 -> 47 ;
48 [label=<gini = 0.0<br/>samples = 2<br/>value = [3, 0]<br/>class = 0>, fillcolor="#e58139"] ;
46 -> 48 ;
49 [label=<Age &le; 25.5<br/>gini = 0.444<br/>samples = 15<br/>value = [7, 14]<br/>class = 1>, fillcolor="#9ccef2"] ;
1 -> 49 ;
50 [label=<gini = 0.0<br/>samples = 3<br/>value = [3, 0]<br/>class = 0>, fillcolor="#e58139"] ;
49 -> 50 ;
51 [label=<Glucose &le; 108.0<br/>gini = 0.346<br/>samples = 12<br/>value = [4, 14]<br/>class = 1>, fillcolor="#72b9ec"] ;
49 -> 51 ;
52 [label=<gini = 0.0<br/>samples = 3<br/>value = [4, 0]<br/>class = 0>, fillcolor="#e58139"] ;
51 -> 52 ;
53 [label=<gini = 0.0<br/>samples = 9<br/>value = [0, 14]<br/>class = 1>, fillcolor="#399de5"] ;
51 -> 53 ;
54 [label=<Glucose &le; 120.0<br/>gini = 0.165<br/>samples = 8<br/>value = [1, 10]<br/>class = 1>, fillcolor="#4da7e8"] ;
0 -> 54 [labeldistance=2.5, labelangle=-45, headlabel="False"] ;
55 [label=<BMI &le; 44.1<br/>gini = 0.375<br/>samples = 2<br/>value = [1, 3]<br/>class = 1>, fillcolor="#7bbeee"] ;
54 -> 55 ;
56 [label=<gini = 0.0<br/>samples = 1<br/>value = [1, 0]<br/>class = 0>, fillcolor="#e58139"] ;
55 -> 56 ;
57 [label=<gini = 0.0<br/>samples = 1<br/>value = [0, 3]<br/>class = 1>, fillcolor="#399de5"] ;
55 -> 57 ;
58 [label=<gini = 0.0<br/>samples = 6<br/>value = [0, 7]<br/>class = 1>, fillcolor="#399de5"] ;
54 -> 58 ;
}