digraph Tree {
node [shape=box, style="filled, rounded", color="black", fontname="helvetica"] ;
edge [fontname="helvetica"] ;
0 [label=<Pregnancies &le; 10.5<br/>gini = 0.463<br/>samples = 99<br/>value = [98, 56]<br/>class = 0>, fillcolor="#f4c9aa"] ;
1 [label=<BMI &le; 30.85<br/>gini = 0.427<br/>samples = 92<br/>value = [96, 43]<br/>class = 0>, fillcolor="#f1b992"] ;
0 -> 1 [labeldistance=2.5, labelangle=45, headlabel="True"] ;
2 [label=<Age &le; 28.5<br/>gini = 0.229<br/>samples = 39<br/>value = [46, 7]<br/>class = 0>, fillcolor="#e99457"] ;
1 -> 2 ;
3 [label=<Pregnancies &le; 7.5<br/>gini = 0.064<br/>samples = 21<br/>value = [29, 1]<br/>class = 0>, fillcolor="#e68540"] ;
2 -> 3 ;
4 [label=<gini = 0.0<br/>samples = 20<br/>value = [29, 0]<br/>class = 0>, fillcolor="#e58139"] ;
3 -> 4 ;
5 [label=<gini = 0.0<br/>samples = 1<br/>value = [0, 1]<br/>class = 1>, fillcolor="#399de5"] ;
3 -> 5 ;
6 [label=<Pregnancies &le; 6.5<br/>gini = 0.386<br/>samples = 18<br/>value = [17, 6]<br/>class = 0>, fillcolor="#eead7f"] ;
2 -> 6 ;
7 [label=<Age &le; 30.5<br/>gini = 0.305<br/>samples = 11<br/>value = [13, 3]<br/>class = 0>, fillcolor="#eb9e67"] ;
6 -> 7 ;
8 [label=<Insulin &le; 167.917<br/>gini = 0.444<br/>samples = 2<br/>value = [1, 2]<br/>class = 1>, fillcolor="#9ccef2"] ;
7 -> 8 ;
9 [label=<gini = 0.0<br/>samples = 1<br/>value = [1, 0]<br/>class = 0>, fillcolor="#e58139"] ;
8 -> 9 ;
10 [label=<gini = 0.0<br/>samples = 1<br/>value = [0, 2]<br/>class = 1>, fillcolor="#399de5"] ;
8 -> 10 ;
11 [label=<Glucose &le; 92.0<br/>gini = 0.142<br/>samples = 9<br/>value = [12, 1]<br/>class = 0>, fillcolor="#e78c49"] ;
7 -> 11 ;
12 [label=<BMI &le; 29.15<br/>gini = 0.444<br/>samples = 2<br/>value = [2, 1]<br/>class = 0>, fillcolor="#f2c09c"] ;
11 -> 12 ;
13 [label=<gini = 0.0<br/>samples = 1<br/>value = [0, 1]<br/>class = 1>, fillcolor="#399de5"] ;
12 -> 13 ;
14 [label=<gini = 0.0<br/>samples = 1<br/>value = [2, 0]<br/>class = 0>, fillcolor="#e58139"] ;
12 -> 14 ;
15 [label=<gini = 0.0<br/>samples = 7<br/>value = [10, 0]<br/>class = 0>, fillcolor="#e58139"] ;
11 -> 15 ;
16 [label=<Glucose &le; 115.5<br/>gini = 0.49<br/>samples = 7<br/>value = [4, 3]<br/>class = 0>, fillcolor="#f8e0ce"] ;
6 -> 16 ;
17 [label=<gini = 0.0<br/>samples = 3<br/>value = [3, 0]<br/>class = 0>, fillcolor="#e58139"] ;
16 -> 17 ;
18 [label=<Insulin &le; 167.071<br/>gini = 0.375<br/>samples = 4<br/>value = [1, 3]<br/>class = 1>, fillcolor="#7bbeee"] ;
16 -> 18 ;
19 [label=<gini = 0.0<br/>samples = 2<br/>value = [0, 2]<br/>class = 1>, fillcolor="#399de5"] ;
18 -> 19 ;
20 [label=<Age &le; 39.5<br/>gini = 0.5<br/>samples = 2<br/>value = [1, 1]<br/>class = 0>, fillcolor="#ffffff"] ;
18 -> 20 ;
21 [label=<gini = 0.0<br/>samples = 1<br/>value = [0, 1]<br/>class = 1>, fillcolor="#399de5"] ;
20 -> 21 ;
22 [label=<gini = 0.0<br/>samples = 1<br/>value = [1, 0]<br/>class = 0>, fillcolor="#e58139"] ;
20 -> 22 ;
23 [label=<BMI &le; 36.6<br/>gini = 0.487<br/>samples = 53<br/>value = [50, 36]<br/>class = 0>, fillcolor="#f8dcc8"] ;
1 -> 23 ;
24 [label=<Glucose &le; 147.5<br/>gini = 0.498<br/>samples = 30<br/>value = [23, 26]<br/>class = 1>, fillcolor="#e8f4fc"] ;
23 -> 24 ;
25 [label=<DiabetesPedigreeFunction &le; 0.78<br/>gini = 0.428<br/>samples = 18<br/>value = [20, 9]<br/>class = 0>, fillcolor="#f1ba92"] ;
24 -> 25 ;
26 [label=<Pregnancies &le; 0.5<br/>gini = 0.255<br/>samples = 14<br/>value = [17, 3]<br/>class = 0>, fillcolor="#ea975c"] ;
25 -> 26 ;
27 [label=<gini = 0.0<br/>samples = 1<br/>value = [0, 1]<br/>class = 1>, fillcolor="#399de5"] ;
26 -> 27 ;
28 [label=<DiabetesPedigreeFunction &le; 0.271<br/>gini = 0.188<br/>samples = 13<br/>value = [17, 2]<br/>class = 0>, fillcolor="#e89050"] ;
26 -> 28 ;
29 [label=<Insulin &le; 101.0<br/>gini = 0.346<br/>samples = 6<br/>value = [7, 2]<br/>class = 0>, fillcolor="#eca572"] ;
28 -> 29 ;
30 [label=<gini = 0.0<br/>samples = 1<br/>value = [0, 1]<br/>class = 1>, fillcolor="#399de5"] ;
29 -> 30 ;
31 [label=<Insulin &le; 245.833<br/>gini = 0.219<br/>samples = 5<br/>value = [7, 1]<br/>class = 0>, fillcolor="#e99355"] ;
29 -> 31 ;
32 [label=<gini = 0.0<br/>samples = 4<br/>value = [7, 0]<br/>class = 0>, fillcolor="#e58139"] ;
31 -> 32 ;
33 [label=<gini = 0.0<br/>samples = 1<br/>value = [0, 1]<br/>class = 1>, fillcolor="#399de5"] ;
31 -> 33 ;
34 [label=<gini = 0.0<br/>samples = 7<br/>value = [10, 0]<br/>class = 0>, fillcolor="#e58139"] ;
28 -> 34 ;
35 [label=<DiabetesPedigreeFunction &le; 0.964<br/>gini = 0.444<br/>samples = 4<br/>value = [3, 6]<br/>class = 1>, fillcolor="#9ccef2"] ;
25 -> 35 ;
36 [label=<gini = 0.0<br/>samples = 3<br/>value = [0, 6]<br/>class = 1>, fillcolor="#399de5"] ;
35 -> 36 ;
37 [label=<gini = 0.0<br/>samples = 1<br/>value = [3, 0]<br/>class = 0>, fillcolor="#e58139"] ;
35 -> 37 ;
38 [label=<Insulin &le; 132.667<br/>gini = 0.255<br/>samples = 12<br/>value = [3, 17]<br/>class = 1>, fillcolor="#5caeea"] ;
24 -> 38 ;
39 [label=<BMI &le; 33.7<br/>gini = 0.469<br/>samples = 5<br/>value = [3, 5]<br/>class = 1>, fillcolor="#b0d8f5"] ;
38 -> 39 ;
40 [label=<gini = 0.0<br/>samples = 2<br/>value = [3, 0]<br/>class = 0>, fillcolor="#e58139"] ;
39 -> 40 ;
41 [label=<gini = 0.0<br/>samples = 3<br/>value = [0, 5]<br/>class = 1>, fillcolor="#399de5"] ;
39 -> 41 ;
42 [label=<gini = 0.0<br/>samples = 7<br/>value = [0, 12]<br/>class = 1>, fillcolor="#399de5"] ;
38 -> 42 ;
43 [label=<BMI &le; 42.85<br/>gini = 0.394<br/>samples = 23<br/>value = [27, 10]<br/>class = 0>, fillcolor="#efb082"] ;
23 -> 43 ;
44 [label=<Pregnancies &le; 2.5<br/>gini = 0.312<br/>samples = 19<br/>value = [25, 6]<br/>class = 0>, fillcolor="#eb9f69"] ;
43 -> 44 ;
45 [label=<Glucose &le; 139.5<br/>gini = 0.095<br/>samples = 11<br/>value = [19, 1]<br/>class = 0>, fillcolor="#e68843"] ;
44 -> 45 ;
46 [label=<gini = 0.0<br/>samples = 8<br/>value = [16, 0]<br/>class = 0>, fillcolor="#e58139"] ;
45 -> 46 ;
47 [label=<Glucose &le; 142.0<br/>gini = 0.375<br/>samples = 3<br/>value = [3, 1]<br/>class = 0>, fillcolor="#eeab7b"] ;
45 -> 47 ;
48 [label=<gini = 0.0<br/>samples = 1<br/>value = [0, 1]<br/>class = 1>, fillcolor="#399de5"] ;
47 -> 48 ;
49 [label=<gini = 0.0<br/>samples = 2<br/>value = [3, 0]<br/>class = 0>, fillcolor="#e58139"] ;
47 -> 49 ;
50 [label=<Age &le; 26.0<br/>gini = 0.496<br/>samples = 8<br/>value = [6, 5]<br/>class = 0>, fillcolor="#fbeade"] ;
44 -> 50 ;
51 [label=<gini = 0.0<br/>samples = 1<br/>value = [0, 3]<br/>class = 1>, fillcolor="#399de5"] ;
50 -> 51 ;
52 [label=<Glucose &le; 129.0<br/>gini = 0.375<br/>samples = 7<br/>value = [6, 2]<br/>class = 0>, fillcolor="#eeab7b"] ;
50 -> 52 ;
53 [label=<gini = 0.0<br/>samples = 5<br/>value = [6, 0]<br/>class = 0>, fillcolor="#e58139"] ;
52 -> 53 ;
54 [label=<gini = 0.0<br/>samples = 2<br/>value = [0, 2]<br/>class = 1>, fillcolor="#399de5"] ;
52 -> 54 ;
55 [label=<BMI &le; 46.0<br/>gini = 0.444<br/>samples = 4<br/>value = [2, 4]<br/>class = 1>, fillcolor="#9ccef2"] ;
43 -> 55 ;
56 [label=<gini = 0.0<br/>samples = 3<br/>value = [0, 4]<br/>class = 1>, fillcolor="#399de5"] ;
55 -> 56 ;
57 [label=<gini = 0.0<br/>samples = 1<br/>value = [2, 0]<br/>class = 0>, fillcolor="#e58139"] ;
55 -> 57 ;
58 [label=<DiabetesPedigreeFunction &le; 0.218<br/>gini = 0.231<br/>samples = 7<br/>value = [2, 13]<br/>class = 1>, fillcolor="#57ace9"] ;
0 -> 58 [labeldistance=2.5, labelangle=-45, headlabel="False"] ;
59 [label=<gini = 0.0<br/>samples = 1<br/>value = [2, 0]<br/>class = 0>, fillcolor="#e58139"] ;
58 -> 59 ;
60 [label=<gini = 0.0<br/>samples = 6<br/>value = [0, 13]<br/>class = 1>, fillcolor="#399de5"] ;
58 -> 60 ;
}