digraph Tree {
node [shape=box, style="filled, rounded", color="black", fontname="helvetica"] ;
edge [fontname="helvetica"] ;
0 [label=<Glucose &le; 119.5<br/>gini = 0.455<br/>samples = 96<br/>value = [100, 54]<br/>class = 0>, fillcolor="#f3c5a4"] ;
1 [label=<Pregnancies &le; 9.0<br/>gini = 0.229<br/>samples = 54<br/>value = [79, 12]<br/>class = 0>, fillcolor="#e99457"] ;
0 -> 1 [labeldistance=2.5, labelangle=45, headlabel="True"] ;
2 [label=<Glucose &le; 85.5<br/>gini = 0.151<br/>samples = 49<br/>value = [78, 7]<br/>class = 0>, fillcolor="#e78c4b"] ;
1 -> 2 ;
3 [label=<Glucose &le; 78.5<br/>gini = 0.426<br/>samples = 9<br/>value = [9, 4]<br/>class = 0>, fillcolor="#f1b991"] ;
2 -> 3 ;
4 [label=<gini = 0.0<br/>samples = 4<br/>value = [6, 0]<br/>class = 0>, fillcolor="#e58139"] ;
3 -> 4 ;
5 [label=<BMI &le; 28.4<br/>gini = 0.49<br/>samples = 5<br/>value = [3, 4]<br/>class = 1>, fillcolor="#cee6f8"] ;
3 -> 5 ;
6 [label=<gini = 0.0<br/>samples = 1<br/>value = [1, 0]<br/>class = 0>, fillcolor="#e58139"] ;
5 -> 6 ;
7 [label=<Pregnancies &le; 6.5<br/>gini = 0.444<br/>samples = 4<br/>value = [2, 4]<br/>class = 1>, fillcolor="#9ccef2"] ;
5 -> 7 ;
8 [label=<BMI &le; 29.35<br/>gini = 0.32<br/>samples = 3<br/>value = [1, 4]<br/>class = 1>, fillcolor="#6ab6ec"] ;
7 -> 8 ;
9 [label=<gini = 0.0<br/>samples = 1<br/>value = [0, 2]<br/>class = 1>, fillcolor="#399de5"] ;
8 -> 9 ;
10 [label=<BMI &le; 31.95<br/>gini = 0.444<br/>samples = 2<br/>value = [1, 2]<br/>class = 1>, fillcolor="#9ccef2"] ;
8 -> 10 ;
11 [label=<gini = 0.0<br/>samples = 1<br/>value = [1, 0]<br/>class = 0>, fillcolor="#e58139"] ;
10 -> 11 ;
12 [label=<gini = 0.0<br/>samples = 1<br/>value = [0, 2]<br/>class = 1>, fillcolor="#399de5"] ;
10 -> 12 ;
13 [label=<gini = 0.0<br/>samples = 1<br/>value = [1, 0]<br/>class = 0>, fillcolor="#e58139"] ;
7 -> 13 ;
14 [label=<Insulin &le; 269.833<br/>gini = 0.08<br/>samples = 40<br/>value = [69, 3]<br/>class = 0>, fillcolor="#e68642"] ;
2 -> 14 ;
15 [label=<Age &le; 41.0<br/>gini = 0.029<br/>samples = 38<br/>value = [68, 1]<br/>class = 0>, fillcolor="#e5833c"] ;
14 -> 15 ;
16 [label=<gini = 0.0<br/>samples = 29<br/>value = [56, 0]<br/>class = 0>, fillcolor="#e58139"] ;
15 -> 16 ;
17 [label=<Age &le; 43.5<br/>gini = 0.142<br/>samples = 9<br/>value = [12, 1]<br/>class = 0>, fillcolor="#e78c49"] ;
15 -> 17 ;
18 [label=<Pregnancies &le; 6.5<br/>gini = 0.375<br/>samples = 3<br/>value = [3, 1]<br/>class = 0>, fillcolor="#eeab7b"] ;
17 -> 18 ;
19 [label=<gini = 0.0<br/>samples = 2<br/>value = [3, 0]<br/>class = 0>, fillcolor="#e58139"] ;
18 -> 19 ;
20 [label=<gini = 0.0<br/>samples = 1<br/>value = [0, 1]<br/>class = 1>, fillcolor="#399de5"] ;
18 -> 20 ;
21 [label=<gini = 0.0<br/>samples = 6<br/>value = [9, 0]<br/>class = 0>, fillcolor="#e58139"] ;
17 -> 21 ;
22 [label=<Insulin &le; 302.5<br/>gini = 0.444<br/>samples = 2<br/>value = [1, 2]<br/>class = 1>, fillcolor="#9ccef2"] ;
14 -> 22 ;
23 [label=<gini = 0.0<br/>samples = 1<br/>value = [0, 2]<br/>class = 1>, fillcolor="#399de5"] ;
22 -> 23 ;
24 [label=<gini = 0.0<br/>samples = 1<br/>value = [1, 0]<br/>class = 0>, fillcolor="#e58139"] ;
22 -> 24 ;
25 [label=<DiabetesPedigreeFunction &le; 0.138<br/>gini = 0.278<br/>samples = 5<br/>value = [1, 5]<br/>class = 1>, fillcolor="#61b1ea"] ;
1 -> 25 ;
26 [label=<gini = 0.0<br/>samples = 1<br/>value = [1, 0]<br/>class = 0>, fillcolor="#e58139"] ;
25 -> 26 ;
27 [label=<gini = 0.0<br/>samples = 4<br/>value = [0, 5]<br/>class = 1>, fillcolor="#399de5"] ;
25 -> 27 ;
28 [label=<BMI &le; 27.25<br/>gini = 0.444<br/>samples = 42<br/>value = [21, 42]<br/>class = 1>, fillcolor="#9ccef2"] ;
0 -> 28 [labeldistance=2.5, labelangle=-45, headlabel="False"] ;
29 [label=<Insulin &le; 104.0<br/>gini = 0.32<br/>samples = 4<br/>value = [4, 1]<br/>class = 0>, fillcolor="#eca06a"] ;
28 -> 29 ;
30 [label=<gini = 0.0<br/>samples = 1<br/>value = [0, 1]<br/>class = 1>, fillcolor="#399de5"] ;
29 -> 30 ;
31 [label=<gini = 0.0<br/>samples = 3<br/>value = [4, 0]<br/>class = 0>, fillcolor="#e58139"] ;
29 -> 31 ;
32 [label=<DiabetesPedigreeFunction &le; 0.157<br/>gini = 0.414<br/>samples = 38<br/>value = [17, 41]<br/>class = 1>, fillcolor="#8bc6f0"] ;
28 -> 32 ;
33 [label=<gini = 0.0<br/>samples = 2<br/>value = [0, 5]<br/>class = 1>, fillcolor="#399de5"] ;
32 -> 33 ;
34 [label=<BMI &le; 28.45<br/>gini = 0.436<br/>samples = 36<br/>value = [17, 36]<br/>class = 1>, fillcolor="#96cbf1"] ;
32 -> 34 ;
35 [label=<gini = 0.0<br/>samples = 3<br/>value = [0, 7]<br/>class = 1>, fillcolor="#399de5"] ;
34 -> 35 ;
36 [label=<Pregnancies &le; 7.5<br/>gini = 0.466<br/>samples = 33<br/>value = [17, 29]<br/>class = 1>, fillcolor="#add6f4"] ;
34 -> 36 ;
37 [label=<BMI &le; 42.85<br/>gini = 0.494<br/>samples = 26<br/>value = [17.0, 21.0]<br/>class = 1>, fillcolor="#d9ecfa"] ;
36 -> 37 ;
38 [label=<BMI &le; 40.3<br/>gini = 0.5<br/>samples = 23<br/>value = [17, 17]<br/>class = 0>, fillcolor="#ffffff"] ;
37 -> 38 ;
39 [label=<BMI &le; 34.4<br/>gini = 0.469<br/>samples = 18<br/>value = [9, 15]<br/>class = 1>, fillcolor="#b0d8f5"] ;
38 -> 39 ;
40 [label=<Age &le; 36.5<br/>gini = 0.463<br/>samples = 8<br/>value = [7, 4]<br/>class = 0>, fillcolor="#f4c9aa"] ;
39 -> 40 ;
41 [label=<gini = 0.0<br/>samples = 3<br/>value = [0, 4]<br/>class = 1>, fillcolor="#399de5"] ;
40 -> 41 ;
42 [label=<gini = 0.0<br/>samples = 5<br/>value = [7, 0]<br/>class = 0>, fillcolor="#e58139"] ;
40 -> 42 ;
43 [label=<DiabetesPedigreeFunction &le; 0.347<br/>gini = 0.26<br/>samples = 10<br/>value = [2, 11]<br/>class = 1>, fillcolor="#5dafea"] ;
39 -> 43 ;
44 [label=<Insulin &le; 235.5<br/>gini = 0.5<br/>samples = 4<br/>value = [2, 2]<br/>class = 0>, fillcolor="#ffffff"] ;
43 -> 44 ;
45 [label=<gini = 0.0<br/>samples = 2<br/>value = [2, 0]<br/>class = 0>, fillcolor="#e58139"] ;
44 -> 45 ;
46 [label=<gini = 0.0<br/>samples = 2<br/>value = [0, 2]<br/>class = 1>, fillcolor="#399de5"] ;
44 -> 46 ;
47 [label=<gini = 0.0<br/>samples = 6<br/>value = [0, 9]<br/>class = 1>, fillcolor="#399de5"] ;
43 -> 47 ;
48 [label=<BMI &le; 41.95<br/>gini = 0.32<br/>samples = 5<br/>value = [8, 2]<br/>class = 0>, fillcolor="#eca06a"] ;
38 -> 48 ;
49 [label=<gini = 0.0<br/>samples = 3<br/>value = [6, 0]<br/>class = 0>, fillcolor="#e58139"] ;
48 -> 49 ;
50 [label=<Glucose &le; 143.5<br/>gini = 0.5<br/>samples = 2<br/>value = [2, 2]<br/>class = 0>, fillcolor="#ffffff"] ;
48 -> 50 ;
51 [label=<gini = 0.0<br/>samples = 1<br/>value = [0, 2]<br/>class = 1>, fillcolor="#399de5"] ;
50 -> 51 ;
52 [label=<gini = 0.0<br/>samples = 1<br/>value = [2, 0]<br/>class = 0>, fillcolor="#e58139"] ;
50 -> 52 ;
53 [label=<gini = 0.0<br/>samples = 3<br/>value = [0, 4]<br/>class = 1>, fillcolor="#399de5"] ;
37 -> 53 ;
54 [label=<gini = 0.0<br/>samples = 7<br/>value = [0, 8]<br/>class = 1>, fillcolor="#399de5"] ;
36 -> 54 ;
}