digraph Tree {
node [shape=box, style="filled, rounded", color="black", fontname="helvetica"] ;
edge [fontname="helvetica"] ;
0 [label=<Glucose &le; 139.5<br/>gini = 0.414<br/>samples = 99<br/>value = [109, 45]<br/>class = 0>, fillcolor="#f0b58b"] ;
1 [label=<Glucose &le; 101.5<br/>gini = 0.25<br/>samples = 71<br/>value = [99, 17]<br/>class = 0>, fillcolor="#e9975b"] ;
0 -> 1 [labeldistance=2.5, labelangle=45, headlabel="True"] ;
2 [label=<Pregnancies &le; 11.0<br/>gini = 0.069<br/>samples = 32<br/>value = [54, 2]<br/>class = 0>, fillcolor="#e68640"] ;
1 -> 2 ;
3 [label=<DiabetesPedigreeFunction &le; 0.243<br/>gini = 0.036<br/>samples = 31<br/>value = [54, 1]<br/>class = 0>, fillcolor="#e5833d"] ;
2 -> 3 ;
4 [label=<Insulin &le; 74.5<br/>gini = 0.111<br/>samples = 10<br/>value = [16, 1]<br/>class = 0>, fillcolor="#e78945"] ;
3 -> 4 ;
5 [label=<Glucose &le; 86.0<br/>gini = 0.32<br/>samples = 3<br/>value = [4, 1]<br/>class = 0>, fillcolor="#eca06a"] ;
4 -> 5 ;
6 [label=<gini = 0.0<br/>samples = 1<br/>value = [0, 1]<br/>class = 1>, fillcolor="#399de5"] ;
5 -> 6 ;
7 [label=<gini = 0.0<br/>samples = 2<br/>value = [4, 0]<br/>class = 0>, fillcolor="#e58139"] ;
5 -> 7 ;
8 [label=<gini = 0.0<br/>samples = 7<br/>value = [12, 0]<br/>class = 0>, fillcolor="#e58139"] ;
4 -> 8 ;
9 [label=<gini = 0.0<br/>samples = 21<br/>value = [38, 0]<br/>class = 0>, fillcolor="#e58139"] ;
3 -> 9 ;
10 [label=<gini = 0.0<br/>samples = 1<br/>value = [0, 1]<br/>class = 1>, fillcolor="#399de5"] ;
2 -> 10 ;
11 [label=<Age &le; 42.0<br/>gini = 0.375<br/>samples = 39<br/>value = [45, 15]<br/>class = 0>, fillcolor="#eeab7b"] ;
1 -> 11 ;
12 [label=<BMI &le; 34.45<br/>gini = 0.464<br/>samples = 28<br/>value = [26, 15]<br/>class = 0>, fillcolor="#f4caab"] ;
11 -> 12 ;
13 [label=<BMI &le; 26.55<br/>gini = 0.49<br/>samples = 16<br/>value = [9, 12]<br/>class = 1>, fillcolor="#cee6f8"] ;
12 -> 13 ;
14 [label=<Pregnancies &le; 9.0<br/>gini = 0.346<br/>samples = 7<br/>value = [7, 2]<br/>class = 0>, fillcolor="#eca572"] ;
13 -> 14 ;
15 [label=<gini = 0.0<br/>samples = 6<br/>value = [7, 0]<br/>class = 0>, fillcolor="#e58139"] ;
14 -> 15 ;
16 [label=<gini = 0.0<br/>samples = 1<br/>value = [0, 2]<br/>class = 1>, fillcolor="#399de5"] ;
14 -> 16 ;
17 [label=<Age &le; 21.5<br/>gini = 0.278<br/>samples = 9<br/>value = [2, 10]<br/>class = 1>, fillcolor="#61b1ea"] ;
13 -> 17 ;
18 [label=<gini = 0.0<br/>samples = 1<br/>value = [1, 0]<br/>class = 0>, fillcolor="#e58139"] ;
17 -> 18 ;
19 [label=<Insulin &le; 179.333<br/>gini = 0.165<br/>samples = 8<br/>value = [1, 10]<br/>class = 1>, fillcolor="#4da7e8"] ;
17 -> 19 ;
20 [label=<gini = 0.0<br/>samples = 6<br/>value = [0, 9]<br/>class = 1>, fillcolor="#399de5"] ;
19 -> 20 ;
21 [label=<Insulin &le; 196.5<br/>gini = 0.5<br/>samples = 2<br/>value = [1, 1]<br/>class = 0>, fillcolor="#ffffff"] ;
19 -> 21 ;
22 [label=<gini = 0.0<br/>samples = 1<br/>value = [1, 0]<br/>class = 0>, fillcolor="#e58139"] ;
21 -> 22 ;
23 [label=<gini = 0.0<br/>samples = 1<br/>value = [0, 1]<br/>class = 1>, fillcolor="#399de5"] ;
21 -> 23 ;
24 [label=<Age &le; 27.0<br/>gini = 0.255<br/>samples = 12<br/>value = [17, 3]<br/>class = 0>, fillcolor="#ea975c"] ;
12 -> 24 ;
25 [label=<DiabetesPedigreeFunction &le; 0.277<br/>gini = 0.375<br/>samples = 6<br/>value = [6, 2]<br/>class = 0>, fillcolor="#eeab7b"] ;
24 -> 25 ;
26 [label=<gini = 0.0<br/>samples = 2<br/>value = [0, 2]<br/>class = 1>, fillcolor="#399de5"] ;
25 -> 26 ;
27 [label=<gini = 0.0<br/>samples = 4<br/>value = [6, 0]<br/>class = 0>, fillcolor="#e58139"] ;
25 -> 27 ;
28 [label=<DiabetesPedigreeFunction &le; 0.254<br/>gini = 0.153<br/>samples = 6<br/>value = [11, 1]<br/>class = 0>, fillcolor="#e78c4b"] ;
24 -> 28 ;
29 [label=<gini = 0.0<br/>samples = 4<br/>value = [9, 0]<br/>class = 0>, fillcolor="#e58139"] ;
28 -> 29 ;
30 [label=<Glucose &le; 122.0<br/>gini = 0.444<br/>samples = 2<br/>value = [2, 1]<br/>class = 0>, fillcolor="#f2c09c"] ;
28 -> 30 ;
31 [label=<gini = 0.0<br/>samples = 1<br/>value = [0, 1]<br/>class = 1>, fillcolor="#399de5"] ;
30 -> 31 ;
32 [label=<gini = 0.0<br/>samples = 1<br/>value = [2, 0]<br/>class = 0>, fillcolor="#e58139"] ;
30 -> 32 ;
33 [label=<gini = 0.0<br/>samples = 11<br/>value = [19, 0]<br/>class = 0>, fillcolor="#e58139"] ;
11 -> 33 ;
34 [label=<Age &le; 57.0<br/>gini = 0.388<br/>samples = 28<br/>value = [10, 28]<br/>class = 1>, fillcolor="#80c0ee"] ;
0 -> 34 [labeldistance=2.5, labelangle=-45, headlabel="False"] ;
35 [label=<Pregnancies &le; 2.5<br/>gini = 0.271<br/>samples = 24<br/>value = [5, 26]<br/>class = 1>, fillcolor="#5fb0ea"] ;
34 -> 35 ;
36 [label=<Pregnancies &le; 0.5<br/>gini = 0.494<br/>samples = 7<br/>value = [4, 5]<br/>class = 1>, fillcolor="#d7ebfa"] ;
35 -> 36 ;
37 [label=<gini = 0.0<br/>samples = 2<br/>value = [0, 3]<br/>class = 1>, fillcolor="#399de5"] ;
36 -> 37 ;
38 [label=<Age &le; 23.0<br/>gini = 0.444<br/>samples = 5<br/>value = [4, 2]<br/>class = 0>, fillcolor="#f2c09c"] ;
36 -> 38 ;
39 [label=<gini = 0.0<br/>samples = 1<br/>value = [0, 1]<br/>class = 1>, fillcolor="#399de5"] ;
38 -> 39 ;
40 [label=<DiabetesPedigreeFunction &le; 0.333<br/>gini = 0.32<br/>samples = 4<br/>value = [4, 1]<br/>class = 0>, fillcolor="#eca06a"] ;
38 -> 40 ;
41 [label=<gini = 0.0<br/>samples = 1<br/>value = [2, 0]<br/>class = 0>, fillcolor="#e58139"] ;
40 -> 41 ;
42 [label=<Insulin &le; 155.0<br/>gini = 0.444<br/>samples = 3<br/>value = [2, 1]<br/>class = 0>, fillcolor="#f2c09c"] ;
40 -> 42 ;
43 [label=<gini = 0.0<br/>samples = 2<br/>value = [2, 0]<br/>class = 0>, fillcolor="#e58139"] ;
42 -> 43 ;
44 [label=<gini = 0.0<br/>samples = 1<br/>value = [0, 1]<br/>class = 1>, fillcolor="#399de5"] ;
42 -> 44 ;
45 [label=<DiabetesPedigreeFunction &le; 0.705<br/>gini = 0.087<br/>samples = 17<br/>value = [1, 21]<br/>class = 1>, fillcolor="#42a2e6"] ;
35 -> 45 ;
46 [label=<gini = 0.0<br/>samples = 13<br/>value = [0, 16]<br/>class = 1>, fillcolor="#399de5"] ;
45 -> 46 ;
47 [label=<Pregnancies &le; 8.0<br/>gini = 0.278<br/>samples = 4<br/>value = [1, 5]<br/>class = 1>, fillcolor="#61b1ea"] ;
45 -> 47 ;
48 [label=<gini = 0.0<br/>samples = 1<br/>value = [1, 0]<br/>class = 0>, fillcolor="#e58139"] ;
47 -> 48 ;
49 [label=<gini = 0.0<br/>samples = 3<br/>value = [0, 5]<br/>class = 1>, fillcolor="#399de5"] ;
47 -> 49 ;
50 [label=<BMI &le; 36.35<br/>gini = 0.408<br/>samples = 4<br/>value = [5, 2]<br/>class = 0>, fillcolor="#efb388"] ;
34 -> 50 ;
51 [label=<gini = 0.0<br/>samples = 3<br/>value = [5, 0]<br/>class = 0>, fillcolor="#e58139"] ;
50 -> 51 ;
52 [label=<gini = 0.0<br/>samples = 1<br/>value = [0, 2]<br/>class = 1>, fillcolor="#399de5"] ;
50 -> 52 ;
}