digraph Tree {
node [shape=box, style="filled, rounded", color="black", fontname="helvetica"] ;
edge [fontname="helvetica"] ;
0 [label=<BMI &le; 29.95<br/>gini = 0.451<br/>samples = 98<br/>value = [101.0, 53.0]<br/>class = 0>, fillcolor="#f3c3a1"] ;
1 [label=<Pregnancies &le; 7.5<br/>gini = 0.211<br/>samples = 36<br/>value = [44, 6]<br/>class = 0>, fillcolor="#e99254"] ;
0 -> 1 [labeldistance=2.5, labelangle=45, headlabel="True"] ;
2 [label=<gini = 0.0<br/>samples = 26<br/>value = [37, 0]<br/>class = 0>, fillcolor="#e58139"] ;
1 -> 2 ;
3 [label=<Glucose &le; 128.0<br/>gini = 0.497<br/>samples = 10<br/>value = [7, 6]<br/>class = 0>, fillcolor="#fbede3"] ;
1 -> 3 ;
4 [label=<BMI &le; 27.0<br/>gini = 0.463<br/>samples = 8<br/>value = [7, 4]<br/>class = 0>, fillcolor="#f4c9aa"] ;
3 -> 4 ;
5 [label=<gini = 0.0<br/>samples = 4<br/>value = [7, 0]<br/>class = 0>, fillcolor="#e58139"] ;
4 -> 5 ;
6 [label=<gini = 0.0<br/>samples = 4<br/>value = [0, 4]<br/>class = 1>, fillcolor="#399de5"] ;
4 -> 6 ;
7 [label=<gini = 0.0<br/>samples = 2<br/>value = [0, 2]<br/>class = 1>, fillcolor="#399de5"] ;
3 -> 7 ;
8 [label=<Pregnancies &le; 6.0<br/>gini = 0.495<br/>samples = 62<br/>value = [57.0, 47.0]<br/>class = 0>, fillcolor="#fae9dc"] ;
0 -> 8 [labeldistance=2.5, labelangle=-45, headlabel="False"] ;
9 [label=<Insulin &le; 38.0<br/>gini = 0.394<br/>samples = 42<br/>value = [46, 17]<br/>class = 0>, fillcolor="#efb082"] ;
8 -> 9 ;
10 [label=<gini = 0.0<br/>samples = 2<br/>value = [0, 2]<br/>class = 1>, fillcolor="#399de5"] ;
9 -> 10 ;
11 [label=<Glucose &le; 152.5<br/>gini = 0.371<br/>samples = 40<br/>value = [46, 15]<br/>class = 0>, fillcolor="#edaa7a"] ;
9 -> 11 ;
12 [label=<Age &le; 66.0<br/>gini = 0.26<br/>samples = 32<br/>value = [44, 8]<br/>class = 0>, fillcolor="#ea985d"] ;
11 -> 12 ;
13 [label=<Insulin &le; 270.75<br/>gini = 0.237<br/>samples = 31<br/>value = [44.0, 7.0]<br/>class = 0>, fillcolor="#e99558"] ;
12 -> 13 ;
14 [label=<DiabetesPedigreeFunction &le; 0.138<br/>gini = 0.187<br/>samples = 29<br/>value = [43, 5]<br/>class = 0>, fillcolor="#e89050"] ;
13 -> 14 ;
15 [label=<gini = 0.0<br/>samples = 1<br/>value = [0, 1]<br/>class = 1>, fillcolor="#399de5"] ;
14 -> 15 ;
16 [label=<Pregnancies &le; 0.5<br/>gini = 0.156<br/>samples = 28<br/>value = [43, 4]<br/>class = 0>, fillcolor="#e78d4b"] ;
14 -> 16 ;
17 [label=<BMI &le; 43.0<br/>gini = 0.32<br/>samples = 7<br/>value = [8, 2]<br/>class = 0>, fillcolor="#eca06a"] ;
16 -> 17 ;
18 [label=<Insulin &le; 67.0<br/>gini = 0.198<br/>samples = 6<br/>value = [8, 1]<br/>class = 0>, fillcolor="#e89152"] ;
17 -> 18 ;
19 [label=<DiabetesPedigreeFunction &le; 0.472<br/>gini = 0.444<br/>samples = 2<br/>value = [2, 1]<br/>class = 0>, fillcolor="#f2c09c"] ;
18 -> 19 ;
20 [label=<gini = 0.0<br/>samples = 1<br/>value = [2, 0]<br/>class = 0>, fillcolor="#e58139"] ;
19 -> 20 ;
21 [label=<gini = 0.0<br/>samples = 1<br/>value = [0, 1]<br/>class = 1>, fillcolor="#399de5"] ;
19 -> 21 ;
22 [label=<gini = 0.0<br/>samples = 4<br/>value = [6, 0]<br/>class = 0>, fillcolor="#e58139"] ;
18 -> 22 ;
23 [label=<gini = 0.0<br/>samples = 1<br/>value = [0, 1]<br/>class = 1>, fillcolor="#399de5"] ;
17 -> 23 ;
24 [label=<Glucose &le; 83.5<br/>gini = 0.102<br/>samples = 21<br/>value = [35, 2]<br/>class = 0>, fillcolor="#e68844"] ;
16 -> 24 ;
25 [label=<gini = 0.0<br/>samples = 1<br/>value = [0, 1]<br/>class = 1>, fillcolor="#399de5"] ;
24 -> 25 ;
26 [label=<BMI &le; 33.25<br/>gini = 0.054<br/>samples = 20<br/>value = [35, 1]<br/>class = 0>, fillcolor="#e6853f"] ;
24 -> 26 ;
27 [label=<BMI &le; 32.8<br/>gini = 0.375<br/>samples = 4<br/>value = [3, 1]<br/>class = 0>, fillcolor="#eeab7b"] ;
26 -> 27 ;
28 [label=<gini = 0.0<br/>samples = 3<br/>value = [3, 0]<br/>class = 0>, fillcolor="#e58139"] ;
27 -> 28 ;
29 [label=<gini = 0.0<br/>samples = 1<br/>value = [0, 1]<br/>class = 1>, fillcolor="#399de5"] ;
27 -> 29 ;
30 [label=<gini = 0.0<br/>samples = 16<br/>value = [32, 0]<br/>class = 0>, fillcolor="#e58139"] ;
26 -> 30 ;
31 [label=<BMI &le; 32.2<br/>gini = 0.444<br/>samples = 2<br/>value = [1, 2]<br/>class = 1>, fillcolor="#9ccef2"] ;
13 -> 31 ;
32 [label=<gini = 0.0<br/>samples = 1<br/>value = [1, 0]<br/>class = 0>, fillcolor="#e58139"] ;
31 -> 32 ;
33 [label=<gini = 0.0<br/>samples = 1<br/>value = [0, 2]<br/>class = 1>, fillcolor="#399de5"] ;
31 -> 33 ;
34 [label=<gini = 0.0<br/>samples = 1<br/>value = [0, 1]<br/>class = 1>, fillcolor="#399de5"] ;
12 -> 34 ;
35 [label=<BMI &le; 32.85<br/>gini = 0.346<br/>samples = 8<br/>value = [2, 7]<br/>class = 1>, fillcolor="#72b9ec"] ;
11 -> 35 ;
36 [label=<gini = 0.0<br/>samples = 1<br/>value = [1, 0]<br/>class = 0>, fillcolor="#e58139"] ;
35 -> 36 ;
37 [label=<Age &le; 44.5<br/>gini = 0.219<br/>samples = 7<br/>value = [1, 7]<br/>class = 1>, fillcolor="#55abe9"] ;
35 -> 37 ;
38 [label=<gini = 0.0<br/>samples = 6<br/>value = [0, 7]<br/>class = 1>, fillcolor="#399de5"] ;
37 -> 38 ;
39 [label=<gini = 0.0<br/>samples = 1<br/>value = [1, 0]<br/>class = 0>, fillcolor="#e58139"] ;
37 -> 39 ;
40 [label=<Glucose &le; 107.5<br/>gini = 0.393<br/>samples = 20<br/>value = [11, 30]<br/>class = 1>, fillcolor="#82c1ef"] ;
8 -> 40 ;
41 [label=<gini = 0.0<br/>samples = 5<br/>value = [8, 0]<br/>class = 0>, fillcolor="#e58139"] ;
40 -> 41 ;
42 [label=<Insulin &le; 333.5<br/>gini = 0.165<br/>samples = 15<br/>value = [3, 30]<br/>class = 1>, fillcolor="#4da7e8"] ;
40 -> 42 ;
43 [label=<Glucose &le; 134.5<br/>gini = 0.062<br/>samples = 14<br/>value = [1, 30]<br/>class = 1>, fillcolor="#40a0e6"] ;
42 -> 43 ;
44 [label=<Age &le; 40.5<br/>gini = 0.245<br/>samples = 4<br/>value = [1, 6]<br/>class = 1>, fillcolor="#5aade9"] ;
43 -> 44 ;
45 [label=<DiabetesPedigreeFunction &le; 0.231<br/>gini = 0.5<br/>samples = 2<br/>value = [1, 1]<br/>class = 0>, fillcolor="#ffffff"] ;
44 -> 45 ;
46 [label=<gini = 0.0<br/>samples = 1<br/>value = [0, 1]<br/>class = 1>, fillcolor="#399de5"] ;
45 -> 46 ;
47 [label=<gini = 0.0<br/>samples = 1<br/>value = [1, 0]<br/>class = 0>, fillcolor="#e58139"] ;
45 -> 47 ;
48 [label=<gini = 0.0<br/>samples = 2<br/>value = [0, 5]<br/>class = 1>, fillcolor="#399de5"] ;
44 -> 48 ;
49 [label=<gini = 0.0<br/>samples = 10<br/>value = [0, 24]<br/>class = 1>, fillcolor="#399de5"] ;
43 -> 49 ;
50 [label=<gini = 0.0<br/>samples = 1<br/>value = [2, 0]<br/>class = 0>, fillcolor="#e58139"] ;
42 -> 50 ;
}