digraph Tree {
node [shape=box, style="filled, rounded", color="black", fontname="helvetica"] ;
edge [fontname="helvetica"] ;
0 [label=<Pregnancies &le; 10.5<br/>gini = 0.434<br/>samples = 99<br/>value = [105.0, 49.0]<br/>class = 0>, fillcolor="#f1bc95"] ;
1 [label=<BMI &le; 27.65<br/>gini = 0.395<br/>samples = 92<br/>value = [105, 39]<br/>class = 0>, fillcolor="#efb083"] ;
0 -> 1 [labeldistance=2.5, labelangle=45, headlabel="True"] ;
2 [label=<gini = 0.0<br/>samples = 20<br/>value = [28, 0]<br/>class = 0>, fillcolor="#e58139"] ;
1 -> 2 ;
3 [label=<Insulin &le; 97.375<br/>gini = 0.446<br/>samples = 72<br/>value = [77, 39]<br/>class = 0>, fillcolor="#f2c19d"] ;
1 -> 3 ;
4 [label=<DiabetesPedigreeFunction &le; 0.339<br/>gini = 0.325<br/>samples = 30<br/>value = [39, 10]<br/>class = 0>, fillcolor="#eca16c"] ;
3 -> 4 ;
5 [label=<Insulin &le; 79.0<br/>gini = 0.484<br/>samples = 11<br/>value = [10, 7]<br/>class = 0>, fillcolor="#f7d9c4"] ;
4 -> 5 ;
6 [label=<Glucose &le; 120.0<br/>gini = 0.497<br/>samples = 8<br/>value = [6, 7]<br/>class = 1>, fillcolor="#e3f1fb"] ;
5 -> 6 ;
7 [label=<Age &le; 26.0<br/>gini = 0.444<br/>samples = 6<br/>value = [6, 3]<br/>class = 0>, fillcolor="#f2c09c"] ;
6 -> 7 ;
8 [label=<gini = 0.0<br/>samples = 2<br/>value = [3, 0]<br/>class = 0>, fillcolor="#e58139"] ;
7 -> 8 ;
9 [label=<Glucose &le; 92.0<br/>gini = 0.5<br/>samples = 4<br/>value = [3, 3]<br/>class = 0>, fillcolor="#ffffff"] ;
7 -> 9 ;
10 [label=<gini = 0.0<br/>samples = 2<br/>value = [0, 3]<br/>class = 1>, fillcolor="#399de5"] ;
9 -> 10 ;
11 [label=<gini = 0.0<br/>samples = 2<br/>value = [3, 0]<br/>class = 0>, fillcolor="#e58139"] ;
9 -> 11 ;
12 [label=<gini = 0.0<br/>samples = 2<br/>value = [0, 4]<br/>class = 1>, fillcolor="#399de5"] ;
6 -> 12 ;
13 [label=<gini = 0.0<br/>samples = 3<br/>value = [4, 0]<br/>class = 0>, fillcolor="#e58139"] ;
5 -> 13 ;
14 [label=<Glucose &le; 170.5<br/>gini = 0.17<br/>samples = 19<br/>value = [29, 3]<br/>class = 0>, fillcolor="#e88e4d"] ;
4 -> 14 ;
15 [label=<Pregnancies &le; 0.5<br/>gini = 0.067<br/>samples = 17<br/>value = [28, 1]<br/>class = 0>, fillcolor="#e68640"] ;
14 -> 15 ;
16 [label=<Glucose &le; 110.5<br/>gini = 0.32<br/>samples = 4<br/>value = [4, 1]<br/>class = 0>, fillcolor="#eca06a"] ;
15 -> 16 ;
17 [label=<BMI &le; 35.25<br/>gini = 0.5<br/>samples = 2<br/>value = [1, 1]<br/>class = 0>, fillcolor="#ffffff"] ;
16 -> 17 ;
18 [label=<gini = 0.0<br/>samples = 1<br/>value = [0, 1]<br/>class = 1>, fillcolor="#399de5"] ;
17 -> 18 ;
19 [label=<gini = 0.0<br/>samples = 1<br/>value = [1, 0]<br/>class = 0>, fillcolor="#e58139"] ;
17 -> 19 ;
20 [label=<gini = 0.0<br/>samples = 2<br/>value = [3, 0]<br/>class = 0>, fillcolor="#e58139"] ;
16 -> 20 ;
21 [label=<gini = 0.0<br/>samples = 13<br/>value = [24, 0]<br/>class = 0>, fillcolor="#e58139"] ;
15 -> 21 ;
22 [label=<Age &le; 29.0<br/>gini = 0.444<br/>samples = 2<br/>value = [1, 2]<br/>class = 1>, fillcolor="#9ccef2"] ;
14 -> 22 ;
23 [label=<gini = 0.0<br/>samples = 1<br/>value = [0, 2]<br/>class = 1>, fillcolor="#399de5"] ;
22 -> 23 ;
24 [label=<gini = 0.0<br/>samples = 1<br/>value = [1, 0]<br/>class = 0>, fillcolor="#e58139"] ;
22 -> 24 ;
25 [label=<DiabetesPedigreeFunction &le; 0.211<br/>gini = 0.491<br/>samples = 42<br/>value = [38.0, 29.0]<br/>class = 0>, fillcolor="#f9e1d0"] ;
3 -> 25 ;
26 [label=<gini = 0.0<br/>samples = 6<br/>value = [11, 0]<br/>class = 0>, fillcolor="#e58139"] ;
25 -> 26 ;
27 [label=<Glucose &le; 139.5<br/>gini = 0.499<br/>samples = 36<br/>value = [27.0, 29.0]<br/>class = 1>, fillcolor="#f1f8fd"] ;
25 -> 27 ;
28 [label=<Insulin &le; 102.25<br/>gini = 0.219<br/>samples = 15<br/>value = [21, 3]<br/>class = 0>, fillcolor="#e99355"] ;
27 -> 28 ;
29 [label=<gini = 0.0<br/>samples = 1<br/>value = [0, 2]<br/>class = 1>, fillcolor="#399de5"] ;
28 -> 29 ;
30 [label=<Age &le; 29.5<br/>gini = 0.087<br/>samples = 14<br/>value = [21, 1]<br/>class = 0>, fillcolor="#e68742"] ;
28 -> 30 ;
31 [label=<gini = 0.0<br/>samples = 8<br/>value = [15, 0]<br/>class = 0>, fillcolor="#e58139"] ;
30 -> 31 ;
32 [label=<DiabetesPedigreeFunction &le; 0.86<br/>gini = 0.245<br/>samples = 6<br/>value = [6, 1]<br/>class = 0>, fillcolor="#e9965a"] ;
30 -> 32 ;
33 [label=<gini = 0.0<br/>samples = 5<br/>value = [6, 0]<br/>class = 0>, fillcolor="#e58139"] ;
32 -> 33 ;
34 [label=<gini = 0.0<br/>samples = 1<br/>value = [0, 1]<br/>class = 1>, fillcolor="#399de5"] ;
32 -> 34 ;
35 [label=<BMI &le; 30.85<br/>gini = 0.305<br/>samples = 21<br/>value = [6, 26]<br/>class = 1>, fillcolor="#67b4eb"] ;
27 -> 35 ;
36 [label=<gini = 0.0<br/>samples = 5<br/>value = [0, 8]<br/>class = 1>, fillcolor="#399de5"] ;
35 -> 36 ;
37 [label=<DiabetesPedigreeFunction &le; 0.384<br/>gini = 0.375<br/>samples = 16<br/>value = [6, 18]<br/>class = 1>, fillcolor="#7bbeee"] ;
35 -> 37 ;
38 [label=<Age &le; 34.0<br/>gini = 0.48<br/>samples = 5<br/>value = [3, 2]<br/>class = 0>, fillcolor="#f6d5bd"] ;
37 -> 38 ;
39 [label=<Insulin &le; 235.5<br/>gini = 0.444<br/>samples = 3<br/>value = [1, 2]<br/>class = 1>, fillcolor="#9ccef2"] ;
38 -> 39 ;
40 [label=<gini = 0.0<br/>samples = 1<br/>value = [1, 0]<br/>class = 0>, fillcolor="#e58139"] ;
39 -> 40 ;
41 [label=<gini = 0.0<br/>samples = 2<br/>value = [0, 2]<br/>class = 1>, fillcolor="#399de5"] ;
39 -> 41 ;
42 [label=<gini = 0.0<br/>samples = 2<br/>value = [2, 0]<br/>class = 0>, fillcolor="#e58139"] ;
38 -> 42 ;
43 [label=<DiabetesPedigreeFunction &le; 0.591<br/>gini = 0.266<br/>samples = 11<br/>value = [3, 16]<br/>class = 1>, fillcolor="#5eafea"] ;
37 -> 43 ;
44 [label=<gini = 0.0<br/>samples = 4<br/>value = [0, 9]<br/>class = 1>, fillcolor="#399de5"] ;
43 -> 44 ;
45 [label=<BMI &le; 34.45<br/>gini = 0.42<br/>samples = 7<br/>value = [3, 7]<br/>class = 1>, fillcolor="#8ec7f0"] ;
43 -> 45 ;
46 [label=<gini = 0.0<br/>samples = 3<br/>value = [0, 4]<br/>class = 1>, fillcolor="#399de5"] ;
45 -> 46 ;
47 [label=<Insulin &le; 266.5<br/>gini = 0.5<br/>samples = 4<br/>value = [3, 3]<br/>class = 0>, fillcolor="#ffffff"] ;
45 -> 47 ;
48 [label=<BMI &le; 39.25<br/>gini = 0.375<br/>samples = 3<br/>value = [1, 3]<br/>class = 1>, fillcolor="#7bbeee"] ;
47 -> 48 ;
49 [label=<gini = 0.0<br/>samples = 2<br/>value = [0, 3]<br/>class = 1>, fillcolor="#399de5"] ;
48 -> 49 ;
50 [label=<gini = 0.0<br/>samples = 1<br/>value = [1, 0]<br/>class = 0>, fillcolor="#e58139"] ;
48 -> 50 ;
51 [label=<gini = 0.0<br/>samples = 1<br/>value = [2, 0]<br/>class = 0>, fillcolor="#e58139"] ;
47 -> 51 ;
52 [label=<gini = 0.0<br/>samples = 7<br/>value = [0, 10]<br/>class = 1>, fillcolor="#399de5"] ;
0 -> 52 [labeldistance=2.5, labelangle=-45, headlabel="False"] ;
}