digraph Tree {
node [shape=box, style="filled, rounded", color="black", fontname="helvetica"] ;
edge [fontname="helvetica"] ;
0 [label=<Glucose &le; 123.5<br/>gini = 0.429<br/>samples = 98<br/>value = [106, 48]<br/>class = 0>, fillcolor="#f1ba93"] ;
1 [label=<DiabetesPedigreeFunction &le; 0.265<br/>gini = 0.247<br/>samples = 59<br/>value = [77.0, 13.0]<br/>class = 0>, fillcolor="#e9965a"] ;
0 -> 1 [labeldistance=2.5, labelangle=45, headlabel="True"] ;
2 [label=<BMI &le; 35.9<br/>gini = 0.382<br/>samples = 25<br/>value = [26, 9]<br/>class = 0>, fillcolor="#eead7e"] ;
1 -> 2 ;
3 [label=<Glucose &le; 117.0<br/>gini = 0.211<br/>samples = 17<br/>value = [22, 3]<br/>class = 0>, fillcolor="#e99254"] ;
2 -> 3 ;
4 [label=<gini = 0.0<br/>samples = 13<br/>value = [21, 0]<br/>class = 0>, fillcolor="#e58139"] ;
3 -> 4 ;
5 [label=<Glucose &le; 120.5<br/>gini = 0.375<br/>samples = 4<br/>value = [1, 3]<br/>class = 1>, fillcolor="#7bbeee"] ;
3 -> 5 ;
6 [label=<gini = 0.0<br/>samples = 3<br/>value = [0, 3]<br/>class = 1>, fillcolor="#399de5"] ;
5 -> 6 ;
7 [label=<gini = 0.0<br/>samples = 1<br/>value = [1, 0]<br/>class = 0>, fillcolor="#e58139"] ;
5 -> 7 ;
8 [label=<Insulin &le; 181.0<br/>gini = 0.48<br/>samples = 8<br/>value = [4, 6]<br/>class = 1>, fillcolor="#bddef6"] ;
2 -> 8 ;
9 [label=<DiabetesPedigreeFunction &le; 0.242<br/>gini = 0.49<br/>samples = 6<br/>value = [4, 3]<br/>class = 0>, fillcolor="#f8e0ce"] ;
8 -> 9 ;
10 [label=<BMI &le; 43.85<br/>gini = 0.32<br/>samples = 5<br/>value = [4, 1]<br/>class = 0>, fillcolor="#eca06a"] ;
9 -> 10 ;
11 [label=<gini = 0.0<br/>samples = 4<br/>value = [4, 0]<br/>class = 0>, fillcolor="#e58139"] ;
10 -> 11 ;
12 [label=<gini = 0.0<br/>samples = 1<br/>value = [0, 1]<br/>class = 1>, fillcolor="#399de5"] ;
10 -> 12 ;
13 [label=<gini = 0.0<br/>samples = 1<br/>value = [0, 2]<br/>class = 1>, fillcolor="#399de5"] ;
9 -> 13 ;
14 [label=<gini = 0.0<br/>samples = 2<br/>value = [0, 3]<br/>class = 1>, fillcolor="#399de5"] ;
8 -> 14 ;
15 [label=<Insulin &le; 225.5<br/>gini = 0.135<br/>samples = 34<br/>value = [51, 4]<br/>class = 0>, fillcolor="#e78b49"] ;
1 -> 15 ;
16 [label=<Glucose &le; 103.5<br/>gini = 0.039<br/>samples = 30<br/>value = [49, 1]<br/>class = 0>, fillcolor="#e6843d"] ;
15 -> 16 ;
17 [label=<gini = 0.0<br/>samples = 18<br/>value = [30, 0]<br/>class = 0>, fillcolor="#e58139"] ;
16 -> 17 ;
18 [label=<Insulin &le; 65.0<br/>gini = 0.095<br/>samples = 12<br/>value = [19, 1]<br/>class = 0>, fillcolor="#e68843"] ;
16 -> 18 ;
19 [label=<DiabetesPedigreeFunction &le; 0.407<br/>gini = 0.5<br/>samples = 2<br/>value = [1, 1]<br/>class = 0>, fillcolor="#ffffff"] ;
18 -> 19 ;
20 [label=<gini = 0.0<br/>samples = 1<br/>value = [1, 0]<br/>class = 0>, fillcolor="#e58139"] ;
19 -> 20 ;
21 [label=<gini = 0.0<br/>samples = 1<br/>value = [0, 1]<br/>class = 1>, fillcolor="#399de5"] ;
19 -> 21 ;
22 [label=<gini = 0.0<br/>samples = 10<br/>value = [18, 0]<br/>class = 0>, fillcolor="#e58139"] ;
18 -> 22 ;
23 [label=<Age &le; 33.5<br/>gini = 0.48<br/>samples = 4<br/>value = [2, 3]<br/>class = 1>, fillcolor="#bddef6"] ;
15 -> 23 ;
24 [label=<gini = 0.0<br/>samples = 1<br/>value = [1, 0]<br/>class = 0>, fillcolor="#e58139"] ;
23 -> 24 ;
25 [label=<DiabetesPedigreeFunction &le; 0.847<br/>gini = 0.375<br/>samples = 3<br/>value = [1, 3]<br/>class = 1>, fillcolor="#7bbeee"] ;
23 -> 25 ;
26 [label=<gini = 0.0<br/>samples = 1<br/>value = [1, 0]<br/>class = 0>, fillcolor="#e58139"] ;
25 -> 26 ;
27 [label=<gini = 0.0<br/>samples = 2<br/>value = [0, 3]<br/>class = 1>, fillcolor="#399de5"] ;
25 -> 27 ;
28 [label=<DiabetesPedigreeFunction &le; 0.729<br/>gini = 0.496<br/>samples = 39<br/>value = [29, 35]<br/>class = 1>, fillcolor="#ddeefb"] ;
0 -> 28 [labeldistance=2.5, labelangle=-45, headlabel="False"] ;
29 [label=<Insulin &le; 63.5<br/>gini = 0.499<br/>samples = 32<br/>value = [29.0, 26.0]<br/>class = 0>, fillcolor="#fcf2eb"] ;
28 -> 29 ;
30 [label=<gini = 0.0<br/>samples = 4<br/>value = [0, 6]<br/>class = 1>, fillcolor="#399de5"] ;
29 -> 30 ;
31 [label=<DiabetesPedigreeFunction &le; 0.58<br/>gini = 0.483<br/>samples = 28<br/>value = [29, 20]<br/>class = 0>, fillcolor="#f7d8c2"] ;
29 -> 31 ;
32 [label=<Pregnancies &le; 10.5<br/>gini = 0.499<br/>samples = 23<br/>value = [18, 20]<br/>class = 1>, fillcolor="#ebf5fc"] ;
31 -> 32 ;
33 [label=<Insulin &le; 112.5<br/>gini = 0.471<br/>samples = 18<br/>value = [18, 11]<br/>class = 0>, fillcolor="#f5ceb2"] ;
32 -> 33 ;
34 [label=<gini = 0.0<br/>samples = 4<br/>value = [8, 0]<br/>class = 0>, fillcolor="#e58139"] ;
33 -> 34 ;
35 [label=<Age &le; 22.5<br/>gini = 0.499<br/>samples = 14<br/>value = [10, 11]<br/>class = 1>, fillcolor="#edf6fd"] ;
33 -> 35 ;
36 [label=<gini = 0.0<br/>samples = 4<br/>value = [6, 0]<br/>class = 0>, fillcolor="#e58139"] ;
35 -> 36 ;
37 [label=<DiabetesPedigreeFunction &le; 0.342<br/>gini = 0.391<br/>samples = 10<br/>value = [4, 11]<br/>class = 1>, fillcolor="#81c1ee"] ;
35 -> 37 ;
38 [label=<Glucose &le; 147.0<br/>gini = 0.5<br/>samples = 6<br/>value = [4, 4]<br/>class = 0>, fillcolor="#ffffff"] ;
37 -> 38 ;
39 [label=<gini = 0.0<br/>samples = 3<br/>value = [4, 0]<br/>class = 0>, fillcolor="#e58139"] ;
38 -> 39 ;
40 [label=<gini = 0.0<br/>samples = 3<br/>value = [0, 4]<br/>class = 1>, fillcolor="#399de5"] ;
38 -> 40 ;
41 [label=<gini = 0.0<br/>samples = 4<br/>value = [0, 7]<br/>class = 1>, fillcolor="#399de5"] ;
37 -> 41 ;
42 [label=<gini = 0.0<br/>samples = 5<br/>value = [0, 9]<br/>class = 1>, fillcolor="#399de5"] ;
32 -> 42 ;
43 [label=<gini = 0.0<br/>samples = 5<br/>value = [11, 0]<br/>class = 0>, fillcolor="#e58139"] ;
31 -> 43 ;
44 [label=<gini = 0.0<br/>samples = 7<br/>value = [0, 9]<br/>class = 1>, fillcolor="#399de5"] ;
28 -> 44 ;
}