digraph Tree {
node [shape=box, style="filled, rounded", color="black", fontname="helvetica"] ;
edge [fontname="helvetica"] ;
0 [label=<Age &le; 29.5<br/>gini = 0.47<br/>samples = 100<br/>value = [96, 58]<br/>class = 0>, fillcolor="#f5cdb1"] ;
1 [label=<Glucose &le; 145.0<br/>gini = 0.332<br/>samples = 52<br/>value = [64, 17]<br/>class = 0>, fillcolor="#eca26e"] ;
0 -> 1 [labeldistance=2.5, labelangle=45, headlabel="True"] ;
2 [label=<Pregnancies &le; 0.5<br/>gini = 0.205<br/>samples = 43<br/>value = [61, 8]<br/>class = 0>, fillcolor="#e89253"] ;
1 -> 2 ;
3 [label=<Insulin &le; 78.0<br/>gini = 0.473<br/>samples = 10<br/>value = [8, 5]<br/>class = 0>, fillcolor="#f5d0b5"] ;
2 -> 3 ;
4 [label=<Age &le; 21.5<br/>gini = 0.32<br/>samples = 3<br/>value = [1, 4]<br/>class = 1>, fillcolor="#6ab6ec"] ;
3 -> 4 ;
5 [label=<gini = 0.0<br/>samples = 1<br/>value = [1, 0]<br/>class = 0>, fillcolor="#e58139"] ;
4 -> 5 ;
6 [label=<gini = 0.0<br/>samples = 2<br/>value = [0, 4]<br/>class = 1>, fillcolor="#399de5"] ;
4 -> 6 ;
7 [label=<BMI &le; 41.9<br/>gini = 0.219<br/>samples = 7<br/>value = [7, 1]<br/>class = 0>, fillcolor="#e99355"] ;
3 -> 7 ;
8 [label=<gini = 0.0<br/>samples = 6<br/>value = [7, 0]<br/>class = 0>, fillcolor="#e58139"] ;
7 -> 8 ;
9 [label=<gini = 0.0<br/>samples = 1<br/>value = [0, 1]<br/>class = 1>, fillcolor="#399de5"] ;
7 -> 9 ;
10 [label=<Insulin &le; 166.0<br/>gini = 0.101<br/>samples = 33<br/>value = [53, 3]<br/>class = 0>, fillcolor="#e68844"] ;
2 -> 10 ;
11 [label=<Pregnancies &le; 7.0<br/>gini = 0.04<br/>samples = 28<br/>value = [48.0, 1.0]<br/>class = 0>, fillcolor="#e6843d"] ;
10 -> 11 ;
12 [label=<gini = 0.0<br/>samples = 27<br/>value = [48, 0]<br/>class = 0>, fillcolor="#e58139"] ;
11 -> 12 ;
13 [label=<gini = 0.0<br/>samples = 1<br/>value = [0, 1]<br/>class = 1>, fillcolor="#399de5"] ;
11 -> 13 ;
14 [label=<Insulin &le; 171.5<br/>gini = 0.408<br/>samples = 5<br/>value = [5, 2]<br/>class = 0>, fillcolor="#efb388"] ;
10 -> 14 ;
15 [label=<DiabetesPedigreeFunction &le; 0.575<br/>gini = 0.444<br/>samples = 2<br/>value = [1, 2]<br/>class = 1>, fillcolor="#9ccef2"] ;
14 -> 15 ;
16 [label=<gini = 0.0<br/>samples = 1<br/>value = [1, 0]<br/>class = 0>, fillcolor="#e58139"] ;
15 -> 16 ;
17 [label=<gini = 0.0<br/>samples = 1<br/>value = [0, 2]<br/>class = 1>, fillcolor="#399de5"] ;
15 -> 17 ;
18 [label=<gini = 0.0<br/>samples = 3<br/>value = [4, 0]<br/>class = 0>, fillcolor="#e58139"] ;
14 -> 18 ;
19 [label=<BMI &le; 27.05<br/>gini = 0.375<br/>samples = 9<br/>value = [3, 9]<br/>class = 1>, fillcolor="#7bbeee"] ;
1 -> 19 ;
20 [label=<gini = 0.0<br/>samples = 2<br/>value = [2, 0]<br/>class = 0>, fillcolor="#e58139"] ;
19 -> 20 ;
21 [label=<DiabetesPedigreeFunction &le; 0.356<br/>gini = 0.18<br/>samples = 7<br/>value = [1, 9]<br/>class = 1>, fillcolor="#4fa8e8"] ;
19 -> 21 ;
22 [label=<gini = 0.0<br/>samples = 3<br/>value = [0, 5]<br/>class = 1>, fillcolor="#399de5"] ;
21 -> 22 ;
23 [label=<BMI &le; 42.6<br/>gini = 0.32<br/>samples = 4<br/>value = [1, 4]<br/>class = 1>, fillcolor="#6ab6ec"] ;
21 -> 23 ;
24 [label=<gini = 0.0<br/>samples = 3<br/>value = [0, 4]<br/>class = 1>, fillcolor="#399de5"] ;
23 -> 24 ;
25 [label=<gini = 0.0<br/>samples = 1<br/>value = [1, 0]<br/>class = 0>, fillcolor="#e58139"] ;
23 -> 25 ;
26 [label=<BMI &le; 27.1<br/>gini = 0.492<br/>samples = 48<br/>value = [32, 41]<br/>class = 1>, fillcolor="#d4e9f9"] ;
0 -> 26 [labeldistance=2.5, labelangle=-45, headlabel="False"] ;
27 [label=<Age &le; 33.0<br/>gini = 0.355<br/>samples = 9<br/>value = [10, 3]<br/>class = 0>, fillcolor="#eda774"] ;
26 -> 27 ;
28 [label=<gini = 0.0<br/>samples = 1<br/>value = [0, 3]<br/>class = 1>, fillcolor="#399de5"] ;
27 -> 28 ;
29 [label=<gini = 0.0<br/>samples = 8<br/>value = [10, 0]<br/>class = 0>, fillcolor="#e58139"] ;
27 -> 29 ;
30 [label=<Age &le; 62.5<br/>gini = 0.464<br/>samples = 39<br/>value = [22, 38]<br/>class = 1>, fillcolor="#acd6f4"] ;
26 -> 30 ;
31 [label=<Pregnancies &le; 6.5<br/>gini = 0.44<br/>samples = 35<br/>value = [18, 37]<br/>class = 1>, fillcolor="#99cdf2"] ;
30 -> 31 ;
32 [label=<Age &le; 61.0<br/>gini = 0.5<br/>samples = 18<br/>value = [16, 16]<br/>class = 0>, fillcolor="#ffffff"] ;
31 -> 32 ;
33 [label=<Insulin &le; 195.0<br/>gini = 0.483<br/>samples = 17<br/>value = [16, 11]<br/>class = 0>, fillcolor="#f7d8c1"] ;
32 -> 33 ;
34 [label=<Age &le; 32.5<br/>gini = 0.444<br/>samples = 15<br/>value = [16, 8]<br/>class = 0>, fillcolor="#f2c09c"] ;
33 -> 34 ;
35 [label=<Insulin &le; 67.0<br/>gini = 0.278<br/>samples = 4<br/>value = [1, 5]<br/>class = 1>, fillcolor="#61b1ea"] ;
34 -> 35 ;
36 [label=<gini = 0.0<br/>samples = 1<br/>value = [1, 0]<br/>class = 0>, fillcolor="#e58139"] ;
35 -> 36 ;
37 [label=<gini = 0.0<br/>samples = 3<br/>value = [0, 5]<br/>class = 1>, fillcolor="#399de5"] ;
35 -> 37 ;
38 [label=<DiabetesPedigreeFunction &le; 0.231<br/>gini = 0.278<br/>samples = 11<br/>value = [15, 3]<br/>class = 0>, fillcolor="#ea9a61"] ;
34 -> 38 ;
39 [label=<BMI &le; 30.85<br/>gini = 0.375<br/>samples = 3<br/>value = [1, 3]<br/>class = 1>, fillcolor="#7bbeee"] ;
38 -> 39 ;
40 [label=<gini = 0.0<br/>samples = 1<br/>value = [1, 0]<br/>class = 0>, fillcolor="#e58139"] ;
39 -> 40 ;
41 [label=<gini = 0.0<br/>samples = 2<br/>value = [0, 3]<br/>class = 1>, fillcolor="#399de5"] ;
39 -> 41 ;
42 [label=<gini = 0.0<br/>samples = 8<br/>value = [14, 0]<br/>class = 0>, fillcolor="#e58139"] ;
38 -> 42 ;
43 [label=<gini = 0.0<br/>samples = 2<br/>value = [0, 3]<br/>class = 1>, fillcolor="#399de5"] ;
33 -> 43 ;
44 [label=<gini = 0.0<br/>samples = 1<br/>value = [0, 5]<br/>class = 1>, fillcolor="#399de5"] ;
32 -> 44 ;
45 [label=<BMI &le; 34.0<br/>gini = 0.159<br/>samples = 17<br/>value = [2, 21]<br/>class = 1>, fillcolor="#4ca6e7"] ;
31 -> 45 ;
46 [label=<gini = 0.0<br/>samples = 7<br/>value = [0, 11]<br/>class = 1>, fillcolor="#399de5"] ;
45 -> 46 ;
47 [label=<Age &le; 42.5<br/>gini = 0.278<br/>samples = 10<br/>value = [2, 10]<br/>class = 1>, fillcolor="#61b1ea"] ;
45 -> 47 ;
48 [label=<Insulin &le; 306.5<br/>gini = 0.444<br/>samples = 6<br/>value = [2, 4]<br/>class = 1>, fillcolor="#9ccef2"] ;
47 -> 48 ;
49 [label=<DiabetesPedigreeFunction &le; 0.317<br/>gini = 0.32<br/>samples = 5<br/>value = [1, 4]<br/>class = 1>, fillcolor="#6ab6ec"] ;
48 -> 49 ;
50 [label=<BMI &le; 36.0<br/>gini = 0.5<br/>samples = 2<br/>value = [1, 1]<br/>class = 0>, fillcolor="#ffffff"] ;
49 -> 50 ;
51 [label=<gini = 0.0<br/>samples = 1<br/>value = [1, 0]<br/>class = 0>, fillcolor="#e58139"] ;
50 -> 51 ;
52 [label=<gini = 0.0<br/>samples = 1<br/>value = [0, 1]<br/>class = 1>, fillcolor="#399de5"] ;
50 -> 52 ;
53 [label=<gini = 0.0<br/>samples = 3<br/>value = [0, 3]<br/>class = 1>, fillcolor="#399de5"] ;
49 -> 53 ;
54 [label=<gini = 0.0<br/>samples = 1<br/>value = [1, 0]<br/>class = 0>, fillcolor="#e58139"] ;
48 -> 54 ;
55 [label=<gini = 0.0<br/>samples = 4<br/>value = [0, 6]<br/>class = 1>, fillcolor="#399de5"] ;
47 -> 55 ;
56 [label=<Age &le; 66.0<br/>gini = 0.32<br/>samples = 4<br/>value = [4, 1]<br/>class = 0>, fillcolor="#eca06a"] ;
30 -> 56 ;
57 [label=<gini = 0.0<br/>samples = 3<br/>value = [4, 0]<br/>class = 0>, fillcolor="#e58139"] ;
56 -> 57 ;
58 [label=<gini = 0.0<br/>samples = 1<br/>value = [0, 1]<br/>class = 1>, fillcolor="#399de5"] ;
56 -> 58 ;
}