digraph Tree {
node [shape=box, style="filled, rounded", color="black", fontname="helvetica"] ;
edge [fontname="helvetica"] ;
0 [label=<BMI &le; 27.45<br/>gini = 0.483<br/>samples = 89<br/>value = [91.0, 63.0]<br/>class = 0>, fillcolor="#f7d8c2"] ;
1 [label=<Age &le; 30.5<br/>gini = 0.053<br/>samples = 21<br/>value = [36, 1]<br/>class = 0>, fillcolor="#e6843e"] ;
0 -> 1 [labeldistance=2.5, labelangle=45, headlabel="True"] ;
2 [label=<gini = 0.0<br/>samples = 16<br/>value = [30, 0]<br/>class = 0>, fillcolor="#e58139"] ;
1 -> 2 ;
3 [label=<Age &le; 33.0<br/>gini = 0.245<br/>samples = 5<br/>value = [6, 1]<br/>class = 0>, fillcolor="#e9965a"] ;
1 -> 3 ;
4 [label=<gini = 0.0<br/>samples = 1<br/>value = [0, 1]<br/>class = 1>, fillcolor="#399de5"] ;
3 -> 4 ;
5 [label=<gini = 0.0<br/>samples = 4<br/>value = [6, 0]<br/>class = 0>, fillcolor="#e58139"] ;
3 -> 5 ;
6 [label=<Glucose &le; 107.5<br/>gini = 0.498<br/>samples = 68<br/>value = [55, 62]<br/>class = 1>, fillcolor="#e9f4fc"] ;
0 -> 6 [labeldistance=2.5, labelangle=-45, headlabel="False"] ;
7 [label=<Pregnancies &le; 0.5<br/>gini = 0.188<br/>samples = 24<br/>value = [34, 4]<br/>class = 0>, fillcolor="#e89050"] ;
6 -> 7 ;
8 [label=<Insulin &le; 94.5<br/>gini = 0.444<br/>samples = 3<br/>value = [1, 2]<br/>class = 1>, fillcolor="#9ccef2"] ;
7 -> 8 ;
9 [label=<gini = 0.0<br/>samples = 2<br/>value = [0, 2]<br/>class = 1>, fillcolor="#399de5"] ;
8 -> 9 ;
10 [label=<gini = 0.0<br/>samples = 1<br/>value = [1, 0]<br/>class = 0>, fillcolor="#e58139"] ;
8 -> 10 ;
11 [label=<BMI &le; 27.65<br/>gini = 0.108<br/>samples = 21<br/>value = [33, 2]<br/>class = 0>, fillcolor="#e78945"] ;
7 -> 11 ;
12 [label=<gini = 0.0<br/>samples = 1<br/>value = [0, 1]<br/>class = 1>, fillcolor="#399de5"] ;
11 -> 12 ;
13 [label=<DiabetesPedigreeFunction &le; 0.264<br/>gini = 0.057<br/>samples = 20<br/>value = [33, 1]<br/>class = 0>, fillcolor="#e6853f"] ;
11 -> 13 ;
14 [label=<DiabetesPedigreeFunction &le; 0.22<br/>gini = 0.133<br/>samples = 7<br/>value = [13, 1]<br/>class = 0>, fillcolor="#e78b48"] ;
13 -> 14 ;
15 [label=<gini = 0.0<br/>samples = 6<br/>value = [13, 0]<br/>class = 0>, fillcolor="#e58139"] ;
14 -> 15 ;
16 [label=<gini = 0.0<br/>samples = 1<br/>value = [0, 1]<br/>class = 1>, fillcolor="#399de5"] ;
14 -> 16 ;
17 [label=<gini = 0.0<br/>samples = 13<br/>value = [20, 0]<br/>class = 0>, fillcolor="#e58139"] ;
13 -> 17 ;
18 [label=<Age &le; 21.5<br/>gini = 0.39<br/>samples = 44<br/>value = [21.0, 58.0]<br/>class = 1>, fillcolor="#81c0ee"] ;
6 -> 18 ;
19 [label=<gini = 0.0<br/>samples = 1<br/>value = [3, 0]<br/>class = 0>, fillcolor="#e58139"] ;
18 -> 19 ;
20 [label=<Insulin &le; 178.5<br/>gini = 0.361<br/>samples = 43<br/>value = [18, 58]<br/>class = 1>, fillcolor="#76bbed"] ;
18 -> 20 ;
21 [label=<DiabetesPedigreeFunction &le; 0.683<br/>gini = 0.444<br/>samples = 26<br/>value = [15, 30]<br/>class = 1>, fillcolor="#9ccef2"] ;
20 -> 21 ;
22 [label=<Insulin &le; 121.0<br/>gini = 0.493<br/>samples = 21<br/>value = [15, 19]<br/>class = 1>, fillcolor="#d5eafa"] ;
21 -> 22 ;
23 [label=<Insulin &le; 112.5<br/>gini = 0.332<br/>samples = 10<br/>value = [4, 15]<br/>class = 1>, fillcolor="#6eb7ec"] ;
22 -> 23 ;
24 [label=<DiabetesPedigreeFunction &le; 0.217<br/>gini = 0.426<br/>samples = 7<br/>value = [4, 9]<br/>class = 1>, fillcolor="#91c9f1"] ;
23 -> 24 ;
25 [label=<gini = 0.0<br/>samples = 1<br/>value = [2, 0]<br/>class = 0>, fillcolor="#e58139"] ;
24 -> 25 ;
26 [label=<Insulin &le; 64.0<br/>gini = 0.298<br/>samples = 6<br/>value = [2, 9]<br/>class = 1>, fillcolor="#65b3eb"] ;
24 -> 26 ;
27 [label=<gini = 0.0<br/>samples = 3<br/>value = [0, 5]<br/>class = 1>, fillcolor="#399de5"] ;
26 -> 27 ;
28 [label=<Insulin &le; 84.75<br/>gini = 0.444<br/>samples = 3<br/>value = [2, 4]<br/>class = 1>, fillcolor="#9ccef2"] ;
26 -> 28 ;
29 [label=<gini = 0.0<br/>samples = 1<br/>value = [2, 0]<br/>class = 0>, fillcolor="#e58139"] ;
28 -> 29 ;
30 [label=<gini = 0.0<br/>samples = 2<br/>value = [0, 4]<br/>class = 1>, fillcolor="#399de5"] ;
28 -> 30 ;
31 [label=<gini = 0.0<br/>samples = 3<br/>value = [0, 6]<br/>class = 1>, fillcolor="#399de5"] ;
23 -> 31 ;
32 [label=<Glucose &le; 156.5<br/>gini = 0.391<br/>samples = 11<br/>value = [11, 4]<br/>class = 0>, fillcolor="#eeaf81"] ;
22 -> 32 ;
33 [label=<BMI &le; 42.35<br/>gini = 0.26<br/>samples = 9<br/>value = [11, 2]<br/>class = 0>, fillcolor="#ea985d"] ;
32 -> 33 ;
34 [label=<gini = 0.0<br/>samples = 7<br/>value = [11, 0]<br/>class = 0>, fillcolor="#e58139"] ;
33 -> 34 ;
35 [label=<gini = 0.0<br/>samples = 2<br/>value = [0, 2]<br/>class = 1>, fillcolor="#399de5"] ;
33 -> 35 ;
36 [label=<gini = 0.0<br/>samples = 2<br/>value = [0, 2]<br/>class = 1>, fillcolor="#399de5"] ;
32 -> 36 ;
37 [label=<gini = 0.0<br/>samples = 5<br/>value = [0, 11]<br/>class = 1>, fillcolor="#399de5"] ;
21 -> 37 ;
38 [label=<BMI &le; 44.15<br/>gini = 0.175<br/>samples = 17<br/>value = [3, 28]<br/>class = 1>, fillcolor="#4ea8e8"] ;
20 -> 38 ;
39 [label=<Pregnancies &le; 9.5<br/>gini = 0.124<br/>samples = 16<br/>value = [2, 28]<br/>class = 1>, fillcolor="#47a4e7"] ;
38 -> 39 ;
40 [label=<gini = 0.0<br/>samples = 13<br/>value = [0, 26]<br/>class = 1>, fillcolor="#399de5"] ;
39 -> 40 ;
41 [label=<Pregnancies &le; 11.0<br/>gini = 0.5<br/>samples = 3<br/>value = [2, 2]<br/>class = 0>, fillcolor="#ffffff"] ;
39 -> 41 ;
42 [label=<Insulin &le; 245.833<br/>gini = 0.444<br/>samples = 2<br/>value = [2, 1]<br/>class = 0>, fillcolor="#f2c09c"] ;
41 -> 42 ;
43 [label=<gini = 0.0<br/>samples = 1<br/>value = [2, 0]<br/>class = 0>, fillcolor="#e58139"] ;
42 -> 43 ;
44 [label=<gini = 0.0<br/>samples = 1<br/>value = [0, 1]<br/>class = 1>, fillcolor="#399de5"] ;
42 -> 44 ;
45 [label=<gini = 0.0<br/>samples = 1<br/>value = [0, 1]<br/>class = 1>, fillcolor="#399de5"] ;
41 -> 45 ;
46 [label=<gini = 0.0<br/>samples = 1<br/>value = [1, 0]<br/>class = 0>, fillcolor="#e58139"] ;
38 -> 46 ;
}