digraph Tree {
node [shape=box, style="filled, rounded", color="black", fontname="helvetica"] ;
edge [fontname="helvetica"] ;
0 [label=<BMI &le; 27.1<br/>gini = 0.455<br/>samples = 99<br/>value = [100, 54]<br/>class = 0>, fillcolor="#f3c5a4"] ;
1 [label=<DiabetesPedigreeFunction &le; 0.627<br/>gini = 0.074<br/>samples = 21<br/>value = [25, 1]<br/>class = 0>, fillcolor="#e68641"] ;
0 -> 1 [labeldistance=2.5, labelangle=45, headlabel="True"] ;
2 [label=<gini = 0.0<br/>samples = 15<br/>value = [19, 0]<br/>class = 0>, fillcolor="#e58139"] ;
1 -> 2 ;
3 [label=<Glucose &le; 162.0<br/>gini = 0.245<br/>samples = 6<br/>value = [6, 1]<br/>class = 0>, fillcolor="#e9965a"] ;
1 -> 3 ;
4 [label=<gini = 0.0<br/>samples = 5<br/>value = [6, 0]<br/>class = 0>, fillcolor="#e58139"] ;
3 -> 4 ;
5 [label=<gini = 0.0<br/>samples = 1<br/>value = [0, 1]<br/>class = 1>, fillcolor="#399de5"] ;
3 -> 5 ;
6 [label=<Pregnancies &le; 6.5<br/>gini = 0.485<br/>samples = 78<br/>value = [75, 53]<br/>class = 0>, fillcolor="#f7dac5"] ;
0 -> 6 [labeldistance=2.5, labelangle=-45, headlabel="False"] ;
7 [label=<Age &le; 25.5<br/>gini = 0.42<br/>samples = 55<br/>value = [63.0, 27.0]<br/>class = 0>, fillcolor="#f0b78e"] ;
6 -> 7 ;
8 [label=<Insulin &le; 38.0<br/>gini = 0.289<br/>samples = 22<br/>value = [33, 7]<br/>class = 0>, fillcolor="#eb9c63"] ;
7 -> 8 ;
9 [label=<gini = 0.0<br/>samples = 1<br/>value = [0, 1]<br/>class = 1>, fillcolor="#399de5"] ;
8 -> 9 ;
10 [label=<DiabetesPedigreeFunction &le; 0.472<br/>gini = 0.26<br/>samples = 21<br/>value = [33, 6]<br/>class = 0>, fillcolor="#ea985d"] ;
8 -> 10 ;
11 [label=<gini = 0.0<br/>samples = 12<br/>value = [23, 0]<br/>class = 0>, fillcolor="#e58139"] ;
10 -> 11 ;
12 [label=<DiabetesPedigreeFunction &le; 0.512<br/>gini = 0.469<br/>samples = 9<br/>value = [10, 6]<br/>class = 0>, fillcolor="#f5cdb0"] ;
10 -> 12 ;
13 [label=<gini = 0.0<br/>samples = 1<br/>value = [0, 3]<br/>class = 1>, fillcolor="#399de5"] ;
12 -> 13 ;
14 [label=<Insulin &le; 123.75<br/>gini = 0.355<br/>samples = 8<br/>value = [10, 3]<br/>class = 0>, fillcolor="#eda774"] ;
12 -> 14 ;
15 [label=<gini = 0.0<br/>samples = 5<br/>value = [9, 0]<br/>class = 0>, fillcolor="#e58139"] ;
14 -> 15 ;
16 [label=<DiabetesPedigreeFunction &le; 0.528<br/>gini = 0.375<br/>samples = 3<br/>value = [1, 3]<br/>class = 1>, fillcolor="#7bbeee"] ;
14 -> 16 ;
17 [label=<gini = 0.0<br/>samples = 1<br/>value = [1, 0]<br/>class = 0>, fillcolor="#e58139"] ;
16 -> 17 ;
18 [label=<gini = 0.0<br/>samples = 2<br/>value = [0, 3]<br/>class = 1>, fillcolor="#399de5"] ;
16 -> 18 ;
19 [label=<Age &le; 40.5<br/>gini = 0.48<br/>samples = 33<br/>value = [30, 20]<br/>class = 0>, fillcolor="#f6d5bd"] ;
7 -> 19 ;
20 [label=<Pregnancies &le; 0.5<br/>gini = 0.5<br/>samples = 25<br/>value = [18, 18]<br/>class = 0>, fillcolor="#ffffff"] ;
19 -> 20 ;
21 [label=<gini = 0.0<br/>samples = 3<br/>value = [0, 5]<br/>class = 1>, fillcolor="#399de5"] ;
20 -> 21 ;
22 [label=<Glucose &le; 123.5<br/>gini = 0.487<br/>samples = 22<br/>value = [18, 13]<br/>class = 0>, fillcolor="#f8dcc8"] ;
20 -> 22 ;
23 [label=<Insulin &le; 72.333<br/>gini = 0.305<br/>samples = 12<br/>value = [13, 3]<br/>class = 0>, fillcolor="#eb9e67"] ;
22 -> 23 ;
24 [label=<Insulin &le; 66.5<br/>gini = 0.49<br/>samples = 5<br/>value = [4, 3]<br/>class = 0>, fillcolor="#f8e0ce"] ;
23 -> 24 ;
25 [label=<gini = 0.0<br/>samples = 3<br/>value = [4, 0]<br/>class = 0>, fillcolor="#e58139"] ;
24 -> 25 ;
26 [label=<gini = 0.0<br/>samples = 2<br/>value = [0, 3]<br/>class = 1>, fillcolor="#399de5"] ;
24 -> 26 ;
27 [label=<gini = 0.0<br/>samples = 7<br/>value = [9, 0]<br/>class = 0>, fillcolor="#e58139"] ;
23 -> 27 ;
28 [label=<Insulin &le; 157.143<br/>gini = 0.444<br/>samples = 10<br/>value = [5, 10]<br/>class = 1>, fillcolor="#9ccef2"] ;
22 -> 28 ;
29 [label=<BMI &le; 45.05<br/>gini = 0.32<br/>samples = 3<br/>value = [4, 1]<br/>class = 0>, fillcolor="#eca06a"] ;
28 -> 29 ;
30 [label=<gini = 0.0<br/>samples = 2<br/>value = [4, 0]<br/>class = 0>, fillcolor="#e58139"] ;
29 -> 30 ;
31 [label=<gini = 0.0<br/>samples = 1<br/>value = [0, 1]<br/>class = 1>, fillcolor="#399de5"] ;
29 -> 31 ;
32 [label=<BMI &le; 37.6<br/>gini = 0.18<br/>samples = 7<br/>value = [1, 9]<br/>class = 1>, fillcolor="#4fa8e8"] ;
28 -> 32 ;
33 [label=<gini = 0.0<br/>samples = 5<br/>value = [0, 8]<br/>class = 1>, fillcolor="#399de5"] ;
32 -> 33 ;
34 [label=<DiabetesPedigreeFunction &le; 0.516<br/>gini = 0.5<br/>samples = 2<br/>value = [1, 1]<br/>class = 0>, fillcolor="#ffffff"] ;
32 -> 34 ;
35 [label=<gini = 0.0<br/>samples = 1<br/>value = [1, 0]<br/>class = 0>, fillcolor="#e58139"] ;
34 -> 35 ;
36 [label=<gini = 0.0<br/>samples = 1<br/>value = [0, 1]<br/>class = 1>, fillcolor="#399de5"] ;
34 -> 36 ;
37 [label=<Age &le; 65.0<br/>gini = 0.245<br/>samples = 8<br/>value = [12, 2]<br/>class = 0>, fillcolor="#e9965a"] ;
19 -> 37 ;
38 [label=<gini = 0.0<br/>samples = 7<br/>value = [12, 0]<br/>class = 0>, fillcolor="#e58139"] ;
37 -> 38 ;
39 [label=<gini = 0.0<br/>samples = 1<br/>value = [0, 2]<br/>class = 1>, fillcolor="#399de5"] ;
37 -> 39 ;
40 [label=<BMI &le; 32.5<br/>gini = 0.432<br/>samples = 23<br/>value = [12, 26]<br/>class = 1>, fillcolor="#94caf1"] ;
6 -> 40 ;
41 [label=<gini = 0.0<br/>samples = 9<br/>value = [0, 18]<br/>class = 1>, fillcolor="#399de5"] ;
40 -> 41 ;
42 [label=<Pregnancies &le; 10.5<br/>gini = 0.48<br/>samples = 14<br/>value = [12, 8]<br/>class = 0>, fillcolor="#f6d5bd"] ;
40 -> 42 ;
43 [label=<BMI &le; 35.4<br/>gini = 0.337<br/>samples = 10<br/>value = [11, 3]<br/>class = 0>, fillcolor="#eca36f"] ;
42 -> 43 ;
44 [label=<Pregnancies &le; 7.5<br/>gini = 0.198<br/>samples = 6<br/>value = [8, 1]<br/>class = 0>, fillcolor="#e89152"] ;
43 -> 44 ;
45 [label=<Glucose &le; 106.0<br/>gini = 0.32<br/>samples = 4<br/>value = [4, 1]<br/>class = 0>, fillcolor="#eca06a"] ;
44 -> 45 ;
46 [label=<gini = 0.0<br/>samples = 1<br/>value = [2, 0]<br/>class = 0>, fillcolor="#e58139"] ;
45 -> 46 ;
47 [label=<Glucose &le; 164.5<br/>gini = 0.444<br/>samples = 3<br/>value = [2, 1]<br/>class = 0>, fillcolor="#f2c09c"] ;
45 -> 47 ;
48 [label=<BMI &le; 34.95<br/>gini = 0.5<br/>samples = 2<br/>value = [1, 1]<br/>class = 0>, fillcolor="#ffffff"] ;
47 -> 48 ;
49 [label=<gini = 0.0<br/>samples = 1<br/>value = [1, 0]<br/>class = 0>, fillcolor="#e58139"] ;
48 -> 49 ;
50 [label=<gini = 0.0<br/>samples = 1<br/>value = [0, 1]<br/>class = 1>, fillcolor="#399de5"] ;
48 -> 50 ;
51 [label=<gini = 0.0<br/>samples = 1<br/>value = [1, 0]<br/>class = 0>, fillcolor="#e58139"] ;
47 -> 51 ;
52 [label=<gini = 0.0<br/>samples = 2<br/>value = [4, 0]<br/>class = 0>, fillcolor="#e58139"] ;
44 -> 52 ;
53 [label=<DiabetesPedigreeFunction &le; 0.271<br/>gini = 0.48<br/>samples = 4<br/>value = [3, 2]<br/>class = 0>, fillcolor="#f6d5bd"] ;
43 -> 53 ;
54 [label=<gini = 0.0<br/>samples = 1<br/>value = [0, 1]<br/>class = 1>, fillcolor="#399de5"] ;
53 -> 54 ;
55 [label=<BMI &le; 35.7<br/>gini = 0.375<br/>samples = 3<br/>value = [3, 1]<br/>class = 0>, fillcolor="#eeab7b"] ;
53 -> 55 ;
56 [label=<gini = 0.0<br/>samples = 1<br/>value = [0, 1]<br/>class = 1>, fillcolor="#399de5"] ;
55 -> 56 ;
57 [label=<gini = 0.0<br/>samples = 2<br/>value = [3, 0]<br/>class = 0>, fillcolor="#e58139"] ;
55 -> 57 ;
58 [label=<DiabetesPedigreeFunction &le; 0.218<br/>gini = 0.278<br/>samples = 4<br/>value = [1, 5]<br/>class = 1>, fillcolor="#61b1ea"] ;
42 -> 58 ;
59 [label=<gini = 0.0<br/>samples = 1<br/>value = [1, 0]<br/>class = 0>, fillcolor="#e58139"] ;
58 -> 59 ;
60 [label=<gini = 0.0<br/>samples = 3<br/>value = [0, 5]<br/>class = 1>, fillcolor="#399de5"] ;
58 -> 60 ;
}