digraph Tree {
node [shape=box, style="filled, rounded", color="black", fontname="helvetica"] ;
edge [fontname="helvetica"] ;
0 [label=<Pregnancies &le; 8.5<br/>gini = 0.473<br/>samples = 98<br/>value = [95, 59]<br/>class = 0>, fillcolor="#f5cfb4"] ;
1 [label=<Glucose &le; 118.5<br/>gini = 0.446<br/>samples = 86<br/>value = [89, 45]<br/>class = 0>, fillcolor="#f2c19d"] ;
0 -> 1 [labeldistance=2.5, labelangle=45, headlabel="True"] ;
2 [label=<Age &le; 42.0<br/>gini = 0.165<br/>samples = 49<br/>value = [70, 7]<br/>class = 0>, fillcolor="#e88e4d"] ;
1 -> 2 ;
3 [label=<BMI &le; 43.85<br/>gini = 0.111<br/>samples = 43<br/>value = [64, 4]<br/>class = 0>, fillcolor="#e78945"] ;
2 -> 3 ;
4 [label=<BMI &le; 37.3<br/>gini = 0.059<br/>samples = 42<br/>value = [64, 2]<br/>class = 0>, fillcolor="#e6853f"] ;
3 -> 4 ;
5 [label=<Age &le; 36.0<br/>gini = 0.033<br/>samples = 36<br/>value = [59, 1]<br/>class = 0>, fillcolor="#e5833c"] ;
4 -> 5 ;
6 [label=<gini = 0.0<br/>samples = 32<br/>value = [55, 0]<br/>class = 0>, fillcolor="#e58139"] ;
5 -> 6 ;
7 [label=<Pregnancies &le; 1.5<br/>gini = 0.32<br/>samples = 4<br/>value = [4, 1]<br/>class = 0>, fillcolor="#eca06a"] ;
5 -> 7 ;
8 [label=<gini = 0.0<br/>samples = 1<br/>value = [0, 1]<br/>class = 1>, fillcolor="#399de5"] ;
7 -> 8 ;
9 [label=<gini = 0.0<br/>samples = 3<br/>value = [4, 0]<br/>class = 0>, fillcolor="#e58139"] ;
7 -> 9 ;
10 [label=<Age &le; 24.5<br/>gini = 0.278<br/>samples = 6<br/>value = [5, 1]<br/>class = 0>, fillcolor="#ea9a61"] ;
4 -> 10 ;
11 [label=<gini = 0.0<br/>samples = 1<br/>value = [0, 1]<br/>class = 1>, fillcolor="#399de5"] ;
10 -> 11 ;
12 [label=<gini = 0.0<br/>samples = 5<br/>value = [5, 0]<br/>class = 0>, fillcolor="#e58139"] ;
10 -> 12 ;
13 [label=<gini = 0.0<br/>samples = 1<br/>value = [0, 2]<br/>class = 1>, fillcolor="#399de5"] ;
3 -> 13 ;
14 [label=<BMI &le; 34.95<br/>gini = 0.444<br/>samples = 6<br/>value = [6, 3]<br/>class = 0>, fillcolor="#f2c09c"] ;
2 -> 14 ;
15 [label=<gini = 0.0<br/>samples = 2<br/>value = [3, 0]<br/>class = 0>, fillcolor="#e58139"] ;
14 -> 15 ;
16 [label=<DiabetesPedigreeFunction &le; 0.27<br/>gini = 0.5<br/>samples = 4<br/>value = [3, 3]<br/>class = 0>, fillcolor="#ffffff"] ;
14 -> 16 ;
17 [label=<gini = 0.0<br/>samples = 1<br/>value = [0, 2]<br/>class = 1>, fillcolor="#399de5"] ;
16 -> 17 ;
18 [label=<Age &le; 51.5<br/>gini = 0.375<br/>samples = 3<br/>value = [3, 1]<br/>class = 0>, fillcolor="#eeab7b"] ;
16 -> 18 ;
19 [label=<gini = 0.0<br/>samples = 1<br/>value = [0, 1]<br/>class = 1>, fillcolor="#399de5"] ;
18 -> 19 ;
20 [label=<gini = 0.0<br/>samples = 2<br/>value = [3, 0]<br/>class = 0>, fillcolor="#e58139"] ;
18 -> 20 ;
21 [label=<BMI &le; 27.35<br/>gini = 0.444<br/>samples = 37<br/>value = [19, 38]<br/>class = 1>, fillcolor="#9ccef2"] ;
1 -> 21 ;
22 [label=<Insulin &le; 108.0<br/>gini = 0.375<br/>samples = 4<br/>value = [3, 1]<br/>class = 0>, fillcolor="#eeab7b"] ;
21 -> 22 ;
23 [label=<Glucose &le; 159.0<br/>gini = 0.5<br/>samples = 2<br/>value = [1, 1]<br/>class = 0>, fillcolor="#ffffff"] ;
22 -> 23 ;
24 [label=<gini = 0.0<br/>samples = 1<br/>value = [1, 0]<br/>class = 0>, fillcolor="#e58139"] ;
23 -> 24 ;
25 [label=<gini = 0.0<br/>samples = 1<br/>value = [0, 1]<br/>class = 1>, fillcolor="#399de5"] ;
23 -> 25 ;
26 [label=<gini = 0.0<br/>samples = 2<br/>value = [2, 0]<br/>class = 0>, fillcolor="#e58139"] ;
22 -> 26 ;
27 [label=<Insulin &le; 175.071<br/>gini = 0.422<br/>samples = 33<br/>value = [16, 37]<br/>class = 1>, fillcolor="#8fc7f0"] ;
21 -> 27 ;
28 [label=<Age &le; 22.5<br/>gini = 0.487<br/>samples = 20<br/>value = [13, 18]<br/>class = 1>, fillcolor="#c8e4f8"] ;
27 -> 28 ;
29 [label=<gini = 0.0<br/>samples = 2<br/>value = [0, 4]<br/>class = 1>, fillcolor="#399de5"] ;
28 -> 29 ;
30 [label=<Insulin &le; 144.5<br/>gini = 0.499<br/>samples = 18<br/>value = [13, 14]<br/>class = 1>, fillcolor="#f1f8fd"] ;
28 -> 30 ;
31 [label=<Insulin &le; 97.5<br/>gini = 0.463<br/>samples = 14<br/>value = [8, 14]<br/>class = 1>, fillcolor="#aad5f4"] ;
30 -> 31 ;
32 [label=<Insulin &le; 64.0<br/>gini = 0.444<br/>samples = 5<br/>value = [6, 3]<br/>class = 0>, fillcolor="#f2c09c"] ;
31 -> 32 ;
33 [label=<gini = 0.0<br/>samples = 2<br/>value = [0, 3]<br/>class = 1>, fillcolor="#399de5"] ;
32 -> 33 ;
34 [label=<gini = 0.0<br/>samples = 3<br/>value = [6, 0]<br/>class = 0>, fillcolor="#e58139"] ;
32 -> 34 ;
35 [label=<BMI &le; 31.8<br/>gini = 0.26<br/>samples = 9<br/>value = [2, 11]<br/>class = 1>, fillcolor="#5dafea"] ;
31 -> 35 ;
36 [label=<Insulin &le; 123.0<br/>gini = 0.444<br/>samples = 2<br/>value = [2, 1]<br/>class = 0>, fillcolor="#f2c09c"] ;
35 -> 36 ;
37 [label=<gini = 0.0<br/>samples = 1<br/>value = [0, 1]<br/>class = 1>, fillcolor="#399de5"] ;
36 -> 37 ;
38 [label=<gini = 0.0<br/>samples = 1<br/>value = [2, 0]<br/>class = 0>, fillcolor="#e58139"] ;
36 -> 38 ;
39 [label=<gini = 0.0<br/>samples = 7<br/>value = [0, 10]<br/>class = 1>, fillcolor="#399de5"] ;
35 -> 39 ;
40 [label=<gini = 0.0<br/>samples = 4<br/>value = [5, 0]<br/>class = 0>, fillcolor="#e58139"] ;
30 -> 40 ;
41 [label=<BMI &le; 40.35<br/>gini = 0.236<br/>samples = 13<br/>value = [3, 19]<br/>class = 1>, fillcolor="#58ace9"] ;
27 -> 41 ;
42 [label=<Age &le; 21.5<br/>gini = 0.095<br/>samples = 11<br/>value = [1, 19]<br/>class = 1>, fillcolor="#43a2e6"] ;
41 -> 42 ;
43 [label=<gini = 0.0<br/>samples = 1<br/>value = [1, 0]<br/>class = 0>, fillcolor="#e58139"] ;
42 -> 43 ;
44 [label=<gini = 0.0<br/>samples = 10<br/>value = [0, 19]<br/>class = 1>, fillcolor="#399de5"] ;
42 -> 44 ;
45 [label=<gini = 0.0<br/>samples = 2<br/>value = [2, 0]<br/>class = 0>, fillcolor="#e58139"] ;
41 -> 45 ;
46 [label=<DiabetesPedigreeFunction &le; 0.218<br/>gini = 0.42<br/>samples = 12<br/>value = [6, 14]<br/>class = 1>, fillcolor="#8ec7f0"] ;
0 -> 46 [labeldistance=2.5, labelangle=-45, headlabel="False"] ;
47 [label=<BMI &le; 30.2<br/>gini = 0.32<br/>samples = 3<br/>value = [4, 1]<br/>class = 0>, fillcolor="#eca06a"] ;
46 -> 47 ;
48 [label=<gini = 0.0<br/>samples = 1<br/>value = [0, 1]<br/>class = 1>, fillcolor="#399de5"] ;
47 -> 48 ;
49 [label=<gini = 0.0<br/>samples = 2<br/>value = [4, 0]<br/>class = 0>, fillcolor="#e58139"] ;
47 -> 49 ;
50 [label=<Glucose &le; 112.5<br/>gini = 0.231<br/>samples = 9<br/>value = [2, 13]<br/>class = 1>, fillcolor="#57ace9"] ;
46 -> 50 ;
51 [label=<gini = 0.0<br/>samples = 1<br/>value = [2, 0]<br/>class = 0>, fillcolor="#e58139"] ;
50 -> 51 ;
52 [label=<gini = 0.0<br/>samples = 8<br/>value = [0, 13]<br/>class = 1>, fillcolor="#399de5"] ;
50 -> 52 ;
}