digraph Tree {
node [shape=box, style="filled, rounded", color="black", fontname="helvetica"] ;
edge [fontname="helvetica"] ;
0 [label=<Glucose &le; 123.5<br/>gini = 0.481<br/>samples = 98<br/>value = [92, 62]<br/>class = 0>, fillcolor="#f7d6be"] ;
1 [label=<Glucose &le; 108.5<br/>gini = 0.296<br/>samples = 57<br/>value = [68, 15]<br/>class = 0>, fillcolor="#eb9d65"] ;
0 -> 1 [labeldistance=2.5, labelangle=45, headlabel="True"] ;
2 [label=<BMI &le; 28.9<br/>gini = 0.212<br/>samples = 39<br/>value = [51, 7]<br/>class = 0>, fillcolor="#e99254"] ;
1 -> 2 ;
3 [label=<gini = 0.0<br/>samples = 13<br/>value = [20, 0]<br/>class = 0>, fillcolor="#e58139"] ;
2 -> 3 ;
4 [label=<DiabetesPedigreeFunction &le; 0.262<br/>gini = 0.301<br/>samples = 26<br/>value = [31, 7]<br/>class = 0>, fillcolor="#eb9d66"] ;
2 -> 4 ;
5 [label=<Insulin &le; 77.75<br/>gini = 0.5<br/>samples = 8<br/>value = [5, 5]<br/>class = 0>, fillcolor="#ffffff"] ;
4 -> 5 ;
6 [label=<gini = 0.0<br/>samples = 3<br/>value = [0, 5]<br/>class = 1>, fillcolor="#399de5"] ;
5 -> 6 ;
7 [label=<gini = 0.0<br/>samples = 5<br/>value = [5, 0]<br/>class = 0>, fillcolor="#e58139"] ;
5 -> 7 ;
8 [label=<Glucose &le; 103.5<br/>gini = 0.133<br/>samples = 18<br/>value = [26, 2]<br/>class = 0>, fillcolor="#e78b48"] ;
4 -> 8 ;
9 [label=<gini = 0.0<br/>samples = 15<br/>value = [23, 0]<br/>class = 0>, fillcolor="#e58139"] ;
8 -> 9 ;
10 [label=<DiabetesPedigreeFunction &le; 0.422<br/>gini = 0.48<br/>samples = 3<br/>value = [3, 2]<br/>class = 0>, fillcolor="#f6d5bd"] ;
8 -> 10 ;
11 [label=<gini = 0.0<br/>samples = 1<br/>value = [3, 0]<br/>class = 0>, fillcolor="#e58139"] ;
10 -> 11 ;
12 [label=<gini = 0.0<br/>samples = 2<br/>value = [0, 2]<br/>class = 1>, fillcolor="#399de5"] ;
10 -> 12 ;
13 [label=<Pregnancies &le; 3.0<br/>gini = 0.435<br/>samples = 18<br/>value = [17, 8]<br/>class = 0>, fillcolor="#f1bc96"] ;
1 -> 13 ;
14 [label=<Glucose &le; 110.5<br/>gini = 0.231<br/>samples = 11<br/>value = [13, 2]<br/>class = 0>, fillcolor="#e99457"] ;
13 -> 14 ;
15 [label=<Pregnancies &le; 0.5<br/>gini = 0.444<br/>samples = 2<br/>value = [1, 2]<br/>class = 1>, fillcolor="#9ccef2"] ;
14 -> 15 ;
16 [label=<gini = 0.0<br/>samples = 1<br/>value = [0, 2]<br/>class = 1>, fillcolor="#399de5"] ;
15 -> 16 ;
17 [label=<gini = 0.0<br/>samples = 1<br/>value = [1, 0]<br/>class = 0>, fillcolor="#e58139"] ;
15 -> 17 ;
18 [label=<gini = 0.0<br/>samples = 9<br/>value = [12, 0]<br/>class = 0>, fillcolor="#e58139"] ;
14 -> 18 ;
19 [label=<Insulin &le; 264.0<br/>gini = 0.48<br/>samples = 7<br/>value = [4, 6]<br/>class = 1>, fillcolor="#bddef6"] ;
13 -> 19 ;
20 [label=<BMI &le; 27.0<br/>gini = 0.245<br/>samples = 6<br/>value = [1, 6]<br/>class = 1>, fillcolor="#5aade9"] ;
19 -> 20 ;
21 [label=<gini = 0.0<br/>samples = 1<br/>value = [1, 0]<br/>class = 0>, fillcolor="#e58139"] ;
20 -> 21 ;
22 [label=<gini = 0.0<br/>samples = 5<br/>value = [0, 6]<br/>class = 1>, fillcolor="#399de5"] ;
20 -> 22 ;
23 [label=<gini = 0.0<br/>samples = 1<br/>value = [3, 0]<br/>class = 0>, fillcolor="#e58139"] ;
19 -> 23 ;
24 [label=<Age &le; 49.5<br/>gini = 0.448<br/>samples = 41<br/>value = [24, 47]<br/>class = 1>, fillcolor="#9ecff2"] ;
0 -> 24 [labeldistance=2.5, labelangle=-45, headlabel="False"] ;
25 [label=<Insulin &le; 129.75<br/>gini = 0.391<br/>samples = 32<br/>value = [16, 44]<br/>class = 1>, fillcolor="#81c1ee"] ;
24 -> 25 ;
26 [label=<Pregnancies &le; 4.5<br/>gini = 0.499<br/>samples = 11<br/>value = [10, 9]<br/>class = 0>, fillcolor="#fcf2eb"] ;
25 -> 26 ;
27 [label=<Insulin &le; 65.0<br/>gini = 0.355<br/>samples = 7<br/>value = [10, 3]<br/>class = 0>, fillcolor="#eda774"] ;
26 -> 27 ;
28 [label=<gini = 0.0<br/>samples = 1<br/>value = [0, 2]<br/>class = 1>, fillcolor="#399de5"] ;
27 -> 28 ;
29 [label=<BMI &le; 42.85<br/>gini = 0.165<br/>samples = 6<br/>value = [10, 1]<br/>class = 0>, fillcolor="#e88e4d"] ;
27 -> 29 ;
30 [label=<gini = 0.0<br/>samples = 5<br/>value = [10, 0]<br/>class = 0>, fillcolor="#e58139"] ;
29 -> 30 ;
31 [label=<gini = 0.0<br/>samples = 1<br/>value = [0, 1]<br/>class = 1>, fillcolor="#399de5"] ;
29 -> 31 ;
32 [label=<gini = 0.0<br/>samples = 4<br/>value = [0, 6]<br/>class = 1>, fillcolor="#399de5"] ;
26 -> 32 ;
33 [label=<Age &le; 21.5<br/>gini = 0.25<br/>samples = 21<br/>value = [6, 35]<br/>class = 1>, fillcolor="#5baee9"] ;
25 -> 33 ;
34 [label=<gini = 0.0<br/>samples = 2<br/>value = [3, 0]<br/>class = 0>, fillcolor="#e58139"] ;
33 -> 34 ;
35 [label=<Pregnancies &le; 2.5<br/>gini = 0.145<br/>samples = 19<br/>value = [3, 35]<br/>class = 1>, fillcolor="#4aa5e7"] ;
33 -> 35 ;
36 [label=<BMI &le; 35.75<br/>gini = 0.278<br/>samples = 9<br/>value = [3, 15]<br/>class = 1>, fillcolor="#61b1ea"] ;
35 -> 36 ;
37 [label=<gini = 0.0<br/>samples = 4<br/>value = [0, 9]<br/>class = 1>, fillcolor="#399de5"] ;
36 -> 37 ;
38 [label=<BMI &le; 41.95<br/>gini = 0.444<br/>samples = 5<br/>value = [3, 6]<br/>class = 1>, fillcolor="#9ccef2"] ;
36 -> 38 ;
39 [label=<DiabetesPedigreeFunction &le; 0.259<br/>gini = 0.48<br/>samples = 4<br/>value = [3, 2]<br/>class = 0>, fillcolor="#f6d5bd"] ;
38 -> 39 ;
40 [label=<gini = 0.0<br/>samples = 1<br/>value = [0, 2]<br/>class = 1>, fillcolor="#399de5"] ;
39 -> 40 ;
41 [label=<gini = 0.0<br/>samples = 3<br/>value = [3, 0]<br/>class = 0>, fillcolor="#e58139"] ;
39 -> 41 ;
42 [label=<gini = 0.0<br/>samples = 1<br/>value = [0, 4]<br/>class = 1>, fillcolor="#399de5"] ;
38 -> 42 ;
43 [label=<gini = 0.0<br/>samples = 10<br/>value = [0, 20]<br/>class = 1>, fillcolor="#399de5"] ;
35 -> 43 ;
44 [label=<BMI &le; 34.2<br/>gini = 0.397<br/>samples = 9<br/>value = [8, 3]<br/>class = 0>, fillcolor="#efb083"] ;
24 -> 44 ;
45 [label=<gini = 0.0<br/>samples = 5<br/>value = [7, 0]<br/>class = 0>, fillcolor="#e58139"] ;
44 -> 45 ;
46 [label=<BMI &le; 42.85<br/>gini = 0.375<br/>samples = 4<br/>value = [1, 3]<br/>class = 1>, fillcolor="#7bbeee"] ;
44 -> 46 ;
47 [label=<gini = 0.0<br/>samples = 3<br/>value = [0, 3]<br/>class = 1>, fillcolor="#399de5"] ;
46 -> 47 ;
48 [label=<gini = 0.0<br/>samples = 1<br/>value = [1, 0]<br/>class = 0>, fillcolor="#e58139"] ;
46 -> 48 ;
}