digraph Tree {
node [shape=box, style="filled, rounded", color="black", fontname="helvetica"] ;
edge [fontname="helvetica"] ;
0 [label=<Glucose &le; 119.5<br/>gini = 0.459<br/>samples = 98<br/>value = [99.0, 55.0]<br/>class = 0>, fillcolor="#f3c7a7"] ;
1 [label=<Glucose &le; 94.5<br/>gini = 0.219<br/>samples = 55<br/>value = [77, 11]<br/>class = 0>, fillcolor="#e99355"] ;
0 -> 1 [labeldistance=2.5, labelangle=45, headlabel="True"] ;
2 [label=<Age &le; 26.0<br/>gini = 0.049<br/>samples = 23<br/>value = [39, 1]<br/>class = 0>, fillcolor="#e6843e"] ;
1 -> 2 ;
3 [label=<gini = 0.0<br/>samples = 14<br/>value = [26, 0]<br/>class = 0>, fillcolor="#e58139"] ;
2 -> 3 ;
4 [label=<Age &le; 27.5<br/>gini = 0.133<br/>samples = 9<br/>value = [13, 1]<br/>class = 0>, fillcolor="#e78b48"] ;
2 -> 4 ;
5 [label=<gini = 0.0<br/>samples = 1<br/>value = [0, 1]<br/>class = 1>, fillcolor="#399de5"] ;
4 -> 5 ;
6 [label=<gini = 0.0<br/>samples = 8<br/>value = [13, 0]<br/>class = 0>, fillcolor="#e58139"] ;
4 -> 6 ;
7 [label=<Pregnancies &le; 0.5<br/>gini = 0.33<br/>samples = 32<br/>value = [38, 10]<br/>class = 0>, fillcolor="#eca26d"] ;
1 -> 7 ;
8 [label=<Age &le; 41.0<br/>gini = 0.5<br/>samples = 6<br/>value = [5, 5]<br/>class = 0>, fillcolor="#ffffff"] ;
7 -> 8 ;
9 [label=<Age &le; 23.5<br/>gini = 0.408<br/>samples = 5<br/>value = [2, 5]<br/>class = 1>, fillcolor="#88c4ef"] ;
8 -> 9 ;
10 [label=<BMI &le; 32.2<br/>gini = 0.5<br/>samples = 3<br/>value = [2, 2]<br/>class = 0>, fillcolor="#ffffff"] ;
9 -> 10 ;
11 [label=<gini = 0.0<br/>samples = 1<br/>value = [1, 0]<br/>class = 0>, fillcolor="#e58139"] ;
10 -> 11 ;
12 [label=<Age &le; 22.5<br/>gini = 0.444<br/>samples = 2<br/>value = [1, 2]<br/>class = 1>, fillcolor="#9ccef2"] ;
10 -> 12 ;
13 [label=<gini = 0.0<br/>samples = 1<br/>value = [0, 2]<br/>class = 1>, fillcolor="#399de5"] ;
12 -> 13 ;
14 [label=<gini = 0.0<br/>samples = 1<br/>value = [1, 0]<br/>class = 0>, fillcolor="#e58139"] ;
12 -> 14 ;
15 [label=<gini = 0.0<br/>samples = 2<br/>value = [0, 3]<br/>class = 1>, fillcolor="#399de5"] ;
9 -> 15 ;
16 [label=<gini = 0.0<br/>samples = 1<br/>value = [3, 0]<br/>class = 0>, fillcolor="#e58139"] ;
8 -> 16 ;
17 [label=<DiabetesPedigreeFunction &le; 0.145<br/>gini = 0.229<br/>samples = 26<br/>value = [33, 5]<br/>class = 0>, fillcolor="#e99457"] ;
7 -> 17 ;
18 [label=<Age &le; 26.0<br/>gini = 0.375<br/>samples = 3<br/>value = [1, 3]<br/>class = 1>, fillcolor="#7bbeee"] ;
17 -> 18 ;
19 [label=<gini = 0.0<br/>samples = 1<br/>value = [0, 2]<br/>class = 1>, fillcolor="#399de5"] ;
18 -> 19 ;
20 [label=<Insulin &le; 202.833<br/>gini = 0.5<br/>samples = 2<br/>value = [1, 1]<br/>class = 0>, fillcolor="#ffffff"] ;
18 -> 20 ;
21 [label=<gini = 0.0<br/>samples = 1<br/>value = [0, 1]<br/>class = 1>, fillcolor="#399de5"] ;
20 -> 21 ;
22 [label=<gini = 0.0<br/>samples = 1<br/>value = [1, 0]<br/>class = 0>, fillcolor="#e58139"] ;
20 -> 22 ;
23 [label=<Glucose &le; 113.5<br/>gini = 0.111<br/>samples = 23<br/>value = [32, 2]<br/>class = 0>, fillcolor="#e78945"] ;
17 -> 23 ;
24 [label=<Pregnancies &le; 11.5<br/>gini = 0.059<br/>samples = 22<br/>value = [32, 1]<br/>class = 0>, fillcolor="#e6853f"] ;
23 -> 24 ;
25 [label=<gini = 0.0<br/>samples = 21<br/>value = [32, 0]<br/>class = 0>, fillcolor="#e58139"] ;
24 -> 25 ;
26 [label=<gini = 0.0<br/>samples = 1<br/>value = [0, 1]<br/>class = 1>, fillcolor="#399de5"] ;
24 -> 26 ;
27 [label=<gini = 0.0<br/>samples = 1<br/>value = [0, 1]<br/>class = 1>, fillcolor="#399de5"] ;
23 -> 27 ;
28 [label=<Age &le; 56.0<br/>gini = 0.444<br/>samples = 43<br/>value = [22, 44]<br/>class = 1>, fillcolor="#9ccef2"] ;
0 -> 28 [labeldistance=2.5, labelangle=-45, headlabel="False"] ;
29 [label=<Pregnancies &le; 2.5<br/>gini = 0.4<br/>samples = 35<br/>value = [16, 42]<br/>class = 1>, fillcolor="#84c2ef"] ;
28 -> 29 ;
30 [label=<BMI &le; 27.05<br/>gini = 0.497<br/>samples = 13<br/>value = [13, 11]<br/>class = 0>, fillcolor="#fbece1"] ;
29 -> 30 ;
31 [label=<gini = 0.0<br/>samples = 2<br/>value = [5, 0]<br/>class = 0>, fillcolor="#e58139"] ;
30 -> 31 ;
32 [label=<Glucose &le; 123.0<br/>gini = 0.488<br/>samples = 11<br/>value = [8, 11]<br/>class = 1>, fillcolor="#c9e4f8"] ;
30 -> 32 ;
33 [label=<gini = 0.0<br/>samples = 2<br/>value = [4, 0]<br/>class = 0>, fillcolor="#e58139"] ;
32 -> 33 ;
34 [label=<Insulin &le; 188.0<br/>gini = 0.391<br/>samples = 9<br/>value = [4, 11]<br/>class = 1>, fillcolor="#81c1ee"] ;
32 -> 34 ;
35 [label=<Age &le; 27.0<br/>gini = 0.198<br/>samples = 5<br/>value = [1, 8]<br/>class = 1>, fillcolor="#52a9e8"] ;
34 -> 35 ;
36 [label=<Age &le; 24.5<br/>gini = 0.444<br/>samples = 2<br/>value = [1, 2]<br/>class = 1>, fillcolor="#9ccef2"] ;
35 -> 36 ;
37 [label=<gini = 0.0<br/>samples = 1<br/>value = [0, 2]<br/>class = 1>, fillcolor="#399de5"] ;
36 -> 37 ;
38 [label=<gini = 0.0<br/>samples = 1<br/>value = [1, 0]<br/>class = 0>, fillcolor="#e58139"] ;
36 -> 38 ;
39 [label=<gini = 0.0<br/>samples = 3<br/>value = [0, 6]<br/>class = 1>, fillcolor="#399de5"] ;
35 -> 39 ;
40 [label=<Glucose &le; 163.5<br/>gini = 0.5<br/>samples = 4<br/>value = [3, 3]<br/>class = 0>, fillcolor="#ffffff"] ;
34 -> 40 ;
41 [label=<DiabetesPedigreeFunction &le; 0.694<br/>gini = 0.375<br/>samples = 3<br/>value = [3, 1]<br/>class = 0>, fillcolor="#eeab7b"] ;
40 -> 41 ;
42 [label=<gini = 0.0<br/>samples = 2<br/>value = [3, 0]<br/>class = 0>, fillcolor="#e58139"] ;
41 -> 42 ;
43 [label=<gini = 0.0<br/>samples = 1<br/>value = [0, 1]<br/>class = 1>, fillcolor="#399de5"] ;
41 -> 43 ;
44 [label=<gini = 0.0<br/>samples = 1<br/>value = [0, 2]<br/>class = 1>, fillcolor="#399de5"] ;
40 -> 44 ;
45 [label=<Insulin &le; 128.0<br/>gini = 0.161<br/>samples = 22<br/>value = [3, 31]<br/>class = 1>, fillcolor="#4ca6e8"] ;
29 -> 45 ;
46 [label=<Insulin &le; 121.0<br/>gini = 0.337<br/>samples = 9<br/>value = [3, 11]<br/>class = 1>, fillcolor="#6fb8ec"] ;
45 -> 46 ;
47 [label=<Glucose &le; 171.5<br/>gini = 0.165<br/>samples = 6<br/>value = [1, 10]<br/>class = 1>, fillcolor="#4da7e8"] ;
46 -> 47 ;
48 [label=<gini = 0.0<br/>samples = 5<br/>value = [0, 10]<br/>class = 1>, fillcolor="#399de5"] ;
47 -> 48 ;
49 [label=<gini = 0.0<br/>samples = 1<br/>value = [1, 0]<br/>class = 0>, fillcolor="#e58139"] ;
47 -> 49 ;
50 [label=<Age &le; 46.5<br/>gini = 0.444<br/>samples = 3<br/>value = [2, 1]<br/>class = 0>, fillcolor="#f2c09c"] ;
46 -> 50 ;
51 [label=<gini = 0.0<br/>samples = 2<br/>value = [2, 0]<br/>class = 0>, fillcolor="#e58139"] ;
50 -> 51 ;
52 [label=<gini = 0.0<br/>samples = 1<br/>value = [0, 1]<br/>class = 1>, fillcolor="#399de5"] ;
50 -> 52 ;
53 [label=<gini = 0.0<br/>samples = 13<br/>value = [0, 20]<br/>class = 1>, fillcolor="#399de5"] ;
45 -> 53 ;
54 [label=<BMI &le; 34.45<br/>gini = 0.375<br/>samples = 8<br/>value = [6, 2]<br/>class = 0>, fillcolor="#eeab7b"] ;
28 -> 54 ;
55 [label=<gini = 0.0<br/>samples = 5<br/>value = [5, 0]<br/>class = 0>, fillcolor="#e58139"] ;
54 -> 55 ;
56 [label=<Pregnancies &le; 1.0<br/>gini = 0.444<br/>samples = 3<br/>value = [1, 2]<br/>class = 1>, fillcolor="#9ccef2"] ;
54 -> 56 ;
57 [label=<gini = 0.0<br/>samples = 1<br/>value = [1, 0]<br/>class = 0>, fillcolor="#e58139"] ;
56 -> 57 ;
58 [label=<gini = 0.0<br/>samples = 2<br/>value = [0, 2]<br/>class = 1>, fillcolor="#399de5"] ;
56 -> 58 ;
}