digraph Tree {
node [shape=box, style="filled, rounded", color="black", fontname="helvetica"] ;
edge [fontname="helvetica"] ;
0 [label=<Pregnancies &le; 2.5<br/>gini = 0.443<br/>samples = 103<br/>value = [103.0, 51.0]<br/>class = 0>, fillcolor="#f2bf9b"] ;
1 [label=<Pregnancies &le; 0.5<br/>gini = 0.309<br/>samples = 44<br/>value = [55, 13]<br/>class = 0>, fillcolor="#eb9f68"] ;
0 -> 1 [labeldistance=2.5, labelangle=45, headlabel="True"] ;
2 [label=<Insulin &le; 67.0<br/>gini = 0.454<br/>samples = 15<br/>value = [15, 8]<br/>class = 0>, fillcolor="#f3c4a3"] ;
1 -> 2 ;
3 [label=<Glucose &le; 86.5<br/>gini = 0.32<br/>samples = 4<br/>value = [1, 4]<br/>class = 1>, fillcolor="#6ab6ec"] ;
2 -> 3 ;
4 [label=<gini = 0.0<br/>samples = 1<br/>value = [1, 0]<br/>class = 0>, fillcolor="#e58139"] ;
3 -> 4 ;
5 [label=<gini = 0.0<br/>samples = 3<br/>value = [0, 4]<br/>class = 1>, fillcolor="#399de5"] ;
3 -> 5 ;
6 [label=<Insulin &le; 97.5<br/>gini = 0.346<br/>samples = 11<br/>value = [14, 4]<br/>class = 0>, fillcolor="#eca572"] ;
2 -> 6 ;
7 [label=<gini = 0.0<br/>samples = 4<br/>value = [9, 0]<br/>class = 0>, fillcolor="#e58139"] ;
6 -> 7 ;
8 [label=<Glucose &le; 133.0<br/>gini = 0.494<br/>samples = 7<br/>value = [5, 4]<br/>class = 0>, fillcolor="#fae6d7"] ;
6 -> 8 ;
9 [label=<BMI &le; 39.25<br/>gini = 0.375<br/>samples = 3<br/>value = [1, 3]<br/>class = 1>, fillcolor="#7bbeee"] ;
8 -> 9 ;
10 [label=<Glucose &le; 101.0<br/>gini = 0.5<br/>samples = 2<br/>value = [1, 1]<br/>class = 0>, fillcolor="#ffffff"] ;
9 -> 10 ;
11 [label=<gini = 0.0<br/>samples = 1<br/>value = [1, 0]<br/>class = 0>, fillcolor="#e58139"] ;
10 -> 11 ;
12 [label=<gini = 0.0<br/>samples = 1<br/>value = [0, 1]<br/>class = 1>, fillcolor="#399de5"] ;
10 -> 12 ;
13 [label=<gini = 0.0<br/>samples = 1<br/>value = [0, 2]<br/>class = 1>, fillcolor="#399de5"] ;
9 -> 13 ;
14 [label=<Glucose &le; 150.5<br/>gini = 0.32<br/>samples = 4<br/>value = [4, 1]<br/>class = 0>, fillcolor="#eca06a"] ;
8 -> 14 ;
15 [label=<gini = 0.0<br/>samples = 2<br/>value = [3, 0]<br/>class = 0>, fillcolor="#e58139"] ;
14 -> 15 ;
16 [label=<Glucose &le; 167.5<br/>gini = 0.5<br/>samples = 2<br/>value = [1, 1]<br/>class = 0>, fillcolor="#ffffff"] ;
14 -> 16 ;
17 [label=<gini = 0.0<br/>samples = 1<br/>value = [0, 1]<br/>class = 1>, fillcolor="#399de5"] ;
16 -> 17 ;
18 [label=<gini = 0.0<br/>samples = 1<br/>value = [1, 0]<br/>class = 0>, fillcolor="#e58139"] ;
16 -> 18 ;
19 [label=<BMI &le; 27.85<br/>gini = 0.198<br/>samples = 29<br/>value = [40, 5]<br/>class = 0>, fillcolor="#e89152"] ;
1 -> 19 ;
20 [label=<gini = 0.0<br/>samples = 11<br/>value = [16, 0]<br/>class = 0>, fillcolor="#e58139"] ;
19 -> 20 ;
21 [label=<Age &le; 56.0<br/>gini = 0.285<br/>samples = 18<br/>value = [24, 5]<br/>class = 0>, fillcolor="#ea9b62"] ;
19 -> 21 ;
22 [label=<DiabetesPedigreeFunction &le; 0.82<br/>gini = 0.245<br/>samples = 17<br/>value = [24, 4]<br/>class = 0>, fillcolor="#e9965a"] ;
21 -> 22 ;
23 [label=<Glucose &le; 172.5<br/>gini = 0.147<br/>samples = 14<br/>value = [23, 2]<br/>class = 0>, fillcolor="#e78c4a"] ;
22 -> 23 ;
24 [label=<BMI &le; 28.2<br/>gini = 0.08<br/>samples = 13<br/>value = [23, 1]<br/>class = 0>, fillcolor="#e68642"] ;
23 -> 24 ;
25 [label=<gini = 0.0<br/>samples = 1<br/>value = [0, 1]<br/>class = 1>, fillcolor="#399de5"] ;
24 -> 25 ;
26 [label=<gini = 0.0<br/>samples = 12<br/>value = [23, 0]<br/>class = 0>, fillcolor="#e58139"] ;
24 -> 26 ;
27 [label=<gini = 0.0<br/>samples = 1<br/>value = [0, 1]<br/>class = 1>, fillcolor="#399de5"] ;
23 -> 27 ;
28 [label=<DiabetesPedigreeFunction &le; 0.88<br/>gini = 0.444<br/>samples = 3<br/>value = [1, 2]<br/>class = 1>, fillcolor="#9ccef2"] ;
22 -> 28 ;
29 [label=<gini = 0.0<br/>samples = 1<br/>value = [0, 1]<br/>class = 1>, fillcolor="#399de5"] ;
28 -> 29 ;
30 [label=<Glucose &le; 123.0<br/>gini = 0.5<br/>samples = 2<br/>value = [1, 1]<br/>class = 0>, fillcolor="#ffffff"] ;
28 -> 30 ;
31 [label=<gini = 0.0<br/>samples = 1<br/>value = [1, 0]<br/>class = 0>, fillcolor="#e58139"] ;
30 -> 31 ;
32 [label=<gini = 0.0<br/>samples = 1<br/>value = [0, 1]<br/>class = 1>, fillcolor="#399de5"] ;
30 -> 32 ;
33 [label=<gini = 0.0<br/>samples = 1<br/>value = [0, 1]<br/>class = 1>, fillcolor="#399de5"] ;
21 -> 33 ;
34 [label=<Insulin &le; 125.5<br/>gini = 0.493<br/>samples = 59<br/>value = [48, 38]<br/>class = 0>, fillcolor="#fae5d6"] ;
0 -> 34 [labeldistance=2.5, labelangle=-45, headlabel="False"] ;
35 [label=<Insulin &le; 103.0<br/>gini = 0.408<br/>samples = 26<br/>value = [30, 12]<br/>class = 0>, fillcolor="#efb388"] ;
34 -> 35 ;
36 [label=<Glucose &le; 113.0<br/>gini = 0.488<br/>samples = 18<br/>value = [15.0, 11.0]<br/>class = 0>, fillcolor="#f8ddca"] ;
35 -> 36 ;
37 [label=<DiabetesPedigreeFunction &le; 0.264<br/>gini = 0.346<br/>samples = 12<br/>value = [14, 4]<br/>class = 0>, fillcolor="#eca572"] ;
36 -> 37 ;
38 [label=<Pregnancies &le; 3.5<br/>gini = 0.444<br/>samples = 3<br/>value = [2, 4]<br/>class = 1>, fillcolor="#9ccef2"] ;
37 -> 38 ;
39 [label=<gini = 0.0<br/>samples = 1<br/>value = [0, 4]<br/>class = 1>, fillcolor="#399de5"] ;
38 -> 39 ;
40 [label=<gini = 0.0<br/>samples = 2<br/>value = [2, 0]<br/>class = 0>, fillcolor="#e58139"] ;
38 -> 40 ;
41 [label=<gini = 0.0<br/>samples = 9<br/>value = [12, 0]<br/>class = 0>, fillcolor="#e58139"] ;
37 -> 41 ;
42 [label=<Age &le; 52.5<br/>gini = 0.219<br/>samples = 6<br/>value = [1, 7]<br/>class = 1>, fillcolor="#55abe9"] ;
36 -> 42 ;
43 [label=<gini = 0.0<br/>samples = 5<br/>value = [0, 7]<br/>class = 1>, fillcolor="#399de5"] ;
42 -> 43 ;
44 [label=<gini = 0.0<br/>samples = 1<br/>value = [1, 0]<br/>class = 0>, fillcolor="#e58139"] ;
42 -> 44 ;
45 [label=<Age &le; 40.0<br/>gini = 0.117<br/>samples = 8<br/>value = [15, 1]<br/>class = 0>, fillcolor="#e78946"] ;
35 -> 45 ;
46 [label=<gini = 0.0<br/>samples = 5<br/>value = [12, 0]<br/>class = 0>, fillcolor="#e58139"] ;
45 -> 46 ;
47 [label=<Glucose &le; 171.0<br/>gini = 0.375<br/>samples = 3<br/>value = [3, 1]<br/>class = 0>, fillcolor="#eeab7b"] ;
45 -> 47 ;
48 [label=<gini = 0.0<br/>samples = 2<br/>value = [3, 0]<br/>class = 0>, fillcolor="#e58139"] ;
47 -> 48 ;
49 [label=<gini = 0.0<br/>samples = 1<br/>value = [0, 1]<br/>class = 1>, fillcolor="#399de5"] ;
47 -> 49 ;
50 [label=<Age &le; 57.0<br/>gini = 0.483<br/>samples = 33<br/>value = [18, 26]<br/>class = 1>, fillcolor="#c2e1f7"] ;
34 -> 50 ;
51 [label=<BMI &le; 37.65<br/>gini = 0.424<br/>samples = 27<br/>value = [11, 25]<br/>class = 1>, fillcolor="#90c8f0"] ;
50 -> 51 ;
52 [label=<Glucose &le; 110.5<br/>gini = 0.342<br/>samples = 24<br/>value = [7, 25]<br/>class = 1>, fillcolor="#70b8ec"] ;
51 -> 52 ;
53 [label=<BMI &le; 28.45<br/>gini = 0.444<br/>samples = 5<br/>value = [4, 2]<br/>class = 0>, fillcolor="#f2c09c"] ;
52 -> 53 ;
54 [label=<gini = 0.0<br/>samples = 1<br/>value = [0, 2]<br/>class = 1>, fillcolor="#399de5"] ;
53 -> 54 ;
55 [label=<gini = 0.0<br/>samples = 4<br/>value = [4, 0]<br/>class = 0>, fillcolor="#e58139"] ;
53 -> 55 ;
56 [label=<DiabetesPedigreeFunction &le; 0.135<br/>gini = 0.204<br/>samples = 19<br/>value = [3, 23]<br/>class = 1>, fillcolor="#53aae8"] ;
52 -> 56 ;
57 [label=<gini = 0.0<br/>samples = 1<br/>value = [1, 0]<br/>class = 0>, fillcolor="#e58139"] ;
56 -> 57 ;
58 [label=<Insulin &le; 330.0<br/>gini = 0.147<br/>samples = 18<br/>value = [2, 23]<br/>class = 1>, fillcolor="#4aa6e7"] ;
56 -> 58 ;
59 [label=<Glucose &le; 140.5<br/>gini = 0.08<br/>samples = 17<br/>value = [1, 23]<br/>class = 1>, fillcolor="#42a1e6"] ;
58 -> 59 ;
60 [label=<Insulin &le; 169.905<br/>gini = 0.245<br/>samples = 6<br/>value = [1, 6]<br/>class = 1>, fillcolor="#5aade9"] ;
59 -> 60 ;
61 [label=<Insulin &le; 149.571<br/>gini = 0.444<br/>samples = 2<br/>value = [1, 2]<br/>class = 1>, fillcolor="#9ccef2"] ;
60 -> 61 ;
62 [label=<gini = 0.0<br/>samples = 1<br/>value = [0, 2]<br/>class = 1>, fillcolor="#399de5"] ;
61 -> 62 ;
63 [label=<gini = 0.0<br/>samples = 1<br/>value = [1, 0]<br/>class = 0>, fillcolor="#e58139"] ;
61 -> 63 ;
64 [label=<gini = 0.0<br/>samples = 4<br/>value = [0, 4]<br/>class = 1>, fillcolor="#399de5"] ;
60 -> 64 ;
65 [label=<gini = 0.0<br/>samples = 11<br/>value = [0, 17]<br/>class = 1>, fillcolor="#399de5"] ;
59 -> 65 ;
66 [label=<gini = 0.0<br/>samples = 1<br/>value = [1, 0]<br/>class = 0>, fillcolor="#e58139"] ;
58 -> 66 ;
67 [label=<gini = 0.0<br/>samples = 3<br/>value = [4, 0]<br/>class = 0>, fillcolor="#e58139"] ;
51 -> 67 ;
68 [label=<DiabetesPedigreeFunction &le; 0.394<br/>gini = 0.219<br/>samples = 6<br/>value = [7, 1]<br/>class = 0>, fillcolor="#e99355"] ;
50 -> 68 ;
69 [label=<gini = 0.0<br/>samples = 3<br/>value = [5, 0]<br/>class = 0>, fillcolor="#e58139"] ;
68 -> 69 ;
70 [label=<BMI &le; 31.4<br/>gini = 0.444<br/>samples = 3<br/>value = [2, 1]<br/>class = 0>, fillcolor="#f2c09c"] ;
68 -> 70 ;
71 [label=<gini = 0.0<br/>samples = 2<br/>value = [2, 0]<br/>class = 0>, fillcolor="#e58139"] ;
70 -> 71 ;
72 [label=<gini = 0.0<br/>samples = 1<br/>value = [0, 1]<br/>class = 1>, fillcolor="#399de5"] ;
70 -> 72 ;
}