digraph Tree {
node [shape=box, style="filled, rounded", color="black", fontname="helvetica"] ;
edge [fontname="helvetica"] ;
0 [label=<Age &le; 22.5<br/>gini = 0.455<br/>samples = 99<br/>value = [100, 54]<br/>class = 0>, fillcolor="#f3c5a4"] ;
1 [label=<BMI &le; 37.9<br/>gini = 0.074<br/>samples = 17<br/>value = [25, 1]<br/>class = 0>, fillcolor="#e68641"] ;
0 -> 1 [labeldistance=2.5, labelangle=45, headlabel="True"] ;
2 [label=<gini = 0.0<br/>samples = 15<br/>value = [23, 0]<br/>class = 0>, fillcolor="#e58139"] ;
1 -> 2 ;
3 [label=<Age &le; 21.5<br/>gini = 0.444<br/>samples = 2<br/>value = [2, 1]<br/>class = 0>, fillcolor="#f2c09c"] ;
1 -> 3 ;
4 [label=<gini = 0.0<br/>samples = 1<br/>value = [2, 0]<br/>class = 0>, fillcolor="#e58139"] ;
3 -> 4 ;
5 [label=<gini = 0.0<br/>samples = 1<br/>value = [0, 1]<br/>class = 1>, fillcolor="#399de5"] ;
3 -> 5 ;
6 [label=<BMI &le; 42.25<br/>gini = 0.485<br/>samples = 82<br/>value = [75, 53]<br/>class = 0>, fillcolor="#f7dac5"] ;
0 -> 6 [labeldistance=2.5, labelangle=-45, headlabel="False"] ;
7 [label=<Pregnancies &le; 8.5<br/>gini = 0.456<br/>samples = 74<br/>value = [74, 40]<br/>class = 0>, fillcolor="#f3c5a4"] ;
6 -> 7 ;
8 [label=<Glucose &le; 156.0<br/>gini = 0.38<br/>samples = 62<br/>value = [70.0, 24.0]<br/>class = 0>, fillcolor="#eeac7d"] ;
7 -> 8 ;
9 [label=<Insulin &le; 36.5<br/>gini = 0.236<br/>samples = 48<br/>value = [63, 10]<br/>class = 0>, fillcolor="#e99558"] ;
8 -> 9 ;
10 [label=<BMI &le; 28.75<br/>gini = 0.444<br/>samples = 2<br/>value = [1, 2]<br/>class = 1>, fillcolor="#9ccef2"] ;
9 -> 10 ;
11 [label=<gini = 0.0<br/>samples = 1<br/>value = [1, 0]<br/>class = 0>, fillcolor="#e58139"] ;
10 -> 11 ;
12 [label=<gini = 0.0<br/>samples = 1<br/>value = [0, 2]<br/>class = 1>, fillcolor="#399de5"] ;
10 -> 12 ;
13 [label=<Glucose &le; 107.0<br/>gini = 0.202<br/>samples = 46<br/>value = [62, 8]<br/>class = 0>, fillcolor="#e89153"] ;
9 -> 13 ;
14 [label=<Age &le; 27.5<br/>gini = 0.061<br/>samples = 21<br/>value = [31, 1]<br/>class = 0>, fillcolor="#e6853f"] ;
13 -> 14 ;
15 [label=<Insulin &le; 70.5<br/>gini = 0.198<br/>samples = 7<br/>value = [8, 1]<br/>class = 0>, fillcolor="#e89152"] ;
14 -> 15 ;
16 [label=<Insulin &le; 64.5<br/>gini = 0.375<br/>samples = 4<br/>value = [3, 1]<br/>class = 0>, fillcolor="#eeab7b"] ;
15 -> 16 ;
17 [label=<gini = 0.0<br/>samples = 3<br/>value = [3, 0]<br/>class = 0>, fillcolor="#e58139"] ;
16 -> 17 ;
18 [label=<gini = 0.0<br/>samples = 1<br/>value = [0, 1]<br/>class = 1>, fillcolor="#399de5"] ;
16 -> 18 ;
19 [label=<gini = 0.0<br/>samples = 3<br/>value = [5, 0]<br/>class = 0>, fillcolor="#e58139"] ;
15 -> 19 ;
20 [label=<gini = 0.0<br/>samples = 14<br/>value = [23, 0]<br/>class = 0>, fillcolor="#e58139"] ;
14 -> 20 ;
21 [label=<Insulin &le; 197.0<br/>gini = 0.301<br/>samples = 25<br/>value = [31, 7]<br/>class = 0>, fillcolor="#eb9d66"] ;
13 -> 21 ;
22 [label=<Pregnancies &le; 7.5<br/>gini = 0.147<br/>samples = 17<br/>value = [23, 2]<br/>class = 0>, fillcolor="#e78c4a"] ;
21 -> 22 ;
23 [label=<Pregnancies &le; 6.0<br/>gini = 0.08<br/>samples = 16<br/>value = [23, 1]<br/>class = 0>, fillcolor="#e68642"] ;
22 -> 23 ;
24 [label=<gini = 0.0<br/>samples = 14<br/>value = [21, 0]<br/>class = 0>, fillcolor="#e58139"] ;
23 -> 24 ;
25 [label=<BMI &le; 32.9<br/>gini = 0.444<br/>samples = 2<br/>value = [2, 1]<br/>class = 0>, fillcolor="#f2c09c"] ;
23 -> 25 ;
26 [label=<gini = 0.0<br/>samples = 1<br/>value = [2, 0]<br/>class = 0>, fillcolor="#e58139"] ;
25 -> 26 ;
27 [label=<gini = 0.0<br/>samples = 1<br/>value = [0, 1]<br/>class = 1>, fillcolor="#399de5"] ;
25 -> 27 ;
28 [label=<gini = 0.0<br/>samples = 1<br/>value = [0, 1]<br/>class = 1>, fillcolor="#399de5"] ;
22 -> 28 ;
29 [label=<Pregnancies &le; 4.5<br/>gini = 0.473<br/>samples = 8<br/>value = [8, 5]<br/>class = 0>, fillcolor="#f5d0b5"] ;
21 -> 29 ;
30 [label=<BMI &le; 32.2<br/>gini = 0.408<br/>samples = 6<br/>value = [2, 5]<br/>class = 1>, fillcolor="#88c4ef"] ;
29 -> 30 ;
31 [label=<DiabetesPedigreeFunction &le; 0.31<br/>gini = 0.444<br/>samples = 2<br/>value = [2, 1]<br/>class = 0>, fillcolor="#f2c09c"] ;
30 -> 31 ;
32 [label=<gini = 0.0<br/>samples = 1<br/>value = [0, 1]<br/>class = 1>, fillcolor="#399de5"] ;
31 -> 32 ;
33 [label=<gini = 0.0<br/>samples = 1<br/>value = [2, 0]<br/>class = 0>, fillcolor="#e58139"] ;
31 -> 33 ;
34 [label=<gini = 0.0<br/>samples = 4<br/>value = [0, 4]<br/>class = 1>, fillcolor="#399de5"] ;
30 -> 34 ;
35 [label=<gini = 0.0<br/>samples = 2<br/>value = [6, 0]<br/>class = 0>, fillcolor="#e58139"] ;
29 -> 35 ;
36 [label=<Age &le; 45.5<br/>gini = 0.444<br/>samples = 14<br/>value = [7, 14]<br/>class = 1>, fillcolor="#9ccef2"] ;
8 -> 36 ;
37 [label=<Glucose &le; 188.0<br/>gini = 0.124<br/>samples = 11<br/>value = [1, 14]<br/>class = 1>, fillcolor="#47a4e7"] ;
36 -> 37 ;
38 [label=<gini = 0.0<br/>samples = 10<br/>value = [0, 14]<br/>class = 1>, fillcolor="#399de5"] ;
37 -> 38 ;
39 [label=<gini = 0.0<br/>samples = 1<br/>value = [1, 0]<br/>class = 0>, fillcolor="#e58139"] ;
37 -> 39 ;
40 [label=<gini = 0.0<br/>samples = 3<br/>value = [6, 0]<br/>class = 0>, fillcolor="#e58139"] ;
36 -> 40 ;
41 [label=<Glucose &le; 110.5<br/>gini = 0.32<br/>samples = 12<br/>value = [4, 16]<br/>class = 1>, fillcolor="#6ab6ec"] ;
7 -> 41 ;
42 [label=<DiabetesPedigreeFunction &le; 0.422<br/>gini = 0.32<br/>samples = 4<br/>value = [4, 1]<br/>class = 0>, fillcolor="#eca06a"] ;
41 -> 42 ;
43 [label=<gini = 0.0<br/>samples = 3<br/>value = [4, 0]<br/>class = 0>, fillcolor="#e58139"] ;
42 -> 43 ;
44 [label=<gini = 0.0<br/>samples = 1<br/>value = [0, 1]<br/>class = 1>, fillcolor="#399de5"] ;
42 -> 44 ;
45 [label=<gini = 0.0<br/>samples = 8<br/>value = [0, 15]<br/>class = 1>, fillcolor="#399de5"] ;
41 -> 45 ;
46 [label=<Insulin &le; 119.5<br/>gini = 0.133<br/>samples = 8<br/>value = [1, 13]<br/>class = 1>, fillcolor="#48a5e7"] ;
6 -> 46 ;
47 [label=<Age &le; 48.0<br/>gini = 0.32<br/>samples = 4<br/>value = [1, 4]<br/>class = 1>, fillcolor="#6ab6ec"] ;
46 -> 47 ;
48 [label=<gini = 0.0<br/>samples = 3<br/>value = [0, 4]<br/>class = 1>, fillcolor="#399de5"] ;
47 -> 48 ;
49 [label=<gini = 0.0<br/>samples = 1<br/>value = [1, 0]<br/>class = 0>, fillcolor="#e58139"] ;
47 -> 49 ;
50 [label=<gini = 0.0<br/>samples = 4<br/>value = [0, 9]<br/>class = 1>, fillcolor="#399de5"] ;
46 -> 50 ;
}