digraph Tree {
node [shape=box, style="filled, rounded", color="black", fontname="helvetica"] ;
edge [fontname="helvetica"] ;
0 [label=<Glucose &le; 118.5<br/>gini = 0.473<br/>samples = 106<br/>value = [95, 59]<br/>class = 0>, fillcolor="#f5cfb4"] ;
1 [label=<Glucose &le; 101.0<br/>gini = 0.221<br/>samples = 58<br/>value = [69, 10]<br/>class = 0>, fillcolor="#e99356"] ;
0 -> 1 [labeldistance=2.5, labelangle=45, headlabel="True"] ;
2 [label=<Glucose &le; 85.5<br/>gini = 0.081<br/>samples = 35<br/>value = [45, 2]<br/>class = 0>, fillcolor="#e68742"] ;
1 -> 2 ;
3 [label=<Insulin &le; 68.0<br/>gini = 0.219<br/>samples = 14<br/>value = [14, 2]<br/>class = 0>, fillcolor="#e99355"] ;
2 -> 3 ;
4 [label=<gini = 0.0<br/>samples = 7<br/>value = [9, 0]<br/>class = 0>, fillcolor="#e58139"] ;
3 -> 4 ;
5 [label=<Pregnancies &le; 2.5<br/>gini = 0.408<br/>samples = 7<br/>value = [5, 2]<br/>class = 0>, fillcolor="#efb388"] ;
3 -> 5 ;
6 [label=<gini = 0.0<br/>samples = 4<br/>value = [4, 0]<br/>class = 0>, fillcolor="#e58139"] ;
5 -> 6 ;
7 [label=<Pregnancies &le; 6.5<br/>gini = 0.444<br/>samples = 3<br/>value = [1, 2]<br/>class = 1>, fillcolor="#9ccef2"] ;
5 -> 7 ;
8 [label=<gini = 0.0<br/>samples = 2<br/>value = [0, 2]<br/>class = 1>, fillcolor="#399de5"] ;
7 -> 8 ;
9 [label=<gini = 0.0<br/>samples = 1<br/>value = [1, 0]<br/>class = 0>, fillcolor="#e58139"] ;
7 -> 9 ;
10 [label=<gini = 0.0<br/>samples = 21<br/>value = [31, 0]<br/>class = 0>, fillcolor="#e58139"] ;
2 -> 10 ;
11 [label=<Insulin &le; 200.0<br/>gini = 0.375<br/>samples = 23<br/>value = [24, 8]<br/>class = 0>, fillcolor="#eeab7b"] ;
1 -> 11 ;
12 [label=<DiabetesPedigreeFunction &le; 0.145<br/>gini = 0.269<br/>samples = 18<br/>value = [21, 4]<br/>class = 0>, fillcolor="#ea995f"] ;
11 -> 12 ;
13 [label=<gini = 0.0<br/>samples = 2<br/>value = [0, 3]<br/>class = 1>, fillcolor="#399de5"] ;
12 -> 13 ;
14 [label=<Age &le; 36.0<br/>gini = 0.087<br/>samples = 16<br/>value = [21, 1]<br/>class = 0>, fillcolor="#e68742"] ;
12 -> 14 ;
15 [label=<gini = 0.0<br/>samples = 9<br/>value = [13, 0]<br/>class = 0>, fillcolor="#e58139"] ;
14 -> 15 ;
16 [label=<Pregnancies &le; 9.5<br/>gini = 0.198<br/>samples = 7<br/>value = [8, 1]<br/>class = 0>, fillcolor="#e89152"] ;
14 -> 16 ;
17 [label=<gini = 0.0<br/>samples = 5<br/>value = [6, 0]<br/>class = 0>, fillcolor="#e58139"] ;
16 -> 17 ;
18 [label=<DiabetesPedigreeFunction &le; 0.322<br/>gini = 0.444<br/>samples = 2<br/>value = [2, 1]<br/>class = 0>, fillcolor="#f2c09c"] ;
16 -> 18 ;
19 [label=<gini = 0.0<br/>samples = 1<br/>value = [2, 0]<br/>class = 0>, fillcolor="#e58139"] ;
18 -> 19 ;
20 [label=<gini = 0.0<br/>samples = 1<br/>value = [0, 1]<br/>class = 1>, fillcolor="#399de5"] ;
18 -> 20 ;
21 [label=<Insulin &le; 221.0<br/>gini = 0.49<br/>samples = 5<br/>value = [3, 4]<br/>class = 1>, fillcolor="#cee6f8"] ;
11 -> 21 ;
22 [label=<gini = 0.0<br/>samples = 1<br/>value = [0, 2]<br/>class = 1>, fillcolor="#399de5"] ;
21 -> 22 ;
23 [label=<DiabetesPedigreeFunction &le; 0.663<br/>gini = 0.48<br/>samples = 4<br/>value = [3, 2]<br/>class = 0>, fillcolor="#f6d5bd"] ;
21 -> 23 ;
24 [label=<gini = 0.0<br/>samples = 3<br/>value = [3, 0]<br/>class = 0>, fillcolor="#e58139"] ;
23 -> 24 ;
25 [label=<gini = 0.0<br/>samples = 1<br/>value = [0, 2]<br/>class = 1>, fillcolor="#399de5"] ;
23 -> 25 ;
26 [label=<Pregnancies &le; 7.5<br/>gini = 0.453<br/>samples = 48<br/>value = [26, 49]<br/>class = 1>, fillcolor="#a2d1f3"] ;
0 -> 26 [labeldistance=2.5, labelangle=-45, headlabel="False"] ;
27 [label=<BMI &le; 30.15<br/>gini = 0.495<br/>samples = 37<br/>value = [26, 32]<br/>class = 1>, fillcolor="#daedfa"] ;
26 -> 27 ;
28 [label=<BMI &le; 27.35<br/>gini = 0.26<br/>samples = 9<br/>value = [11, 2]<br/>class = 0>, fillcolor="#ea985d"] ;
27 -> 28 ;
29 [label=<gini = 0.0<br/>samples = 4<br/>value = [7, 0]<br/>class = 0>, fillcolor="#e58139"] ;
28 -> 29 ;
30 [label=<Age &le; 33.0<br/>gini = 0.444<br/>samples = 5<br/>value = [4, 2]<br/>class = 0>, fillcolor="#f2c09c"] ;
28 -> 30 ;
31 [label=<gini = 0.0<br/>samples = 2<br/>value = [0, 2]<br/>class = 1>, fillcolor="#399de5"] ;
30 -> 31 ;
32 [label=<gini = 0.0<br/>samples = 3<br/>value = [4, 0]<br/>class = 0>, fillcolor="#e58139"] ;
30 -> 32 ;
33 [label=<Glucose &le; 156.0<br/>gini = 0.444<br/>samples = 28<br/>value = [15, 30]<br/>class = 1>, fillcolor="#9ccef2"] ;
27 -> 33 ;
34 [label=<DiabetesPedigreeFunction &le; 0.277<br/>gini = 0.476<br/>samples = 15<br/>value = [14, 9]<br/>class = 0>, fillcolor="#f6d2b8"] ;
33 -> 34 ;
35 [label=<Age &le; 51.0<br/>gini = 0.278<br/>samples = 4<br/>value = [1, 5]<br/>class = 1>, fillcolor="#61b1ea"] ;
34 -> 35 ;
36 [label=<gini = 0.0<br/>samples = 3<br/>value = [0, 5]<br/>class = 1>, fillcolor="#399de5"] ;
35 -> 36 ;
37 [label=<gini = 0.0<br/>samples = 1<br/>value = [1, 0]<br/>class = 0>, fillcolor="#e58139"] ;
35 -> 37 ;
38 [label=<DiabetesPedigreeFunction &le; 0.924<br/>gini = 0.36<br/>samples = 11<br/>value = [13, 4]<br/>class = 0>, fillcolor="#eda876"] ;
34 -> 38 ;
39 [label=<Glucose &le; 139.5<br/>gini = 0.305<br/>samples = 10<br/>value = [13, 3]<br/>class = 0>, fillcolor="#eb9e67"] ;
38 -> 39 ;
40 [label=<gini = 0.0<br/>samples = 4<br/>value = [6, 0]<br/>class = 0>, fillcolor="#e58139"] ;
39 -> 40 ;
41 [label=<BMI &le; 38.35<br/>gini = 0.42<br/>samples = 6<br/>value = [7, 3]<br/>class = 0>, fillcolor="#f0b78e"] ;
39 -> 41 ;
42 [label=<gini = 0.0<br/>samples = 3<br/>value = [6, 0]<br/>class = 0>, fillcolor="#e58139"] ;
41 -> 42 ;
43 [label=<Age &le; 47.5<br/>gini = 0.375<br/>samples = 3<br/>value = [1, 3]<br/>class = 1>, fillcolor="#7bbeee"] ;
41 -> 43 ;
44 [label=<Pregnancies &le; 0.5<br/>gini = 0.5<br/>samples = 2<br/>value = [1, 1]<br/>class = 0>, fillcolor="#ffffff"] ;
43 -> 44 ;
45 [label=<gini = 0.0<br/>samples = 1<br/>value = [0, 1]<br/>class = 1>, fillcolor="#399de5"] ;
44 -> 45 ;
46 [label=<gini = 0.0<br/>samples = 1<br/>value = [1, 0]<br/>class = 0>, fillcolor="#e58139"] ;
44 -> 46 ;
47 [label=<gini = 0.0<br/>samples = 1<br/>value = [0, 2]<br/>class = 1>, fillcolor="#399de5"] ;
43 -> 47 ;
48 [label=<gini = 0.0<br/>samples = 1<br/>value = [0, 1]<br/>class = 1>, fillcolor="#399de5"] ;
38 -> 48 ;
49 [label=<BMI &le; 32.85<br/>gini = 0.087<br/>samples = 13<br/>value = [1, 21]<br/>class = 1>, fillcolor="#42a2e6"] ;
33 -> 49 ;
50 [label=<DiabetesPedigreeFunction &le; 0.362<br/>gini = 0.32<br/>samples = 4<br/>value = [1, 4]<br/>class = 1>, fillcolor="#6ab6ec"] ;
49 -> 50 ;
51 [label=<gini = 0.0<br/>samples = 1<br/>value = [1, 0]<br/>class = 0>, fillcolor="#e58139"] ;
50 -> 51 ;
52 [label=<gini = 0.0<br/>samples = 3<br/>value = [0, 4]<br/>class = 1>, fillcolor="#399de5"] ;
50 -> 52 ;
53 [label=<gini = 0.0<br/>samples = 9<br/>value = [0, 17]<br/>class = 1>, fillcolor="#399de5"] ;
49 -> 53 ;
54 [label=<gini = 0.0<br/>samples = 11<br/>value = [0, 17]<br/>class = 1>, fillcolor="#399de5"] ;
26 -> 54 ;
}