digraph Tree {
node [shape=box, style="filled, rounded", color="black", fontname="helvetica"] ;
edge [fontname="helvetica"] ;
0 [label=<Glucose &le; 139.5<br/>gini = 0.424<br/>samples = 95<br/>value = [107, 47]<br/>class = 0>, fillcolor="#f0b890"] ;
1 [label=<BMI &le; 42.8<br/>gini = 0.247<br/>samples = 68<br/>value = [95, 16]<br/>class = 0>, fillcolor="#e9965a"] ;
0 -> 1 [labeldistance=2.5, labelangle=45, headlabel="True"] ;
2 [label=<Insulin &le; 166.0<br/>gini = 0.224<br/>samples = 66<br/>value = [95, 14]<br/>class = 0>, fillcolor="#e99456"] ;
1 -> 2 ;
3 [label=<Insulin &le; 38.0<br/>gini = 0.131<br/>samples = 42<br/>value = [66, 5]<br/>class = 0>, fillcolor="#e78b48"] ;
2 -> 3 ;
4 [label=<Age &le; 23.0<br/>gini = 0.5<br/>samples = 2<br/>value = [2, 2]<br/>class = 0>, fillcolor="#ffffff"] ;
3 -> 4 ;
5 [label=<gini = 0.0<br/>samples = 1<br/>value = [2, 0]<br/>class = 0>, fillcolor="#e58139"] ;
4 -> 5 ;
6 [label=<gini = 0.0<br/>samples = 1<br/>value = [0, 2]<br/>class = 1>, fillcolor="#399de5"] ;
4 -> 6 ;
7 [label=<Insulin &le; 126.0<br/>gini = 0.086<br/>samples = 40<br/>value = [64, 3]<br/>class = 0>, fillcolor="#e68742"] ;
3 -> 7 ;
8 [label=<DiabetesPedigreeFunction &le; 0.472<br/>gini = 0.042<br/>samples = 29<br/>value = [46, 1]<br/>class = 0>, fillcolor="#e6843d"] ;
7 -> 8 ;
9 [label=<gini = 0.0<br/>samples = 18<br/>value = [28, 0]<br/>class = 0>, fillcolor="#e58139"] ;
8 -> 9 ;
10 [label=<Insulin &le; 65.0<br/>gini = 0.1<br/>samples = 11<br/>value = [18, 1]<br/>class = 0>, fillcolor="#e68844"] ;
8 -> 10 ;
11 [label=<Age &le; 23.5<br/>gini = 0.444<br/>samples = 3<br/>value = [2, 1]<br/>class = 0>, fillcolor="#f2c09c"] ;
10 -> 11 ;
12 [label=<gini = 0.0<br/>samples = 1<br/>value = [0, 1]<br/>class = 1>, fillcolor="#399de5"] ;
11 -> 12 ;
13 [label=<gini = 0.0<br/>samples = 2<br/>value = [2, 0]<br/>class = 0>, fillcolor="#e58139"] ;
11 -> 13 ;
14 [label=<gini = 0.0<br/>samples = 8<br/>value = [16, 0]<br/>class = 0>, fillcolor="#e58139"] ;
10 -> 14 ;
15 [label=<Age &le; 38.0<br/>gini = 0.18<br/>samples = 11<br/>value = [18, 2]<br/>class = 0>, fillcolor="#e88f4f"] ;
7 -> 15 ;
16 [label=<gini = 0.0<br/>samples = 8<br/>value = [17, 0]<br/>class = 0>, fillcolor="#e58139"] ;
15 -> 16 ;
17 [label=<BMI &le; 35.95<br/>gini = 0.444<br/>samples = 3<br/>value = [1, 2]<br/>class = 1>, fillcolor="#9ccef2"] ;
15 -> 17 ;
18 [label=<gini = 0.0<br/>samples = 2<br/>value = [0, 2]<br/>class = 1>, fillcolor="#399de5"] ;
17 -> 18 ;
19 [label=<gini = 0.0<br/>samples = 1<br/>value = [1, 0]<br/>class = 0>, fillcolor="#e58139"] ;
17 -> 19 ;
20 [label=<Glucose &le; 107.0<br/>gini = 0.361<br/>samples = 24<br/>value = [29, 9]<br/>class = 0>, fillcolor="#eda876"] ;
2 -> 20 ;
21 [label=<Pregnancies &le; 11.0<br/>gini = 0.117<br/>samples = 9<br/>value = [15, 1]<br/>class = 0>, fillcolor="#e78946"] ;
20 -> 21 ;
22 [label=<gini = 0.0<br/>samples = 8<br/>value = [15, 0]<br/>class = 0>, fillcolor="#e58139"] ;
21 -> 22 ;
23 [label=<gini = 0.0<br/>samples = 1<br/>value = [0, 1]<br/>class = 1>, fillcolor="#399de5"] ;
21 -> 23 ;
24 [label=<Glucose &le; 109.5<br/>gini = 0.463<br/>samples = 15<br/>value = [14, 8]<br/>class = 0>, fillcolor="#f4c9aa"] ;
20 -> 24 ;
25 [label=<gini = 0.0<br/>samples = 1<br/>value = [0, 2]<br/>class = 1>, fillcolor="#399de5"] ;
24 -> 25 ;
26 [label=<Insulin &le; 208.5<br/>gini = 0.42<br/>samples = 14<br/>value = [14, 6]<br/>class = 0>, fillcolor="#f0b78e"] ;
24 -> 26 ;
27 [label=<Age &le; 26.5<br/>gini = 0.444<br/>samples = 7<br/>value = [3, 6]<br/>class = 1>, fillcolor="#9ccef2"] ;
26 -> 27 ;
28 [label=<gini = 0.0<br/>samples = 2<br/>value = [3, 0]<br/>class = 0>, fillcolor="#e58139"] ;
27 -> 28 ;
29 [label=<gini = 0.0<br/>samples = 5<br/>value = [0, 6]<br/>class = 1>, fillcolor="#399de5"] ;
27 -> 29 ;
30 [label=<gini = 0.0<br/>samples = 7<br/>value = [11, 0]<br/>class = 0>, fillcolor="#e58139"] ;
26 -> 30 ;
31 [label=<gini = 0.0<br/>samples = 2<br/>value = [0, 2]<br/>class = 1>, fillcolor="#399de5"] ;
1 -> 31 ;
32 [label=<Insulin &le; 148.643<br/>gini = 0.402<br/>samples = 27<br/>value = [12.0, 31.0]<br/>class = 1>, fillcolor="#86c3ef"] ;
0 -> 32 [labeldistance=2.5, labelangle=-45, headlabel="False"] ;
33 [label=<Pregnancies &le; 6.0<br/>gini = 0.457<br/>samples = 11<br/>value = [11, 6]<br/>class = 0>, fillcolor="#f3c6a5"] ;
32 -> 33 ;
34 [label=<DiabetesPedigreeFunction &le; 0.386<br/>gini = 0.337<br/>samples = 8<br/>value = [11, 3]<br/>class = 0>, fillcolor="#eca36f"] ;
33 -> 34 ;
35 [label=<gini = 0.0<br/>samples = 4<br/>value = [9, 0]<br/>class = 0>, fillcolor="#e58139"] ;
34 -> 35 ;
36 [label=<Pregnancies &le; 0.5<br/>gini = 0.48<br/>samples = 4<br/>value = [2, 3]<br/>class = 1>, fillcolor="#bddef6"] ;
34 -> 36 ;
37 [label=<gini = 0.0<br/>samples = 2<br/>value = [0, 2]<br/>class = 1>, fillcolor="#399de5"] ;
36 -> 37 ;
38 [label=<Glucose &le; 170.5<br/>gini = 0.444<br/>samples = 2<br/>value = [2, 1]<br/>class = 0>, fillcolor="#f2c09c"] ;
36 -> 38 ;
39 [label=<gini = 0.0<br/>samples = 1<br/>value = [2, 0]<br/>class = 0>, fillcolor="#e58139"] ;
38 -> 39 ;
40 [label=<gini = 0.0<br/>samples = 1<br/>value = [0, 1]<br/>class = 1>, fillcolor="#399de5"] ;
38 -> 40 ;
41 [label=<gini = 0.0<br/>samples = 3<br/>value = [0, 3]<br/>class = 1>, fillcolor="#399de5"] ;
33 -> 41 ;
42 [label=<Age &le; 55.5<br/>gini = 0.074<br/>samples = 16<br/>value = [1, 25]<br/>class = 1>, fillcolor="#41a1e6"] ;
32 -> 42 ;
43 [label=<gini = 0.0<br/>samples = 13<br/>value = [0, 23]<br/>class = 1>, fillcolor="#399de5"] ;
42 -> 43 ;
44 [label=<DiabetesPedigreeFunction &le; 0.59<br/>gini = 0.444<br/>samples = 3<br/>value = [1, 2]<br/>class = 1>, fillcolor="#9ccef2"] ;
42 -> 44 ;
45 [label=<gini = 0.0<br/>samples = 2<br/>value = [0, 2]<br/>class = 1>, fillcolor="#399de5"] ;
44 -> 45 ;
46 [label=<gini = 0.0<br/>samples = 1<br/>value = [1, 0]<br/>class = 0>, fillcolor="#e58139"] ;
44 -> 46 ;
}