digraph Tree {
node [shape=box, style="filled, rounded", color="black", fontname="helvetica"] ;
edge [fontname="helvetica"] ;
0 [label=<Glucose &le; 110.5<br/>gini = 0.451<br/>samples = 99<br/>value = [101.0, 53.0]<br/>class = 0>, fillcolor="#f3c3a1"] ;
1 [label=<Insulin &le; 257.333<br/>gini = 0.224<br/>samples = 50<br/>value = [68, 10]<br/>class = 0>, fillcolor="#e99456"] ;
0 -> 1 [labeldistance=2.5, labelangle=45, headlabel="True"] ;
2 [label=<Insulin &le; 117.5<br/>gini = 0.191<br/>samples = 47<br/>value = [67, 8]<br/>class = 0>, fillcolor="#e89051"] ;
1 -> 2 ;
3 [label=<BMI &le; 33.4<br/>gini = 0.087<br/>samples = 29<br/>value = [42, 2]<br/>class = 0>, fillcolor="#e68742"] ;
2 -> 3 ;
4 [label=<gini = 0.0<br/>samples = 17<br/>value = [28, 0]<br/>class = 0>, fillcolor="#e58139"] ;
3 -> 4 ;
5 [label=<Pregnancies &le; 1.0<br/>gini = 0.219<br/>samples = 12<br/>value = [14, 2]<br/>class = 0>, fillcolor="#e99355"] ;
3 -> 5 ;
6 [label=<Insulin &le; 38.0<br/>gini = 0.444<br/>samples = 3<br/>value = [1, 2]<br/>class = 1>, fillcolor="#9ccef2"] ;
5 -> 6 ;
7 [label=<gini = 0.0<br/>samples = 1<br/>value = [0, 1]<br/>class = 1>, fillcolor="#399de5"] ;
6 -> 7 ;
8 [label=<Age &le; 21.5<br/>gini = 0.5<br/>samples = 2<br/>value = [1, 1]<br/>class = 0>, fillcolor="#ffffff"] ;
6 -> 8 ;
9 [label=<gini = 0.0<br/>samples = 1<br/>value = [1, 0]<br/>class = 0>, fillcolor="#e58139"] ;
8 -> 9 ;
10 [label=<gini = 0.0<br/>samples = 1<br/>value = [0, 1]<br/>class = 1>, fillcolor="#399de5"] ;
8 -> 10 ;
11 [label=<gini = 0.0<br/>samples = 9<br/>value = [13, 0]<br/>class = 0>, fillcolor="#e58139"] ;
5 -> 11 ;
12 [label=<DiabetesPedigreeFunction &le; 0.149<br/>gini = 0.312<br/>samples = 18<br/>value = [25, 6]<br/>class = 0>, fillcolor="#eb9f69"] ;
2 -> 12 ;
13 [label=<gini = 0.0<br/>samples = 1<br/>value = [0, 3]<br/>class = 1>, fillcolor="#399de5"] ;
12 -> 13 ;
14 [label=<Insulin &le; 124.75<br/>gini = 0.191<br/>samples = 17<br/>value = [25, 3]<br/>class = 0>, fillcolor="#e89051"] ;
12 -> 14 ;
15 [label=<gini = 0.0<br/>samples = 1<br/>value = [0, 1]<br/>class = 1>, fillcolor="#399de5"] ;
14 -> 15 ;
16 [label=<Insulin &le; 132.5<br/>gini = 0.137<br/>samples = 16<br/>value = [25, 2]<br/>class = 0>, fillcolor="#e78b49"] ;
14 -> 16 ;
17 [label=<Glucose &le; 100.0<br/>gini = 0.408<br/>samples = 4<br/>value = [5, 2]<br/>class = 0>, fillcolor="#efb388"] ;
16 -> 17 ;
18 [label=<gini = 0.0<br/>samples = 3<br/>value = [5, 0]<br/>class = 0>, fillcolor="#e58139"] ;
17 -> 18 ;
19 [label=<gini = 0.0<br/>samples = 1<br/>value = [0, 2]<br/>class = 1>, fillcolor="#399de5"] ;
17 -> 19 ;
20 [label=<gini = 0.0<br/>samples = 12<br/>value = [20, 0]<br/>class = 0>, fillcolor="#e58139"] ;
16 -> 20 ;
21 [label=<Insulin &le; 288.5<br/>gini = 0.444<br/>samples = 3<br/>value = [1, 2]<br/>class = 1>, fillcolor="#9ccef2"] ;
1 -> 21 ;
22 [label=<gini = 0.0<br/>samples = 2<br/>value = [0, 2]<br/>class = 1>, fillcolor="#399de5"] ;
21 -> 22 ;
23 [label=<gini = 0.0<br/>samples = 1<br/>value = [1, 0]<br/>class = 0>, fillcolor="#e58139"] ;
21 -> 23 ;
24 [label=<DiabetesPedigreeFunction &le; 0.734<br/>gini = 0.491<br/>samples = 49<br/>value = [33, 43]<br/>class = 1>, fillcolor="#d1e8f9"] ;
0 -> 24 [labeldistance=2.5, labelangle=-45, headlabel="False"] ;
25 [label=<Glucose &le; 180.0<br/>gini = 0.497<br/>samples = 41<br/>value = [33, 28]<br/>class = 0>, fillcolor="#fbece1"] ;
24 -> 25 ;
26 [label=<Pregnancies &le; 7.5<br/>gini = 0.475<br/>samples = 37<br/>value = [33, 21]<br/>class = 0>, fillcolor="#f6d1b7"] ;
25 -> 26 ;
27 [label=<Age &le; 57.0<br/>gini = 0.363<br/>samples = 27<br/>value = [32, 10]<br/>class = 0>, fillcolor="#eda877"] ;
26 -> 27 ;
28 [label=<Glucose &le; 111.5<br/>gini = 0.437<br/>samples = 21<br/>value = [21, 10]<br/>class = 0>, fillcolor="#f1bd97"] ;
27 -> 28 ;
29 [label=<gini = 0.0<br/>samples = 1<br/>value = [0, 2]<br/>class = 1>, fillcolor="#399de5"] ;
28 -> 29 ;
30 [label=<Pregnancies &le; 4.5<br/>gini = 0.4<br/>samples = 20<br/>value = [21, 8]<br/>class = 0>, fillcolor="#efb184"] ;
28 -> 30 ;
31 [label=<Glucose &le; 142.0<br/>gini = 0.287<br/>samples = 14<br/>value = [19, 4]<br/>class = 0>, fillcolor="#ea9c63"] ;
30 -> 31 ;
32 [label=<DiabetesPedigreeFunction &le; 0.531<br/>gini = 0.426<br/>samples = 10<br/>value = [9, 4]<br/>class = 0>, fillcolor="#f1b991"] ;
31 -> 32 ;
33 [label=<Insulin &le; 137.5<br/>gini = 0.198<br/>samples = 8<br/>value = [8, 1]<br/>class = 0>, fillcolor="#e89152"] ;
32 -> 33 ;
34 [label=<Glucose &le; 126.0<br/>gini = 0.5<br/>samples = 2<br/>value = [1, 1]<br/>class = 0>, fillcolor="#ffffff"] ;
33 -> 34 ;
35 [label=<gini = 0.0<br/>samples = 1<br/>value = [1, 0]<br/>class = 0>, fillcolor="#e58139"] ;
34 -> 35 ;
36 [label=<gini = 0.0<br/>samples = 1<br/>value = [0, 1]<br/>class = 1>, fillcolor="#399de5"] ;
34 -> 36 ;
37 [label=<gini = 0.0<br/>samples = 6<br/>value = [7, 0]<br/>class = 0>, fillcolor="#e58139"] ;
33 -> 37 ;
38 [label=<DiabetesPedigreeFunction &le; 0.634<br/>gini = 0.375<br/>samples = 2<br/>value = [1, 3]<br/>class = 1>, fillcolor="#7bbeee"] ;
32 -> 38 ;
39 [label=<gini = 0.0<br/>samples = 1<br/>value = [0, 3]<br/>class = 1>, fillcolor="#399de5"] ;
38 -> 39 ;
40 [label=<gini = 0.0<br/>samples = 1<br/>value = [1, 0]<br/>class = 0>, fillcolor="#e58139"] ;
38 -> 40 ;
41 [label=<gini = 0.0<br/>samples = 4<br/>value = [10, 0]<br/>class = 0>, fillcolor="#e58139"] ;
31 -> 41 ;
42 [label=<Age &le; 41.5<br/>gini = 0.444<br/>samples = 6<br/>value = [2, 4]<br/>class = 1>, fillcolor="#9ccef2"] ;
30 -> 42 ;
43 [label=<gini = 0.0<br/>samples = 3<br/>value = [0, 3]<br/>class = 1>, fillcolor="#399de5"] ;
42 -> 43 ;
44 [label=<Age &le; 52.0<br/>gini = 0.444<br/>samples = 3<br/>value = [2, 1]<br/>class = 0>, fillcolor="#f2c09c"] ;
42 -> 44 ;
45 [label=<gini = 0.0<br/>samples = 2<br/>value = [2, 0]<br/>class = 0>, fillcolor="#e58139"] ;
44 -> 45 ;
46 [label=<gini = 0.0<br/>samples = 1<br/>value = [0, 1]<br/>class = 1>, fillcolor="#399de5"] ;
44 -> 46 ;
47 [label=<gini = 0.0<br/>samples = 6<br/>value = [11, 0]<br/>class = 0>, fillcolor="#e58139"] ;
27 -> 47 ;
48 [label=<DiabetesPedigreeFunction &le; 0.138<br/>gini = 0.153<br/>samples = 10<br/>value = [1, 11]<br/>class = 1>, fillcolor="#4ba6e7"] ;
26 -> 48 ;
49 [label=<gini = 0.0<br/>samples = 1<br/>value = [1, 0]<br/>class = 0>, fillcolor="#e58139"] ;
48 -> 49 ;
50 [label=<gini = 0.0<br/>samples = 9<br/>value = [0, 11]<br/>class = 1>, fillcolor="#399de5"] ;
48 -> 50 ;
51 [label=<gini = 0.0<br/>samples = 4<br/>value = [0, 7]<br/>class = 1>, fillcolor="#399de5"] ;
25 -> 51 ;
52 [label=<gini = 0.0<br/>samples = 8<br/>value = [0, 15]<br/>class = 1>, fillcolor="#399de5"] ;
24 -> 52 ;
}